svm_type c_svc
kernel_type rbf
gamma 0.5
nr_class 2
total_sv 323
rho 1.91241
label 0 1
probA -0.482105
probB -0.452367
nr_sv 167 156
SV
87.45608276096351 1:1.054 2:2.002 3:0.763 4:0.745 5:0 6:4.66 
128 1:1.074 2:1.915 3:0.259 4:0.714 5:0 6:4.286 
128 1:1.023 2:1.924 3:0.505 4:0.919 5:0 6:0.919 
128 1:1.016 2:2.028 3:0.671 4:0.919 5:0 6:0.541 
28.41869869062955 1:1.1 2:2.259 3:0.182 4:0.761 5:0 6:3.5 
128 1:1.046 2:1.989 3:0.351 4:0.854 5:0 6:3.171 
128 1:1.051 2:2.467 3:0.829 4:0.805 5:0 6:2.976 
128 1:1.117 2:1.763 3:0.304 4:1 5:0.623 6:1.745 
92.68578171214693 1:1.238 2:1.55 3:0.224 4:0.825 5:0 6:3.018 
128 1:1 2:1.643 3:0.317 4:0.982 5:0 6:0.053 
46.28170733236091 1:1.162 2:1.996 3:0.444 4:0.905 5:0.897 6:5.048 
121.6080734608001 1:1.08 2:2.2 3:0.648 4:0.673 5:0 6:2.2 
128 1:1.219 2:1.711 3:0.227 4:0.875 5:0.391 6:5.625 
128 1:1.04 2:1.931 3:0.446 4:0.94 5:0 6:2.358 
128 1:1.104 2:2.023 3:0.344 4:0.899 5:0.473 6:4.089 
128 1:1.148 2:1.912 3:0.396 4:0.955 5:0.923 6:3.388 
128 1:1.032 2:1.969 3:0.453 4:0.81 5:0 6:1.444 
6.758528188462877 1:1.171 2:2.479 3:0.173 4:0.875 5:1.017 6:4.931 
61.35147139240882 1:1.314 2:1.917 3:0.206 4:0.91 5:0.737 6:5.642 
46.52991229412591 1:1.04 2:2.073 3:0.362 4:0.763 5:0 6:1.22 
68.23939421015756 1:1.102 2:1.583 3:0.294 4:0.902 5:1.002 6:3.082 
95.45971718098569 1:1.11 2:1.615 3:0.139 4:0.95 5:0.426 6:3.8 
44.82032423045157 1:1.386 2:2.402 3:0.113 4:0.968 5:0.444 6:4.774 
72.19405434130768 1:1.189 2:2.34 3:0.051 4:0.952 5:0.72 6:3.556 
86.10669967507599 1:1.086 2:1.713 3:0.154 4:0.923 5:1.015 6:0.962 
97.33314546041503 1:1.192 2:2.182 3:0.22 4:0.938 5:0.885 6:3.547 
128 1:1.029 2:2.383 3:0.501 4:1 5:0.557 6:0.796 
16.69285964648683 1:1.09 2:1.607 3:0.163 4:0.831 5:1.104 6:4.898 
128 1:1.057 2:1.694 3:0.251 4:0.862 5:0 6:2.207 
78.0273039606459 1:1.058 2:1.909 3:0.87 4:0.526 5:0 6:7.263 
59.72878944806708 1:1.084 2:1.702 3:0.894 4:0.68 5:0 6:7.84 
13.51693718412114 1:1.036 2:1.965 3:1.157 4:0.5 5:0 6:3.36 
5.815255706237157 1:1.245 2:1.667 3:0.234 4:0.894 5:1.035 6:2.894 
128 1:1.007 2:1.881 3:0.678 4:1 5:0.418 6:0.574 
22.34964245095976 1:1.099 2:1.882 3:0.678 4:0.711 5:0 6:2.2 
74.21463507930231 1:1.124 2:1.663 3:0.518 4:0.797 5:0 6:3.188 
3.047287102796934 1:1.103 2:2.216 3:1.071 4:0.551 5:0 6:5.435 
128 1:1.043 2:1.782 3:0.46 4:0.81 5:0 6:1.793 
116.1956847138875 1:1.115 2:1.776 3:0.454 4:0.603 5:0 6:7.069 
24.89370489189057 1:1.19 2:2.341 3:0.737 4:0.642 5:0 6:3.716 
16.30761541816017 1:1.085 2:2.001 3:0.087 4:0.951 5:0 6:1.672 
19.43974388388786 1:1.196 2:2.337 3:0.423 4:0.623 5:0 6:11.23 
12.02043974475228 1:1.063 2:2.147 3:0.424 4:0.492 5:0 6:15.016 
128 1:1.053 2:1.615 3:0.255 4:0.806 5:0 6:2.613 
128 1:1.081 2:1.632 3:0.272 4:0.629 5:0 6:9.306 
25.69500532733939 1:1.023 2:1.745 3:1.041 4:0.667 5:0 6:1.979 
126.6034325670376 1:1.005 2:1.623 3:0.849 4:0.976 5:0 6:0.071 
93.46544025346726 1:1.082 2:1.278 3:0.504 4:0.69 5:0 6:5.69 
128 1:1.061 2:1.761 3:0.881 4:0.804 5:0 6:3.283 
14.92885842817632 1:1.004 2:2.885 3:1.833 4:1 5:0.823 6:0.926 
117.1138441757219 1:1.096 2:2.053 3:0.416 4:1 5:0.698 6:1.931 
128 1:1.02 2:2.276 3:0.653 4:1 5:0.854 6:0.909 
37.96969750537278 1:1.334 2:1.844 3:0.353 4:0.854 5:0.688 6:5.22 
128 1:1.034 2:1.967 3:0.476 4:1 5:0.669 6:1.75 
128 1:1.072 2:2.052 3:0.532 4:0.718 5:0 6:5.41 
30.28998767936996 1:1.055 2:1.778 3:0.405 4:1 5:0.529 6:0.775 
128 1:1.071 2:1.585 3:0.265 4:0.861 5:0 6:2.194 
57.74534564440874 1:1 2:2.46 3:0 4:1 5:0 6:0 
22.54433510165351 1:1.025 2:3.252 3:0.792 4:0.721 5:0 6:5.86 
2.150813530035155 1:1.906 2:2.483 3:0.278 4:0.69 5:1.109 6:7.238 
87.5076711467229 1:1.059 2:2.696 3:0.49 4:0.667 5:0 6:3.361 
128 1:1.09 2:1.616 3:0.079 4:0.894 5:0 6:1.553 
128 1:1.008 2:2.077 3:0.54 4:0.894 5:0 6:1.213 
109.6021142799544 1:1.035 2:1.659 3:0.402 4:0.905 5:0 6:1.381 
128 1:1.097 2:1.67 3:0.413 4:0.81 5:0 6:3.262 
128 1:1 2:1.609 3:0.276 4:1 5:0 6:0 
128 1:1.013 2:2.002 3:0.669 4:0.941 5:0 6:0.529 
128 1:1.104 2:1.895 3:0.481 4:1 5:0.576 6:4.578 
91.09738938482596 1:1.033 2:1.63 3:0.217 4:1 5:0.834 6:1.371 
128 1:1.052 2:1.987 3:0.634 4:1 5:0.517 6:1.452 
93.80604520618414 1:1.07 2:1.587 3:0.547 4:1 5:0.712 6:2.824 
128 1:1.097 2:1.672 3:0.449 4:1 5:0.618 6:2.645 
128 1:1.171 2:1.634 3:0.514 4:0.962 5:0.507 6:1.923 
128 1:1.081 2:1.917 3:0.797 4:1 5:0.602 6:2.281 
128 1:1.035 2:1.694 3:0.34 4:1 5:0.764 6:0.848 
128 1:1.054 2:1.674 3:0.351 4:1 5:0.646 6:2.184 
97.47249636978734 1:1.059 2:1.695 3:0.488 4:0.848 5:0 6:2.303 
54.91917530518593 1:1.012 2:2.051 3:0.844 4:1 5:0.858 6:0.324 
66.26109819947725 1:1.022 2:1.862 3:0.768 4:1 5:0.829 6:1.382 
22.14305776960101 1:1.349 2:1.97 3:0.127 4:0.897 5:0.653 6:5.179 
14.2844946770029 1:1.143 2:2.057 3:0.415 4:0.857 5:0.746 6:4.329 
128 1:1.156 2:1.863 3:0.319 4:0.875 5:0.48 6:3.167 
98.2765916969414 1:1.082 2:2.133 3:0.206 4:0.772 5:0 6:4.063 
128 1:1.109 2:2.237 3:0.309 4:0.646 5:0 6:4.684 
90.80432541702073 1:1.192 2:1.951 3:0.125 4:0.768 5:0 6:5.696 
128 1:1.121 2:2.231 3:0.404 4:0.725 5:0 6:6.841 
128 1:1.091 2:1.945 3:0.164 4:0.966 5:0.351 6:1.382 
124.1389598915537 1:1.188 2:1.737 3:0.213 4:1 5:0.394 6:4.321 
128 1:1.141 2:1.998 3:0.475 4:0.893 5:0.894 6:6.655 
54.89217752868299 1:1.296 2:1.885 3:0.118 4:0.973 5:0.782 6:6.041 
128 1:1.035 2:2.021 3:0.254 4:0.557 5:0 6:2.41 
128 1:1.022 2:1.801 3:0.238 4:0.99 5:0.959 6:0.875 
105.0075024335703 1:1.111 2:1.767 3:0.204 4:0.705 5:0 6:3.747 
38.62666073547247 1:1.208 2:2.152 3:-0.004 4:0.452 5:0 6:8.274 
128 1:1.124 2:2.013 3:0.419 4:0.973 5:0.255 6:3.301 
16.35023535792816 1:1.28 2:1.937 3:0.078 4:0.9 5:0.322 6:6.033 
126.7044994582226 1:1.139 2:1.742 3:0.187 4:0.962 5:0.72 6:2.788 
15.79285086422833 1:1.146 2:2.222 3:0.293 4:0.855 5:1.101 6:3.145 
128 1:1.135 2:2.049 3:0.21 4:0.949 5:0.508 6:3.644 
128 1:1.225 2:1.849 3:0.165 4:0.509 5:0 6:9 
128 1:1.153 2:2.128 3:0.276 4:0.748 5:0 6:7.713 
125.4245021527331 1:1.204 2:1.977 3:0.211 4:0.904 5:0.281 6:3.176 
128 1:1.196 2:1.961 3:0.195 4:0.45 5:0 6:7.73 
128 1:1.072 2:1.797 3:0.293 4:0.847 5:0 6:2.188 
128 1:1.115 2:2.041 3:0.538 4:0.388 5:0 6:8.976 
62.2921101958849 1:1.076 2:1.934 3:0.317 4:0.562 5:0 6:7.865 
96.03706990176732 1:1.179 2:2.053 3:0.456 4:0.524 5:0 6:8.366 
128 1:1.257 2:1.928 3:0.201 4:0.849 5:0 6:4.839 
128 1:1.063 2:1.858 3:0.505 4:0.461 5:0 6:5.908 
128 1:1.165 2:2.03 3:0.161 4:0.85 5:0 6:7.014 
128 1:1.118 2:2.061 3:0.192 4:0.524 5:0 6:5.694 
128 1:1.107 2:1.959 3:0.411 4:0.567 5:0 6:9.711 
128 1:1.195 2:2.047 3:0.43 4:0.5 5:0 6:8.618 
61.77973973966574 1:1.392 2:2.015 3:0.235 4:0.816 5:1.015 6:9.575 
128 1:1.174 2:1.964 3:0.184 4:0.375 5:0 6:6.225 
128 1:1.225 2:1.796 3:0.114 4:0.821 5:0.548 6:6.013 
128 1:1.164 2:1.936 3:0.142 4:0.551 5:0 6:12.928 
128 1:1.129 2:1.959 3:0.164 4:0.623 5:0 6:6.58 
128 1:1.071 2:1.919 3:-0.223 4:0.609 5:0 6:4.453 
128 1:1.026 2:1.876 3:0.238 4:0.702 5:0 6:2.957 
128 1:1.087 2:2.037 3:-0.037 4:0.657 5:0 6:2.701 
128 1:1.08 2:1.856 3:0.146 4:0.565 5:0 6:5.855 
7.793064355097466 1:1.074 2:1.862 3:0.127 4:0.845 5:0 6:3.07 
14.5648316565233 1:1.155 2:1.934 3:0.199 4:0.535 5:0 6:10.141 
128 1:1.009 2:1.903 3:0.36 4:0.967 5:0 6:1.41 
115.7813775666678 1:1.028 2:2.174 3:0.351 4:0.943 5:0 6:2.314 
128 1:1.04 2:1.87 3:0.052 4:1 5:0.628 6:2.406 
128 1:1.127 2:2.034 3:0.16 4:1 5:0.369 6:3.295 
128 1:1.025 2:1.707 3:-0.167 4:1 5:0.691 6:0.8 
128 1:1.103 2:1.996 3:0.441 4:0.604 5:0 6:4.792 
128 1:1.109 2:1.798 3:0.295 4:0.605 5:0 6:3.628 
67.49364955326638 1:1.13 2:1.974 3:0.152 4:0.74 5:0 6:2.44 
4.558540876797951 1:1 2:0.946 3:0 4:1 5:0 6:0 
128 1:1.127 2:2.379 3:0.413 4:0.62 5:0 6:4.54 
128 1:1.213 2:2.193 3:0.227 4:0.36 5:0 6:6.36 
102.6774908849177 1:1.091 2:1.772 3:0.05 4:1 5:0.241 6:3.13 
93.6737093870192 1:1.019 2:2.044 3:0.323 4:0.943 5:0 6:0.543 
128 1:1.085 2:1.874 3:0.232 4:0.714 5:0 6:3.429 
4.294334473987425 1:1 2:3.059 3:0 4:1 5:0 6:0 
128 1:1.113 2:1.89 3:0.119 4:1 5:0.284 6:2.362 
2.371366019791532 1:1.09 2:1.858 3:0.195 4:0.971 5:0.547 6:0.559 
92.38121987233987 1:1.105 2:1.427 3:0.281 4:1 5:0.582 6:3.475 
58.64155240619547 1:1.03 2:1.283 3:0.423 4:1 5:0.588 6:1.308 
128 1:1.064 2:1.511 3:0.725 4:1 5:0.279 6:2.438 
128 1:1.161 2:1.441 3:0.197 4:0.907 5:0.723 6:4.953 
128 1:1.058 2:1.336 3:0.092 4:0.656 5:0 6:3.219 
13.7626422903444 1:1.108 2:1.649 3:0.413 4:1 5:0.673 6:3.472 
38.07535508457033 1:1 2:1.008 3:0 4:1 5:0 6:0 
128 1:1.238 2:1.343 3:0.336 4:1 5:0.429 6:4.5 
128 1:1.122 2:1.593 3:0.585 4:1 5:0.208 6:1.103 
69.67768073543884 1:1.321 2:1.64 3:-0.004 4:0.892 5:0.764 6:4.486 
128 1:1.112 2:1.817 3:0.173 4:0.969 5:0.234 6:1.75 
128 1:1.056 2:2.285 3:0.271 4:1 5:0.789 6:2.082 
32.64436089529585 1:1.161 2:2.122 3:0.037 4:0.871 5:0.936 6:7.2 
48.58394578290097 1:1.323 2:2.026 3:0.291 4:0.925 5:0.432 6:9.14 
128 1:1.119 2:2.018 3:0.282 4:0.787 5:0 6:5.5 
47.03861902846845 1:1.053 2:1.907 3:0.223 4:0.694 5:0 6:2.792 
12.42509563765996 1:1.145 2:2.073 3:0.227 4:0.931 5:0.808 6:4.444 
128 1:1.08 2:2.216 3:0.369 4:0.879 5:0 6:3.621 
128 1:1.068 2:2.127 3:0.193 4:0.796 5:0 6:3.944 
128 1:1.033 2:2.142 3:0.208 4:0.926 5:0 6:1.593 
128 1:1.052 2:2.088 3:0.116 4:1 5:0.409 6:1.76 
128 1:1.137 2:2.102 3:0.181 4:1 5:0.498 6:3.841 
128 1:1.061 2:1.971 3:0.05 4:1 5:0.659 6:1.196 
28.2942353814681 1:1.112 2:2.032 3:-0.156 4:0.545 5:0 6:6.125 
104.3124176896225 1:1.29 2:1.88 3:0.221 4:0.99 5:0.543 6:7.842 
80.94498899387087 1:1.068 2:1.895 3:0.235 4:0.74 5:0 6:1.649 
-128 1:1.066 2:1.918 3:0.678 4:1 5:0.738 6:2.877 
-128 1:1.07 2:2.162 3:0.205 4:0.638 5:0 6:3.064 
-81.92758149372476 1:1.162 2:2.317 3:0.36 4:1 5:0.182 6:3.962 
-128 1:1.021 2:1.791 3:0.135 4:0.959 5:0 6:1.306 
-0.2250350771504714 1:1.185 2:2.286 3:0.775 4:0.25 5:0 6:14.625 
-105.1244570057303 1:1.003 2:2.158 3:0.647 4:0.979 5:0 6:0.021 
-9.093202134245047 1:1.034 2:1.932 3:-0.127 4:0.283 5:0 6:5.472 
-128 1:1.019 2:2.373 3:0.315 4:0.925 5:0 6:0.566 
-128 1:1.024 2:1.838 3:0.419 4:0.622 5:0 6:2.514 
-128 1:1.078 2:2.073 3:0.778 4:0.702 5:0 6:3.277 
-128 1:1.043 2:1.572 3:0.052 4:0.795 5:0 6:3.538 
-128 1:1.154 2:1.638 3:0.281 4:0.784 5:0 6:3.568 
-128 1:1.06 2:2.318 3:0.241 4:0.739 5:0 6:4.283 
-128 1:1 2:1.717 3:0.258 4:1 5:0 6:0 
-24.10734300538105 1:1.08 2:1.587 3:0.128 4:1 5:0.407 6:2.021 
-128 1:1.072 2:1.534 3:0.209 4:0.579 5:0 6:2.93 
-128 1:1.098 2:2.02 3:0.468 4:0.582 5:0 6:7.364 
-128 1:1.033 2:1.8 3:0.316 4:0.627 5:0 6:8.791 
-128 1:1.06 2:1.78 3:0.1 4:0.795 5:0 6:3.753 
-128 1:1.055 2:1.978 3:0.298 4:0.63 5:0 6:7.014 
-4.109160012509264 1:1.162 2:1.587 3:0.221 4:0.313 5:0 6:9.734 
-128 1:1.253 2:1.887 3:0.371 4:0.888 5:0.412 6:5.416 
-128 1:1.181 2:1.896 3:0.185 4:0.738 5:0.591 6:4.18 
-128 1:1.033 2:1.801 3:0.09 4:1 5:0.714 6:0.968 
-128 1:1.075 2:1.991 3:0.702 4:0.953 5:0.506 6:1.391 
-128 1:1.046 2:1.965 3:0.49 4:0.722 5:0 6:1.704 
-20.52827049267347 1:1.508 2:2.359 3:0.069 4:0.889 5:0.685 6:6.095 
-128 1:1.202 2:1.627 3:0.068 4:0.857 5:0.815 6:3.912 
-128 1:1.124 2:2.079 3:0.521 4:0.621 5:0 6:9.299 
-128 1:1.046 2:2.336 3:0.373 4:1 5:0.83 6:1.766 
-128 1:1.005 2:1.546 3:0.103 4:1 5:0.917 6:0.966 
-128 1:1.066 2:1.855 3:0.411 4:0.81 5:0 6:4.603 
-128 1:1.048 2:2.105 3:0.502 4:0.811 5:0 6:1.297 
-62.81175659146011 1:1.102 2:1.513 3:0.474 4:0.702 5:0 6:4.439 
-57.4120743752549 1:1.066 2:2.105 3:1.066 4:0.877 5:0 6:2.772 
-87.85936187686677 1:1.039 2:1.804 3:0.995 4:0.4 5:0 6:6.24 
-128 1:1.247 2:1.762 3:0.558 4:0.422 5:0 6:7.911 
-7.484372757828354 1:1.103 2:1.983 3:0.669 4:0.438 5:0 6:14.516 
-72.47361539597232 1:1.066 2:1.66 3:0.516 4:0.42 5:0 6:9.826 
-128 1:1.092 2:1.589 3:0.444 4:1 5:0.672 6:4.742 
-128 1:1.059 2:1.834 3:0.512 4:1 5:0.239 6:2.592 
-25.07297387634659 1:1.276 2:1.94 3:0.336 4:1 5:0.169 6:10.66 
-115.877693194723 1:1.163 2:2.22 3:0.306 4:0.639 5:0 6:6.393 
-128 1:1.125 2:1.894 3:0.171 4:0.459 5:0 6:6.18 
-128 1:1.031 2:1.69 3:0.33 4:1 5:0.416 6:2.044 
-128 1:1.101 2:1.301 3:0.597 4:1 5:0.375 6:2.826 
-15.25404468970335 1:1.079 2:1.201 3:0.322 4:0.761 5:0 6:3.043 
-23.05839871832048 1:1.372 2:1.504 3:0.624 4:0.859 5:0.743 6:7.234 
-128 1:1.13 2:1.542 3:0.298 4:1 5:0.486 6:1.953 
-128 1:1.243 2:1.512 3:0.268 4:1 5:0.391 6:5.03 
-2.583809207880416 1:1.169 2:2.1 3:1.048 4:1 5:0.129 6:5.672 
-128 1:1.134 2:1.662 3:0.025 4:1 5:0.723 6:2.107 
-93.56919507960512 1:1.14 2:2.164 3:0.527 4:1 5:0.086 6:2.048 
-128 1:1.062 2:1.918 3:0.294 4:0.75 5:0 6:1.813 
-128 1:1.179 2:1.58 3:0.06 4:0.59 5:0 6:5.795 
-128 1:1.132 2:1.821 3:0.302 4:1 5:0.087 6:2.242 
-1.55391389613139 1:1.264 2:1.439 3:0.066 4:0.667 5:1.199 6:6.436 
-44.17158354678349 1:1.185 2:1.974 3:0.6 4:0.966 5:0.547 6:7.78 
-128 1:1.119 2:1.823 3:0.286 4:0.553 5:0 6:2.362 
-48.68358666709758 1:1.036 2:1.463 3:0.186 4:0.633 5:0 6:1.833 
-128 1:1.083 2:1.562 3:0.305 4:0.5 5:0 6:5.714 
-128 1:1.032 2:2.177 3:0.845 4:0.882 5:0 6:0.529 
-128 1:1.036 2:1.917 3:0.504 4:0.606 5:0 6:3.455 
-128 1:1.037 2:1.811 3:0.398 4:1 5:0.525 6:1.5 
-59.80583367222349 1:1.116 2:1.799 3:0.758 4:1 5:0.195 6:7.683 
-128 1:1.143 2:1.616 3:0.496 4:1 5:0.446 6:3.2 
-128 1:1.107 2:1.518 3:0.196 4:0.861 5:0.973 6:2.694 
-128 1:1.047 2:1.879 3:0.672 4:1 5:0.379 6:2 
-22.10581190301255 1:1.11 2:2.112 3:1.018 4:1 5:0.316 6:4.537 
-128 1:1.128 2:1.766 3:0.223 4:1 5:0.739 6:3.702 
-128 1:1.225 2:2.075 3:0.148 4:0.684 5:0 6:5.772 
-9.570704300847508 1:1.064 2:1.772 3:-0.156 4:0.608 5:0 6:13.873 
-11.91678647803193 1:1.13 2:2.28 3:0.454 4:0.333 5:0 6:8.928 
-8.374795789623132 1:1.187 2:1.902 3:0.076 4:0.648 5:1.415 6:3.789 
-105.6736530722581 1:1.17 2:1.764 3:-0.018 4:0.357 5:0 6:9.06 
-128 1:1.114 2:1.686 3:0.162 4:1 5:0.271 6:1.885 
-128 1:1.288 2:2.015 3:0.491 4:0.932 5:0.342 6:4.864 
-128 1:1.147 2:1.722 3:-0.045 4:1 5:0.587 6:4.33 
-128 1:1.168 2:1.996 3:0.229 4:1 5:0.368 6:6.536 
-128 1:1.068 2:2.304 3:0.741 4:0.737 5:0 6:3.137 
-128 1:1.079 2:1.953 3:0.095 4:0.845 5:0 6:3.417 
-128 1:1.021 2:1.773 3:0.218 4:0.896 5:0 6:1.792 
-128 1:1.085 2:2.052 3:0.122 4:0.728 5:0 6:2.263 
-128 1:1.262 2:2.124 3:0.44 4:0.396 5:0 6:8.679 
-128 1:1.16 2:2.114 3:0.347 4:0.35 5:0 6:6.41 
-0.2948050027270584 1:1.176 2:2.11 3:0.607 4:0.576 5:0 6:12.188 
-109.5128482317953 1:1.084 2:1.853 3:0.255 4:0.765 5:0.809 6:5.882 
-128 1:1.238 2:1.855 3:0.127 4:0.95 5:0.711 6:4.78 
-128 1:1.029 2:1.766 3:0.413 4:0.908 5:0 6:2.697 
-128 1:1.041 2:1.627 3:0.274 4:0.842 5:0 6:3.5 
-128 1:1.066 2:1.667 3:0.118 4:0.763 5:0 6:3.598 
-36.18925594904199 1:1.117 2:1.955 3:0.338 4:0.487 5:0 6:5.092 
-95.36147224538006 1:1.222 2:1.879 3:0.099 4:0.587 5:0 6:12.775 
-91.55881726304106 1:1.108 2:2.339 3:0.559 4:0.762 5:0 6:4.938 
-18.7938754008347 1:1.296 2:1.832 3:0.149 4:0.69 5:1.201 6:7.931 
-128 1:1.146 2:1.805 3:0.123 4:0.894 5:0.306 6:1.518 
-128 1:1.093 2:1.962 3:0.168 4:0.609 5:0 6:7.159 
-128 1:1.101 2:2.407 3:0.265 4:0.641 5:0 6:4.281 
-128 1:1.015 2:2.055 3:0.417 4:0.83 5:0 6:3.681 
-13.87529399399703 1:1.214 2:2.082 3:0.444 4:1 5:0.622 6:6 
-125.9310062920066 1:1.167 2:2.154 3:0.08 4:0.701 5:0 6:7.328 
-128 1:1.033 2:2.121 3:0.411 4:0.774 5:0 6:2.29 
-128 1:1.011 2:2.154 3:0.419 4:0.944 5:0 6:1.423 
-128 1:1.066 2:2.092 3:0.269 4:0.814 5:0 6:6.014 
-4.847561283559836 1:1.079 2:1.99 3:0.172 4:0.509 5:0 6:11.088 
-128 1:1.07 2:2.104 3:0.286 4:0.544 5:0 6:5.737 
-128 1:1.02 2:1.991 3:0.117 4:1 5:0.799 6:0.872 
-48.18619365937256 1:1.146 2:2.242 3:0.368 4:1 5:0.577 6:3.741 
-128 1:1.057 2:1.805 3:0.249 4:0.833 5:0 6:1.854 
-128 1:1.017 2:2.273 3:0.717 4:1 5:0.882 6:0.66 
-128 1:1.02 2:1.995 3:0.493 4:0.977 5:0 6:0.837 
-103.592292181297 1:1.175 2:1.815 3:0.312 4:1 5:0.242 6:8.234 
-128 1:1.249 2:1.918 3:0.096 4:0.845 5:0.941 6:6.448 
-128 1:1.01 2:2.026 3:0.203 4:0.96 5:0 6:1.36 
-128 1:1.047 2:1.604 3:0.658 4:0.9 5:0 6:1.767 
-128 1:1.105 2:1.6 3:0.653 4:1 5:0.158 6:1.167 
-128 1:1.28 2:2.249 3:0.283 4:0.46 5:0 6:7.92 
-128 1:1.083 2:2.186 3:0.464 4:1 5:0.606 6:2.392 
-22.32694115826114 1:1.237 2:2.201 3:0.479 4:0.822 5:0.793 6:5.533 
-128 1:1.136 2:1.899 3:0.257 4:0.944 5:0.885 6:3.333 
-128 1:1.068 2:1.874 3:0.232 4:1 5:0.792 6:2.105 
-40.18673537996487 1:1.145 2:2.727 3:0.43 4:0.702 5:0 6:4.064 
-11.19662317838437 1:1.547 2:2.69 3:-0.369 4:0.895 5:0.614 6:9.316 
-0.7271256060690776 1:1.338 2:3.098 3:0.038 4:0.966 5:0.331 6:7.909 
-68.54999459647853 1:1.018 2:1.802 3:0.032 4:1 5:0.846 6:0.447 
-128 1:1.052 2:1.978 3:0.207 4:0.778 5:0 6:2.611 
-128 1:1.365 2:1.846 3:0.184 4:0.806 5:0.349 6:3.111 
-64.20510550217865 1:1.033 2:1.335 3:0.188 4:0.839 5:0 6:2.581 
-128 1:1.023 2:1.858 3:0.711 4:1 5:0.669 6:0.917 
-5.893806218163249 1:1.009 2:1.998 3:1.139 4:1 5:0.56 6:0.68 
-128 1:1 2:1.301 3:0.515 4:1 5:0 6:0 
-84.21718126232051 1:1.274 2:1.376 3:0.131 4:0.884 5:0.392 6:5.326 
-128 1:1.04 2:1.764 3:0.52 4:1 5:0.493 6:0.711 
-128 1:1.012 2:2.089 3:0.685 4:1 5:0.824 6:1.242 
-128 1:1.071 2:1.725 3:0.322 4:1 5:0.15 6:2.661 
-128 1:1.054 2:1.73 3:0.494 4:1 5:0.646 6:2.417 
-128 1:1.243 2:1.818 3:0.582 4:1 5:0.381 6:3.397 
-128 1:1.022 2:1.598 3:0.59 4:0.95 5:0 6:0.1 
-128 1:1.07 2:1.752 3:0.744 4:1 5:0.314 6:1.161 
-128 1:1.036 2:1.787 3:0.142 4:1 5:0.813 6:0.968 
-128 1:1.012 2:1.725 3:0.08 4:0.966 5:0 6:0.552 
-128 1:1.065 2:2.136 3:0.122 4:1 5:0.765 6:1.607 
-128 1:1.069 2:2.249 3:0.235 4:1 5:0.668 6:3.531 
-128 1:1.097 2:2.222 3:0.137 4:1 5:0.535 6:3.128 
-22.9736612543754 1:1.231 2:2.289 3:0.204 4:0.475 5:0 6:12.902 
-40.28107554659641 1:1.105 2:2.011 3:0.276 4:0.755 5:0 6:5.011 
-128 1:1.141 2:2.003 3:0.318 4:0.514 5:0 6:4.597 
-128 1:1.111 2:2.042 3:0.195 4:0.724 5:0 6:4.828 
-128 1:1.126 2:2.174 3:0.327 4:1 5:0.287 6:3.723 
-128 1:1.091 2:2.112 3:0.178 4:0.611 5:0 6:5.019 
-128 1:1.144 2:2.182 3:0.209 4:1 5:0.517 6:3.475 
-8.348159429964049 1:1.139 2:2.321 3:0.348 4:0.537 5:0 6:13.582 
-128 1:1.156 2:1.975 3:0.054 4:1 5:0.159 6:2.552 
-128 1:1.081 2:2.161 3:-0.026 4:0.761 5:0 6:3.08 
-69.73265171153351 1:1.303 2:1.851 3:0.191 4:0.733 5:0.996 6:9.535 
-128 1:1.155 2:1.991 3:0.332 4:0.61 5:0 6:9.26 
