svm_type c_svc
kernel_type rbf
gamma 0.25
nr_class 2
total_sv 9291
rho 0.266208
label 0 1
nr_sv 4613 4678
SV
1 1:-1.546 2:0.606 3:-0.284 4:17.792 
1 1:-0.202 2:0.648 3:-1.327 4:18.267 
1 1:-0.325 2:0.074 3:-0.677 4:0 
1 1:-0.967 2:0.964 3:-0.774 4:22.226 
1 1:-0.082 2:0.108 3:-1.317 4:0 
1 1:-0.169 2:0.01 3:-1.063 4:0 
1 1:-0.272 2:0.046 3:-0.327 4:0 
1 1:-1.864 2:0.264 3:-2.19 4:17.617 
1 1:0 2:0.133 3:-1 4:0 
1 1:-0.263 2:-0.072 3:-0.521 4:0 
1 1:-1.249 2:0.712 3:-1.533 4:24.21 
1 1:-1.798 2:0.072 3:-0.682 4:12.084 
1 1:-0.987 2:0.033 3:-0.041 4:0 
1 1:-0.845 2:-0.171 3:0.991 4:8.479 
1 1:-0.518 2:-0.054 3:1.264 4:9.444 
1 1:-0.393 2:0.01 3:-0.467 4:0 
1 1:0.043 2:0.193 3:-1.907 4:0 
1 1:-1.168 2:0.302 3:0.295 4:28.185 
1 1:-0.456 2:0.08 3:-1.42 4:38.141 
1 1:-0.273 2:0.152 3:-0.029 4:5.63 
1 1:-0.378 2:-0.16 3:-1.051 4:0 
1 1:-1.297 2:0.472 3:0.669 4:20.245 
1 1:0 2:0.095 3:-1.183 4:0 
1 1:-1.03 2:0.579 3:-1.086 4:20.245 
1 1:-0.301 2:0.078 3:-0.395 4:0 
1 1:-0.315 2:0.157 3:-0.691 4:0 
1 1:-1.797 2:1.248 3:-1.185 4:12.344 
1 1:-1.2 2:1.695 3:2.582 4:9.444 
1 1:-0.868 2:-0.222 3:0.211 4:28.185 
1 1:-0.159 2:-0.171 3:-0.126 4:0 
1 1:-0.162 2:0.01 3:-0.335 4:0 
1 1:-1.926 2:0.839 3:-1.252 4:37.145 
1 1:-0.184 2:0.333 3:0.461 4:4.703 
0.7785467629276901 1:-2.599 2:1.168 3:-0.042 4:23.927 
1 1:-0.454 2:-1.128 3:-0.534 4:3.796 
1 1:-0.234 2:-0.248 3:-0.407 4:0 
1 1:-1.69 2:0.74 3:-2.209 4:44.507 
1 1:-1.681 2:0.21 3:-0.58 4:9.927 
1 1:-1.835 2:0.84 3:-0.144 4:10.268 
1 1:-1.553 2:-0.453 3:-3.85 4:21.235 
1 1:-0.415 2:0.207 3:-0.257 4:0 
1 1:-1.255 2:1.41 3:-2.278 4:20.27 
1 1:-1.358 2:0.485 3:0.418 4:12.676 
1 1:-0.132 2:-0.362 3:1.768 4:10.413 
1 1:-2.021 2:1.525 3:-0.161 4:21.235 
1 1:-0.329 2:0.28 3:-0.72 4:0 
1 1:-0.391 2:0.004 3:-0.358 4:0 
1 1:-0.4 2:0.209 3:0.742 4:0 
1 1:-1.749 2:0.537 3:-1.707 4:27.822 
1 1:-0.556 2:0.022 3:-1.349 4:0 
1 1:-0.635 2:0.063 3:-0.178 4:40.135 
1 1:-0.303 2:0.236 3:-0.459 4:0 
0.1809954929689206 1:-0.356 2:5.386 3:-1.837 4:15.307 
1 1:-1.686 2:-1.302 3:0.472 4:23.297 
1 1:-0.523 2:-0.346 3:-1.893 4:0 
1 1:0.188 2:0.025 3:1.661 4:8.479 
1 1:-1.4 2:0.884 3:0.107 4:11.722 
1 1:-2.23 2:0.56 3:0.101 4:15.795 
1 1:-1.186 2:-0.191 3:0.249 4:6.995 
1 1:-2.36 2:0.993 3:0.481 4:12.084 
1 1:-1.841 2:0.262 3:0.197 4:30.487 
1 1:-1.659 2:0.998 3:0.856 4:18.487 
1 1:-0.927 2:0.415 3:0.095 4:2.917 
1 1:-2.687 2:0.638 3:-0.986 4:35.546 
1 1:0 2:0.435 3:-1.867 4:0 
1 1:-0.328 2:0.007 3:0.047 4:0 
1 1:-0.521 2:-0.049 3:-0.321 4:25.203 
1 1:-1.189 2:-0.064 3:-1.684 4:30.271 
1 1:-2.51 2:-0.244 3:-2.974 4:18.267 
1 1:0.028 2:-1.15 3:0.11 4:22.226 
1 1:-0.73 2:0.007 3:0.416 4:4.455 
1 1:-1.174 2:-0.051 3:-0.729 4:13.343 
1 1:-0.654 2:-0.242 3:-0.489 4:20.245 
1 1:-0.812 2:-0.542 3:-0.458 4:18.806 
1 1:-0.246 2:0.099 3:-0.532 4:0 
1 1:-1.351 2:0.026 3:-0.28 4:16.52 
1 1:-2.313 2:0.185 3:-1.079 4:19.438 
0.5533265198928877 1:-1.023 2:1.376 3:-0.478 4:0 
1 1:-0.302 2:0.145 3:-1.001 4:0 
1 1:-0.589 2:0.356 3:-0.944 4:0 
1 1:-1.976 2:0.142 3:-0.263 4:28.791 
1 1:-2.374 2:-0.008 3:0.117 4:11.387 
1 1:-0.006 2:-1.662 3:0.249 4:33.16 
1 1:-0.914 2:-0.619 3:-0.357 4:17.334 
1 1:-0.528 2:0.121 3:0.061 4:0 
1 1:-0.294 2:-0.046 3:-2.391 4:0 
1 1:-1.544 2:0.025 3:0.465 4:22.226 
1 1:-1.575 2:0.604 3:0.086 4:21.901 
1 1:-0.494 2:0.286 3:-0.071 4:0 
1 1:-0.597 2:0.117 3:-1.245 4:0 
1 1:0.105 2:-0.031 3:-1.512 4:0 
1 1:-0.272 2:0.05 3:0.039 4:0 
1 1:-0.475 2:0.128 3:0.194 4:0 
1 1:-1.952 2:0.051 3:-2.565 4:27.326 
1 1:-1.55 2:0.462 3:-1.614 4:27.775 
1 1:0.259 2:0.206 3:0.563 4:2.917 
1 1:-0.444 2:0.016 3:0.215 4:13.343 
1 1:-0.361 2:0.027 3:0.17 4:0 
1 1:-0.31 2:-0.022 3:-0.54 4:0 
1 1:-1.079 2:-0.194 3:-0.059 4:12.48 
1 1:-0.606 2:0.144 3:0.324 4:0 
1 1:-0.731 2:0.644 3:-0.999 4:19.255 
0.9789092941008483 1:-1.652 2:9.02 3:-1.918 4:13.343 
1 1:-0.475 2:-0.245 3:0.165 4:11.722 
1 1:-0.075 2:-0.148 3:0.274 4:9.444 
1 1:-0.168 2:0.009 3:0.557 4:0 
1 1:-0.538 2:0.71 3:-1.283 4:9.444 
1 1:-0.221 2:0.313 3:0.407 4:28.185 
1 1:-1.947 2:-0.023 3:-0.786 4:48.114 
1 1:0 2:-0.111 3:-1.842 4:0 
1 1:-0.296 2:0.077 3:-0.867 4:0 
1 1:-0.222 2:-0.761 3:0.942 4:4.703 
1 1:-2.007 2:0.672 3:-0.108 4:30.216 
1 1:-1.576 2:0.721 3:-0.414 4:10.217 
1 1:-1.224 2:1.264 3:1.818 4:4.703 
1 1:-0.397 2:0.136 3:1.42 4:0 
1 1:-0.398 2:0.105 3:0.259 4:2.632 
1 1:-1.125 2:-0.195 3:0.061 4:16.506 
1 1:-1.187 2:-0.132 3:0.468 4:35.264 
1 1:-1.204 2:-0.342 3:-0.436 4:22.797 
1 1:-0.218 2:0.191 3:-0.962 4:0 
1 1:-1.275 2:0.849 3:0.715 4:16.576 
1 1:0.123 2:0.229 3:-1.469 4:0 
1 1:-0.243 2:0.037 3:-0.173 4:0 
1 1:-1.573 2:0.425 3:-2.042 4:16.382 
1 1:-0.705 2:0.308 3:2.017 4:3.796 
1 1:-0.913 2:-0.145 3:0.839 4:20.245 
1 1:-0.575 2:0.615 3:0.64 4:3.796 
1 1:-1.774 2:0.798 3:0.211 4:13.527 
1 1:-0.293 2:-0.284 3:1.141 4:6.57 
1 1:-0.534 2:0.767 3:-1.708 4:41.132 
1 1:-3.26 2:1.084 3:0.643 4:11.196 
1 1:-0.671 2:0.636 3:-1.139 4:8.029 
1 1:-0.57 2:-0.688 3:-0.738 4:8.479 
1 1:-0.923 2:0.473 3:0.1 4:29.179 
1 1:-2.679 2:0.233 3:-2.286 4:13.345 
1 1:-1.463 2:0.113 3:-0.35 4:18.048 
1 1:-0.908 2:0.224 3:0.281 4:12.924 
1 1:-0.904 2:-0.35 3:1.085 4:7.521 
1 1:-0.708 2:-0.491 3:-0.063 4:37.145 
1 1:-0.202 2:-0.177 3:-0.12 4:4.455 
1 1:-2.603 2:0.238 3:-0.624 4:57.975 
1 1:-0.957 2:0.643 3:-1.823 4:0 
1 1:-0.765 2:-0.677 3:-0.888 4:17.85 
1 1:-0.68 2:0.334 3:-0.025 4:28.819 
1 1:-0.472 2:0.384 3:0.817 4:2.08 
1 1:-1.436 2:0.339 3:0.357 4:11.459 
1 1:-0.479 2:0.151 3:0.083 4:0 
1 1:0.059 2:-0.07 3:0.191 4:3.796 
1 1:-0.96 2:-0.939 3:0.547 4:17.996 
1 1:-1.452 2:0.351 3:-0.222 4:21.235 
1 1:-0.272 2:0.17 3:-0.412 4:5.63 
1 1:-0.307 2:0.365 3:-0.825 4:0 
1 1:-0.766 2:0.525 3:-0.466 4:4.986 
1 1:-0.6 2:1.01 3:-2.196 4:2.08 
0.1906263249187178 1:-0.478 2:4.542 3:-1.298 4:2.266 
1 1:-0.309 2:0.335 3:-0.918 4:14.684 
1 1:-1.078 2:0.044 3:-0.469 4:23.787 
1 1:-1.026 2:0.069 3:0.657 4:14.582 
1 1:-1.7 2:-0.016 3:-0.09 4:54.051 
0.3466607315676992 1:-0.387 2:0.674 3:1.059 4:6.355 
1 1:-1.097 2:0.724 3:-0.455 4:17.285 
1 1:-0.157 2:-0.845 3:-0.402 4:23.218 
1 1:-1.402 2:1.095 3:-0.015 4:28.185 
1 1:-0.184 2:0.284 3:-1.227 4:0 
1 1:-0.253 2:0.038 3:-0.121 4:0 
1 1:-0.351 2:0.189 3:0.167 4:8.479 
1 1:-1.553 2:1.653 3:-2.641 4:8.614 
1 1:-0.314 2:0.909 3:-2.185 4:0 
1 1:-0.58 2:1.328 3:-0.435 4:3.796 
1 1:-0.095 2:0.481 3:-1.59 4:0 
1 1:-1.291 2:0.525 3:0.122 4:12.753 
0.2822419260709282 1:-0.025 2:2.707 3:-0.577 4:12.363 
1 1:-1.996 2:0.842 3:-1.27 4:45.58 
1 1:-1.144 2:0.638 3:-1.392 4:11.079 
1 1:-0.605 2:0.629 3:-1.351 4:31.169 
1 1:-1.33 2:0.448 3:-0.581 4:18.872 
1 1:-1.421 2:1.002 3:-2.025 4:33.603 
1 1:0.095 2:0.026 3:1.427 4:4.703 
1 1:-0.41 2:-0.266 3:-0.795 4:0 
1 1:-2.378 2:0.99 3:-1.068 4:17.953 
1 1:-1.863 2:1.366 3:-2.603 4:10.413 
1 1:-1.558 2:-0.114 3:0.481 4:47.245 
1 1:-1.93 2:0.013 3:-0.453 4:67.618 
1 1:-1.307 2:0.138 3:0.3 4:16.877 
1 1:-0.058 2:-1.5 3:-1.595 4:0 
1 1:-2.319 2:-0.258 3:0.059 4:37.104 
1 1:-1.701 2:0.744 3:0.191 4:13.603 
1 1:0 2:-0.034 3:-1.11 4:0 
1 1:-0.745 2:-0.256 3:-0.3 4:14.923 
1 1:-2.599 2:0.021 3:-0.494 4:21.61 
1 1:-0.618 2:-0.574 3:-0.539 4:26.886 
1 1:-1.035 2:-0.917 3:-0.503 4:11.387 
0.09827713737898823 1:-2.188 2:2.261 3:-0.092 4:23.218 
0.156756045370651 1:-1.554 2:2.045 3:2.837 4:9.444 
1 1:-1.468 2:0.564 3:-0.332 4:12.704 
1 1:-0.417 2:-0.317 3:0.197 4:21.304 
1 1:-0.353 2:0.338 3:-0.419 4:2.08 
1 1:-2.012 2:1.505 3:-1.246 4:13.194 
1 1:-1.42 2:0.944 3:1.121 4:6.57 
1 1:-0.863 2:0.303 3:0.877 4:19.218 
1 1:-0.618 2:-0.526 3:-0.014 4:18.687 
0.61779130656417 1:-1.935 2:1.749 3:0.016 4:24.046 
1 1:-0.454 2:0.179 3:0.53 4:0 
1 1:-0.908 2:0.328 3:-0.908 4:18.267 
1 1:-2.052 2:0.875 3:0.689 4:9.734 
1 1:-0.224 2:0.064 3:-0.276 4:0 
1 1:-0.697 2:1.344 3:-1.055 4:22.226 
1 1:-0.633 2:-0.444 3:-0.859 4:25.203 
1 1:-0.402 2:-1.347 3:-0.754 4:0 
1 1:-0.311 2:0.299 3:-0.624 4:0 
1 1:-0.313 2:-1.166 3:-0.78 4:0 
1 1:-0.113 2:-0.304 3:-1.214 4:0 
1 1:-0.27 2:0.071 3:1.193 4:6.57 
1 1:-2.047 2:2.255 3:-0.802 4:12.671 
1 1:-2.959 2:0.513 3:-0.103 4:25.203 
0.01316205113748139 1:-1.061 2:3.429 3:-2.672 4:6.284 
1 1:-1.567 2:-1.041 3:0.122 4:7.057 
1 1:-0.386 2:0.318 3:1.354 4:0 
1 1:-1.486 2:-0.367 3:0.146 4:43.126 
0.6887985314957127 1:-1.011 2:0.972 3:-1.221 4:8.479 
1 1:-2.585 2:1.628 3:-0.749 4:20.383 
1 1:-1.08 2:2.099 3:-2.151 4:47.987 
1 1:-1.618 2:0.926 3:-0.307 4:10.956 
1 1:-0.818 2:0.66 3:-0.549 4:21.235 
1 1:-0.177 2:-0.783 3:-0.22 4:23.218 
1 1:-1.004 2:0.033 3:-0.095 4:17.279 
1 1:-0.513 2:-0.445 3:0.253 4:0 
1 1:-2.027 2:-0.002 3:-1.798 4:30.28 
1 1:-0.127 2:-0.076 3:1.052 4:6.57 
1 1:-0.822 2:0.279 3:-0.675 4:7.521 
1 1:-0.132 2:-0.387 3:-0.346 4:0 
1 1:-1.034 2:0.179 3:0.471 4:0 
1 1:-1.003 2:0.344 3:-0.551 4:14.417 
1 1:-0.707 2:0.15 3:0.06 4:7.017 
1 1:-0.758 2:-0.017 3:0.756 4:9.444 
1 1:-1.552 2:0.716 3:-0.093 4:30.287 
1 1:-0.714 2:1.335 3:-4.867 4:5.399 
1 1:-1.24 2:-0.499 3:0.422 4:30.271 
1 1:-0.052 2:0.109 3:0.708 4:1.313 
1 1:-1.187 2:0.029 3:-0.053 4:20.358 
1 1:-0.191 2:-0.008 3:-0.263 4:0 
1 1:-0.106 2:0.145 3:-0.972 4:0 
1 1:-1.01 2:0.191 3:-0.794 4:23.357 
1 1:-1.105 2:0.245 3:-0.499 4:13.343 
1 1:-0.466 2:0.084 3:0.46 4:0 
1 1:-2.068 2:0.8 3:-0.605 4:15.15 
1 1:-1.386 2:1.289 3:-0.798 4:21.116 
1 1:-0.263 2:-0.38 3:-0.824 4:0 
1 1:-2.524 2:2.586 3:0.478 4:7.521 
1 1:-0.568 2:0.12 3:0.558 4:9.268 
1 1:-0.47 2:-0.007 3:0.07 4:0 
1 1:-0.889 2:1.065 3:0.321 4:30.174 
1 1:-1.573 2:0.454 3:0.582 4:12.39 
1 1:-0.399 2:0.463 3:-0.971 4:0 
1 1:-1.024 2:0.081 3:-0.615 4:35.672 
1 1:-1.294 2:0.843 3:1.313 4:9.444 
1 1:-0.295 2:0.104 3:-0.238 4:7.32 
1 1:-0.667 2:0.465 3:-0.892 4:25.203 
1 1:0.002 2:-0.026 3:-1.056 4:0 
1 1:-0.796 2:0.03 3:-0.188 4:18.267 
1 1:-0.142 2:-0.442 3:-1.733 4:0 
1 1:-2.107 2:-0.053 3:-0.131 4:25.203 
1 1:-1.007 2:0.238 3:-0.257 4:14.324 
1 1:-0.191 2:-1.011 3:-0.16 4:43.126 
1 1:-0.141 2:-0.418 3:-0.557 4:0 
1 1:-0.093 2:0.003 3:-1.147 4:0 
1 1:-2.025 2:0.167 3:-0.469 4:14.417 
0.562770499612014 1:-0.147 2:0.787 3:-0.895 4:37.145 
1 1:-0.254 2:0.067 3:-0.206 4:0 
1 1:-1.17 2:-0.099 3:0.173 4:16.029 
1 1:-1.623 2:-0.087 3:0.39 4:28.508 
1 1:-0.64 2:0.397 3:-1.149 4:33.16 
1 1:-0.233 2:0.129 3:-0.88 4:0 
1 1:-0.27 2:-0.814 3:-0.842 4:0 
1 1:-1.613 2:-0.213 3:0.142 4:43.517 
1 1:-0.403 2:0.324 3:-0.856 4:23.218 
1 1:-1.174 2:-0.136 3:-0.947 4:18.326 
1 1:-0.913 2:-0.789 3:-0.072 4:56.099 
1 1:-0.245 2:0.224 3:-0.845 4:0 
1 1:-0.523 2:-0.017 3:-0.204 4:55.101 
1 1:-0.559 2:-0.059 3:-1.341 4:42.129 
1 1:0.023 2:0.08 3:-5.647 4:0 
1 1:-0.947 2:-0.092 3:-0.502 4:21.429 
1 1:-0.69 2:0.345 3:-4.743 4:0 
1 1:-1.284 2:-0.38 3:-0.206 4:31.213 
1 1:-0.266 2:0.05 3:0.183 4:0 
1 1:-0.807 2:-0.358 3:-0.022 4:28.602 
1 1:-1.155 2:0.325 3:0.319 4:7.521 
1 1:-0.908 2:-0.302 3:-0.639 4:31.568 
1 1:-0.363 2:0.107 3:-0.048 4:0 
0.5189116729316382 1:-1.074 2:0.172 3:-0.321 4:24.352 
1 1:0.063 2:-0.033 3:-0.889 4:0 
1 1:-0.766 2:0.252 3:-1.177 4:18.054 
1 1:-1.111 2:0.278 3:-1.236 4:31.169 
1 1:-1.496 2:0.883 3:-5.296 4:3.133 
1 1:-0.194 2:0.465 3:-1.347 4:0 
1 1:-0.348 2:0.322 3:-1.226 4:0 
1 1:-0.722 2:0.36 3:-0.106 4:48.114 
1 1:-1.09 2:0.77 3:0.703 4:9.444 
1 1:-0.01 2:0.103 3:-1.081 4:0 
1 1:-0.673 2:-0.374 3:-0.271 4:12.008 
1 1:-0.097 2:0.366 3:-1.17 4:0 
1 1:-1.862 2:0.6 3:0.528 4:24.43 
1 1:-1.204 2:-0.906 3:-0.618 4:19.147 
1 1:-1.845 2:-0.192 3:-0.355 4:46.088 
1 1:-1.533 2:-0.028 3:-0.638 4:17.5 
0.8666464626822975 1:-0.504 2:-0.255 3:0.056 4:28.638 
1 1:-1.229 2:-0.423 3:0.26 4:14.38 
1 1:-0.81 2:0.332 3:-0.624 4:45.252 
1 1:-0.82 2:-0.068 3:-1.565 4:20.712 
1 1:-0.38 2:0.152 3:0.17 4:7.521 
1 1:-1.014 2:0.486 3:-3.056 4:0 
0.5572972456500275 1:-1.316 2:3.308 3:-4.461 4:16.292 
1 1:-2.309 2:1.181 3:0.579 4:6.229 
1 1:-0.131 2:0.309 3:0.927 4:5.63 
1 1:-1.479 2:0.316 3:0.421 4:14.008 
1 1:-1.025 2:0.277 3:-0.708 4:12.363 
1 1:-1.151 2:-0.446 3:0.908 4:12.849 
1 1:-1.84 2:-0.003 3:-0.178 4:27.803 
1 1:-1.705 2:-0.365 3:0.085 4:10.706 
1 1:-1.683 2:0.052 3:-0.39 4:21.5 
1 1:-0.194 2:-0.029 3:1.609 4:7.521 
1 1:-0.078 2:-0.01 3:-0.72 4:0 
1 1:-1.612 2:0.028 3:-0.05 4:5.982 
1 1:-0.379 2:-0.68 3:0.052 4:13.487 
1 1:-1.696 2:0.392 3:0.026 4:18.179 
0.2180107933926698 1:-0.13 2:5.864 3:-2.829 4:12.363 
1 1:-1.472 2:0.27 3:0.701 4:13.623 
1 1:-1.095 2:0.011 3:-0.881 4:12.676 
1 1:-0.923 2:0.25 3:0.295 4:0 
1 1:0 2:-0.135 3:0.554 4:0 
1 1:-2.355 2:-0.1 3:0.551 4:30.947 
1 1:-1.227 2:0.124 3:1.076 4:14.189 
1 1:-0.77 2:0.308 3:0.202 4:19.697 
1 1:-1.693 2:-0.777 3:0.29 4:44.124 
1 1:-2.307 2:0.527 3:-0.061 4:32.727 
1 1:0.054 2:0.022 3:-1.075 4:0 
1 1:-0.482 2:0.297 3:-0.502 4:0 
1 1:0.035 2:0.213 3:-1.49 4:0 
1 1:-0.197 2:-0.18 3:-1.797 4:0 
1 1:-0.216 2:0.145 3:0.47 4:6.57 
1 1:-2.141 2:0.211 3:-0.237 4:25.203 
0.3742388387207556 1:-0.819 2:7.232 3:-2.525 4:15.307 
1 1:0.024 2:-0.217 3:0.346 4:2.08 
1 1:-0.288 2:0.067 3:0.106 4:0 
1 1:-0.747 2:-0.015 3:0.048 4:13.715 
1 1:-0.322 2:-0.178 3:-0.339 4:10.738 
1 1:-0.646 2:0.199 3:-0.717 4:9.197 
1 1:-0.288 2:0.17 3:-0.51 4:0 
1 1:-0.873 2:-0.047 3:-0.995 4:11.387 
1 1:-0.272 2:-0.013 3:-0.101 4:0 
1 1:-0.106 2:0.428 3:-1.206 4:0 
1 1:-0.484 2:-0.459 3:-0.482 4:13.343 
1 1:-1.943 2:0.425 3:-0.52 4:12.911 
1 1:-0.039 2:-0.424 3:-0.865 4:21.235 
1 1:-0.533 2:0.859 3:0.614 4:17.279 
1 1:-0.617 2:-0.225 3:-1.307 4:12.827 
1 1:-1.049 2:0.028 3:-0.596 4:40.035 
1 1:-0.399 2:-0.616 3:-1.06 4:0 
1 1:-2.497 2:1.84 3:0.083 4:21.904 
1 1:-0.352 2:-0.014 3:-0.784 4:0 
1 1:-0.101 2:0.092 3:-0.983 4:0 
1 1:-0.341 2:0.128 3:-0.028 4:0 
0.8577736184278292 1:-0.929 2:0.922 3:-1.086 4:38.902 
1 1:-1.391 2:0.408 3:-3.126 4:0 
1 1:-0.801 2:-0.041 3:-0.331 4:26.197 
1 1:-0.572 2:0.761 3:0.23 4:4.703 
1 1:-1.559 2:0.004 3:-0.713 4:9.197 
1 1:-0.752 2:-0.027 3:-0.336 4:50.804 
1 1:-1.283 2:-0.151 3:0.48 4:14.946 
1 1:-1.921 2:0.373 3:-0.823 4:24.387 
1 1:-0.492 2:0.509 3:-1.321 4:31.169 
1 1:-2.004 2:-0.576 3:-2.815 4:18.267 
1 1:-1.204 2:0.067 3:-0.549 4:31.169 
1 1:0.017 2:1.609 3:-3.352 4:0 
1 1:-0.739 2:0.19 3:0.077 4:20.245 
1 1:0.063 2:-0.162 3:-1.032 4:3.796 
1 1:-0.529 2:0.492 3:-0.649 4:22.226 
1 1:-1.599 2:0.958 3:-1.04 4:16.961 
1 1:-0.41 2:0.597 3:-1.32 4:0 
1 1:-0.811 2:0.506 3:1.432 4:9.11 
0.9646063993866065 1:-1.249 2:0.783 3:-0.681 4:14.798 
1 1:-0.734 2:0.088 3:-0.335 4:17.538 
1 1:-0.319 2:0.246 3:-0.789 4:0 
1 1:0.043 2:0.231 3:-1.824 4:0 
1 1:-2.284 2:0.416 3:0.191 4:24.79 
1 1:-0.846 2:-0.448 3:0.273 4:21.246 
1 1:-0.323 2:-1.779 3:-0.017 4:0 
1 1:-0.87 2:0.418 3:0.937 4:13.572 
0.5547307298287338 1:-0.171 2:0.033 3:-0.311 4:0 
1 1:-2.468 2:0.433 3:0.859 4:41.493 
1 1:-0.637 2:-1.003 3:-0.406 4:11.58 
1 1:-0.468 2:0.965 3:-1.678 4:8.479 
1 1:-1.748 2:1.164 3:1.493 4:14.015 
1 1:-1.101 2:0.372 3:0.439 4:13.215 
1 1:-0.443 2:0.358 3:-1.149 4:24.21 
1 1:-0.94 2:0.012 3:-0.484 4:38.486 
1 1:-0.319 2:-0.108 3:-0.587 4:10.413 
1 1:-0.819 2:0.489 3:0.911 4:22.378 
1 1:-1.712 2:0.515 3:-0.259 4:15.416 
1 1:-1.59 2:0.135 3:-0.063 4:28.975 
1 1:-0.242 2:0.122 3:-0.854 4:0 
1 1:-2.277 2:0.381 3:0.265 4:32.119 
1 1:-0.104 2:-0.431 3:-1.132 4:0 
1 1:-0.432 2:-0.835 3:-0.063 4:22.226 
1 1:-0.089 2:-0.21 3:-0.055 4:0 
1 1:-1.773 2:0.722 3:-0.117 4:27.801 
1 1:-1.228 2:2.665 3:-3.356 4:9.993 
1 1:-0.383 2:1.068 3:-1.514 4:22.226 
1 1:-1.315 2:0.346 3:0.314 4:36.148 
1 1:-1.096 2:0.49 3:-0.773 4:19.169 
1 1:-2.406 2:0.131 3:-2.313 4:17.375 
1 1:-0.635 2:-0.414 3:0.163 4:26.197 
1 1:-0.822 2:-0.307 3:-0.043 4:32.248 
1 1:-1.191 2:-0.164 3:0.422 4:5.189 
0.7277478309244186 1:-2.726 2:4.616 3:0.347 4:22.226 
1 1:-0.054 2:1.499 3:-4.611 4:0 
0.1854223538266503 1:-0.545 2:-0.422 3:0.162 4:26.61 
1 1:-1.191 2:0.744 3:0.437 4:7.045 
1 1:-1.404 2:-0.238 3:0.625 4:9.82 
1 1:-0.853 2:0.557 3:0.208 4:3.796 
1 1:-0.962 2:0.573 3:0.419 4:19.687 
1 1:-1.885 2:0.605 3:0.706 4:8.94 
1 1:-2.04 2:0.391 3:-0.452 4:45.742 
1 1:-0.797 2:0.409 3:0.377 4:9.444 
1 1:-0.681 2:0.717 3:1.407 4:10.931 
1 1:-0.391 2:-0.294 3:-0.258 4:6.57 
1 1:-1.173 2:0.235 3:-0.896 4:10.488 
1 1:-0.016 2:0.053 3:-1.075 4:0 
1 1:-1.683 2:0.414 3:-1.229 4:17.279 
1 1:-0.8 2:0.34 3:-0.148 4:0 
1 1:-0.336 2:0.354 3:-1.032 4:0 
1 1:-0.06 2:-0.157 3:-2.152 4:0 
1 1:-0.817 2:0.232 3:-0.584 4:9.268 
1 1:-2.632 2:0.748 3:0.503 4:25.203 
1 1:-0.693 2:0.041 3:0.669 4:0 
1 1:-0.562 2:-0.141 3:-0.229 4:0 
1 1:-1.011 2:1.396 3:-1.876 4:4.703 
1 1:-1.047 2:0.634 3:-1.489 4:13.345 
1 1:-1.77 2:0.689 3:-0.043 4:11.387 
1 1:-0.076 2:-0.583 3:-0.358 4:0 
1 1:-2.072 2:0.447 3:0.027 4:20.097 
1 1:-0.476 2:0.025 3:-0.708 4:0 
1 1:-0.301 2:0.62 3:1.893 4:22.226 
1 1:-0.455 2:0.336 3:-0.271 4:0 
1 1:-0.602 2:0.486 3:-0.024 4:0 
0.1241748470480192 1:-0.869 2:4.398 3:-3.662 4:10.413 
1 1:-0.644 2:0.298 3:-1.065 4:0 
1 1:-2.233 2:-0.025 3:1.768 4:30.287 
1 1:-0.405 2:0.086 3:-0.288 4:0 
1 1:-1.459 2:2.17 3:1.58 4:13.345 
1 1:-0.263 2:-0.206 3:-0.162 4:0 
1 1:-0.028 2:0.838 3:-3.697 4:0 
1 1:-0.633 2:-0.425 3:0.282 4:26.197 
1 1:-0.226 2:-0.284 3:-0.7 4:0 
1 1:-0.901 2:-0.182 3:0.377 4:25.22 
1 1:-0.383 2:0.104 3:-0.278 4:0 
1 1:-0.076 2:-0.106 3:-0.937 4:0 
1 1:-1.811 2:0.751 3:-0.157 4:5.363 
1 1:-0.499 2:0.04 3:0.586 4:0 
1 1:-1.564 2:1.097 3:0.253 4:28.852 
1 1:-1.78 2:-0.108 3:-0.952 4:25.284 
1 1:-0.814 2:-0.793 3:-0.068 4:37.145 
1 1:-1.283 2:-0.222 3:-0.438 4:54.939 
1 1:-1.319 2:1.088 3:0.875 4:7.277 
1 1:-0.137 2:0.642 3:0.271 4:29.179 
1 1:-2.39 2:0.69 3:0.028 4:22.885 
1 1:-0.004 2:0.368 3:1.286 4:13.343 
1 1:-0.802 2:0.406 3:-1.168 4:7.987 
1 1:-0.335 2:0.244 3:1.134 4:6.57 
1 1:-0.468 2:0.312 3:-0.091 4:5.264 
1 1:-2.298 2:0.667 3:0.53 4:22.885 
1 1:-0.045 2:0.106 3:-0.848 4:3.529 
1 1:-0.908 2:-0.147 3:0.26 4:12.816 
1 1:-0.881 2:0.437 3:0.734 4:10.413 
1 1:-0.506 2:-0.33 3:0.645 4:18.896 
1 1:-3.118 2:1.849 3:-0.81 4:13.343 
1 1:-3.043 2:0.866 3:0.904 4:13.915 
1 1:-0.66 2:-0.116 3:0.653 4:26.977 
1 1:-1.014 2:0.555 3:0.79 4:9.444 
1 1:-0.259 2:0.139 3:1.017 4:9.444 
1 1:-0.12 2:0.081 3:-0.687 4:0 
1 1:-1.895 2:0.361 3:0.385 4:14.983 
1 1:-2.198 2:1.208 3:-4.212 4:16.433 
1 1:-0.197 2:-0.263 3:-0.305 4:0 
1 1:-1.631 2:0.829 3:-0.03 4:9.193 
1 1:0.206 2:0.369 3:-0.852 4:3.796 
1 1:-0.58 2:-0.548 3:0.241 4:17.612 
1 1:-2.353 2:0.078 3:-0.13 4:13.017 
1 1:-0.916 2:0.018 3:-0.627 4:17.279 
1 1:-1.941 2:0.197 3:-0.441 4:24.636 
1 1:-0.681 2:0.843 3:-1.194 4:6.576 
1 1:-1.884 2:1.419 3:0.47 4:37.145 
1 1:-0.475 2:-0.002 3:-0.522 4:17.279 
1 1:-1.738 2:0.867 3:0.254 4:9.579 
1 1:-0.803 2:-0.989 3:0.104 4:0 
1 1:-0.84 2:-0.081 3:0.336 4:13.343 
1 1:-0.723 2:-0.61 3:0.096 4:14.364 
1 1:-1.546 2:0.262 3:-0.367 4:8.654 
1 1:-3.29 2:1.173 3:0.279 4:25.559 
1 1:-0.356 2:-0.226 3:-0.441 4:12.363 
1 1:-1.313 2:0.617 3:0.216 4:6.818 
1 1:-0.269 2:0.25 3:-0.206 4:3.796 
1 1:-1.778 2:-0.365 3:-0.145 4:23.186 
1 1:-0.797 2:0.754 3:0.889 4:11.418 
1 1:-1.639 2:0.352 3:0.114 4:14.45 
1 1:0.131 2:0.067 3:1.288 4:3.796 
1 1:-1.003 2:0.303 3:0.713 4:12.114 
1 1:-2.131 2:0.127 3:0.167 4:50.291 
1 1:-0.041 2:0.131 3:0.799 4:8.479 
1 1:-0.105 2:0.926 3:0.362 4:27.19 
1 1:-0.067 2:-0.161 3:0.316 4:10.413 
1 1:-1.658 2:1.434 3:0.353 4:28.185 
1 1:0 2:-1.214 3:1.445 4:0 
1 1:-0.566 2:0.175 3:0.999 4:0 
1 1:-0.815 2:0.449 3:-0.431 4:5.876 
1 1:-1.584 2:0.467 3:-2.27 4:13.634 
1 1:-0.666 2:-0.066 3:-0.125 4:32.248 
1 1:0.472 2:-0.09 3:1.898 4:2.917 
1 1:-0.848 2:-0.025 3:0.492 4:12.883 
1 1:-0.446 2:0.621 3:0.795 4:27.19 
1 1:-0.7 2:-0.108 3:2.537 4:9.243 
1 1:-1.258 2:0.253 3:-0.241 4:21.56 
1 1:0 2:-1.192 3:0.782 4:0 
0.1913682629176595 1:-0.662 2:0.246 3:0.238 4:37.653 
1 1:-1.602 2:0.742 3:0.642 4:19.113 
1 1:-0.138 2:-0.022 3:-1.023 4:0 
1 1:-0.951 2:1.161 3:0.885 4:17.279 
0.1631731272486603 1:-0.398 2:4.606 3:-1.464 4:0 
1 1:-1.48 2:0.765 3:0.556 4:9.444 
1 1:-1.79 2:1.097 3:0.619 4:39.046 
1 1:-1.029 2:0.318 3:2.184 4:17.279 
1 1:-0.754 2:0.339 3:0.142 4:6.57 
1 1:-0.137 2:0.049 3:-0.749 4:0 
1 1:-1.079 2:0.468 3:-0.626 4:6.528 
1 1:-1.02 2:0.254 3:-0.264 4:9.444 
1 1:-0.751 2:0.195 3:0.352 4:37.997 
1 1:-1.584 2:0.36 3:-0.101 4:10.247 
1 1:-2.725 2:0.779 3:-0.563 4:8.635 
1 1:-0.403 2:0.566 3:0.652 4:17.334 
1 1:-1.508 2:0.63 3:1.097 4:14.186 
1 1:-0.076 2:-0.779 3:0.194 4:0 
1 1:-1.512 2:0.086 3:-2.642 4:0 
1 1:-0.402 2:0.861 3:-1.246 4:10.413 
1 1:0 2:-1.31 3:1.982 4:0 
1 1:-0.283 2:-0.003 3:1.012 4:0 
1 1:-0.352 2:0.136 3:0.342 4:17.279 
1 1:-0.833 2:0.193 3:-0.979 4:13.343 
1 1:-2.126 2:-0.331 3:-2.883 4:16.282 
1 1:-1.777 2:-1.453 3:1.352 4:10.413 
1 1:-0.789 2:-0.226 3:-0.039 4:19.705 
1 1:-0.657 2:0.032 3:1.582 4:3.796 
1 1:-1.817 2:0.578 3:0.232 4:37.292 
1 1:-0.766 2:-0.688 3:-2.751 4:34.351 
1 1:0.085 2:0.287 3:-1.631 4:0 
1 1:-0.791 2:0.207 3:0.38 4:3.295 
1 1:-0.022 2:-0.047 3:-1.508 4:0 
1 1:-1.373 2:0.729 3:-0.46 4:21.235 
1 1:-0.483 2:0.747 3:0.744 4:4.925 
1 1:-0.471 2:-0.734 3:0.084 4:10.108 
1 1:-1.208 2:0.642 3:-0.406 4:8.712 
1 1:-1.243 2:0.506 3:-1.251 4:13.957 
1 1:-0.663 2:-0.105 3:-0.49 4:19.255 
1 1:-1.001 2:1.027 3:-1.337 4:18.726 
1 1:-0.023 2:-0.89 3:0.912 4:10.413 
1 1:-0.662 2:-0.451 3:0.235 4:22.226 
1 1:-0.525 2:0.395 3:0.877 4:3.796 
1 1:-1.603 2:0.591 3:-0.355 4:13.75 
1 1:-1.4 2:-0.259 3:0.243 4:22.932 
1 1:-0.796 2:0.423 3:-0.185 4:0 
1 1:-0.571 2:-0.51 3:0.478 4:16.61 
1 1:-1.699 2:-0.161 3:-1.211 4:30.945 
1 1:-0.24 2:0.565 3:-1.2 4:0 
1 1:-1.048 2:-0.56 3:0.281 4:37.145 
1 1:-0.52 2:0.67 3:-0.085 4:4.703 
1 1:-0.835 2:0.603 3:0.491 4:7.376 
0.811082940348174 1:-2.93 2:1.34 3:-0.615 4:30.661 
1 1:0.022 2:-1.032 3:-3.545 4:0 
1 1:-1.831 2:0.16 3:0.612 4:4.297 
1 1:-0.842 2:0.337 3:-0.032 4:27.672 
0.6798135865172531 1:-0.286 2:-0.321 3:-0.223 4:43.126 
1 1:-2.376 2:0.001 3:-0.26 4:49.284 
1 1:-1.281 2:0.328 3:0.226 4:20.35 
0.5110677723079263 1:-1.661 2:1.19 3:-0.145 4:51.108 
1 1:-1.43 2:-0.056 3:-3.148 4:21.235 
1 1:-0.505 2:-0.065 3:0.946 4:18.866 
1 1:-1.301 2:-0.001 3:-2.349 4:29.455 
1 1:-0.479 2:0.375 3:-0.334 4:0 
1 1:-0.118 2:-0.564 3:-0.24 4:0 
1 1:-0.318 2:0.105 3:0.207 4:0 
1 1:-0.471 2:0.243 3:0.126 4:0 
1 1:-1.806 2:0.872 3:-2.168 4:19.022 
1 1:-2.062 2:2.128 3:1.209 4:10.413 
1 1:-0.479 2:0.226 3:0.512 4:0 
1 1:-1.068 2:0.218 3:-0.626 4:27.19 
1 1:-1.342 2:1.711 3:-2.792 4:10.676 
1 1:-2.562 2:0.242 3:0.601 4:7.4 
1 1:-2.48 2:1.379 3:0.387 4:13.761 
1 1:-1.094 2:-0.208 3:-0.662 4:10.066 
1 1:-1.063 2:-0.019 3:1.279 4:11.422 
1 1:-0.357 2:0.036 3:-0.91 4:0 
1 1:-0.92 2:-0.588 3:-0.118 4:34.136 
1 1:-0.715 2:0.175 3:0.114 4:8.479 
1 1:-1.074 2:-0.344 3:-0.293 4:29.868 
1 1:-0.663 2:-0.342 3:-0.233 4:22.362 
1 1:-0.525 2:0.241 3:-0.873 4:5.63 
1 1:-1.48 2:-0.106 3:0.033 4:21.965 
1 1:-1.914 2:0.649 3:0.117 4:30.174 
1 1:-0.98 2:0.192 3:-0.472 4:26.902 
1 1:-0.186 2:0.379 3:-1.133 4:0 
1 1:-0.882 2:0.325 3:0.634 4:11.341 
1 1:0.142 2:-0.888 3:1.009 4:9.444 
1 1:-0.051 2:-1.073 3:0.311 4:17.893 
1 1:-0.597 2:-1.432 3:-0.524 4:0 
0.1408510902272333 1:-2.083 2:2.579 3:0.643 4:10.413 
1 1:-0.288 2:0.511 3:1.472 4:4.455 
1 1:-1.212 2:0.599 3:-0.043 4:11.594 
1 1:-2.633 2:0.295 3:0.23 4:59.58 
1 1:-0.787 2:-0.168 3:-0.092 4:31.555 
1 1:-2.136 2:0.425 3:-0.494 4:57.098 
1 1:-2.512 2:1.13 3:0.131 4:11.594 
1 1:-1.549 2:0.516 3:-0.423 4:16.292 
1 1:-0.605 2:-0.113 3:-0.122 4:52.106 
1 1:-1.65 2:0.126 3:0.099 4:17.248 
1 1:-1.873 2:1.244 3:-0.987 4:15.479 
1 1:0.078 2:-0.186 3:0.567 4:2.08 
1 1:-0.95 2:0.414 3:0.396 4:17.188 
1 1:-0.976 2:1.151 3:1.173 4:5.63 
1 1:-0.645 2:0.465 3:-0.714 4:10.694 
1 1:-0.327 2:0.225 3:-1.08 4:0 
1 1:-1.766 2:0.318 3:-0.46 4:50.912 
1 1:-1.117 2:1.616 3:1.418 4:14.324 
1 1:-0.249 2:-0.359 3:-0.269 4:0 
1 1:-0.72 2:0.364 3:-1.033 4:0 
1 1:-0.19 2:-0.159 3:-0.672 4:0 
1 1:-0.456 2:0.101 3:-0.073 4:0 
1 1:-0.29 2:0.17 3:0.691 4:15.99 
1 1:-0.764 2:0.473 3:-1.484 4:27.438 
1 1:-0.156 2:0.11 3:0.453 4:4.262 
1 1:-0.19 2:0.012 3:1.635 4:6.57 
1 1:-0.118 2:0.426 3:0.426 4:3.279 
1 1:-0.911 2:0.294 3:1.211 4:20.823 
1 1:-1.674 2:1.026 3:-1.769 4:15.664 
1 1:-0.07 2:0.049 3:-1.128 4:0 
1 1:-0.788 2:0.305 3:0.661 4:24.826 
1 1:-0.645 2:0.626 3:0.802 4:10.865 
1 1:-1.043 2:0.662 3:0.81 4:8.479 
1 1:-0.462 2:0.187 3:-0.453 4:5.865 
1 1:-1.882 2:0.384 3:-0.069 4:24.618 
0.8068294175303495 1:-0.371 2:1.053 3:-0.441 4:3.796 
1 1:-1.536 2:0.204 3:0.397 4:25.943 
1 1:-2.097 2:0.532 3:0.666 4:10.324 
1 1:-0.666 2:0.143 3:0.178 4:35.152 
1 1:-0.105 2:-0.01 3:-0.677 4:7.805 
1 1:-0.771 2:1.25 3:0.656 4:2.633 
1 1:-0.163 2:0.155 3:-0.857 4:0 
1 1:-0.275 2:-0.058 3:0.186 4:0 
1 1:-0.115 2:-0.135 3:1.232 4:9.852 
1 1:-0.227 2:0.424 3:-0.61 4:4.703 
1 1:-0.209 2:-0.176 3:-0.155 4:0 
1 1:-0.149 2:-0.006 3:0.767 4:12.877 
1 1:-0.802 2:-0.078 3:-1.476 4:26.548 
1 1:-0.5 2:0.595 3:0.565 4:4.455 
1 1:-1.226 2:0.64 3:1.542 4:19.966 
1 1:-0.549 2:0.878 3:-0.143 4:2.917 
1 1:-0.756 2:0.854 3:1.021 4:5.434 
1 1:-0.852 2:0.145 3:0.267 4:8.689 
1 1:-0.164 2:0.068 3:0.68 4:6.724 
1 1:-0.328 2:-0.099 3:0.801 4:33.16 
1 1:-2.513 2:0.38 3:0.297 4:21.337 
1 1:-1.396 2:-0.665 3:-0.578 4:21.235 
1 1:-0.871 2:0.023 3:0.537 4:0 
1 1:-1.382 2:0.676 3:-0.94 4:15.562 
1 1:-1.815 2:-0.466 3:0.088 4:22.889 
0.9337646054460057 1:-0.81 2:0.462 3:-0.522 4:18.526 
1 1:-0.411 2:0.514 3:-0.971 4:0 
1 1:-1.115 2:1.13 3:0.224 4:30.298 
1 1:-0.658 2:-0.195 3:-0.837 4:21.235 
1 1:-0.683 2:-0.047 3:2.263 4:5.63 
1 1:-1.763 2:0.866 3:0.399 4:29.44 
1 1:-0.758 2:0.784 3:-0.009 4:29.218 
0.2768007862109877 1:-1.358 2:6.06 3:-1.105 4:13.343 
1 1:-0.684 2:-1.216 3:1.039 4:20.818 
1 1:-2.549 2:0.126 3:0.222 4:56.705 
1 1:-0.108 2:0.095 3:-0.897 4:0 
1 1:-0.111 2:0.354 3:-1.484 4:0 
1 1:-1.334 2:-0.023 3:-2.306 4:33.378 
1 1:-0.652 2:1.109 3:1.142 4:26.197 
1 1:-0.941 2:-0.146 3:0.235 4:57.788 
1 1:-0.968 2:0.541 3:0.55 4:26.281 
1 1:-0.449 2:1.233 3:0.598 4:28.185 
1 1:-0.431 2:0.261 3:0.716 4:53.104 
1 1:-1.423 2:0.845 3:-1.076 4:9.907 
1 1:-1.185 2:0.26 3:0.882 4:11.387 
1 1:0.022 2:0.496 3:0.275 4:2.376 
1 1:0.109 2:0.125 3:-0.143 4:2.917 
1 1:-1.937 2:0.798 3:0.54 4:19.381 
1 1:-0.816 2:1.657 3:2.453 4:3.796 
1 1:-0.881 2:0.717 3:0.835 4:28.185 
1 1:-0.397 2:0.698 3:1.044 4:22.096 
1 1:-1.794 2:0.677 3:0.503 4:26.816 
1 1:-0.456 2:0.153 3:-0.472 4:8.292 
1 1:0.027 2:-0.394 3:-0.056 4:8.479 
1 1:-0.148 2:0.959 3:0.154 4:27.19 
1 1:-0.124 2:-0.023 3:-1.672 4:0 
1 1:-0.969 2:-0.038 3:-0.475 4:11.341 
1 1:-0.909 2:0.629 3:-2.685 4:27.822 
1 1:-0.28 2:-0.797 3:-0.882 4:0 
1 1:-1.072 2:0.175 3:-0.097 4:11.84 
1 1:-0.322 2:-0.753 3:0.129 4:22.291 
1 1:-0.163 2:0.179 3:0.329 4:17.375 
1 1:0.196 2:0.143 3:-2.389 4:0 
1 1:-0.345 2:0.062 3:0.396 4:18.01 
1 1:-0.985 2:-0.366 3:-0.142 4:37.238 
1 1:-2.986 2:1.143 3:-0.059 4:33.429 
1 1:-2.961 2:0.5 3:1.176 4:14.324 
1 1:-0.567 2:-0.25 3:-0.327 4:16.026 
1 1:-0.271 2:0.379 3:-0.131 4:2.534 
1 1:-0.148 2:-0.083 3:0.292 4:0 
1 1:-0.14 2:0.207 3:-0.95 4:0 
1 1:-0.42 2:-0.138 3:-0.029 4:4.925 
1 1:-0.156 2:0.077 3:0.241 4:7.521 
1 1:-1.765 2:-0.111 3:0.139 4:20.917 
1 1:-1.423 2:1.525 3:2.462 4:7.521 
1 1:-1.231 2:0.52 3:-0.031 4:0 
1 1:-0.471 2:0.183 3:-0.241 4:0 
1 1:-0.386 2:-0.226 3:0.191 4:11.964 
1 1:-0.488 2:-0.237 3:-1.476 4:7.521 
1 1:-1.372 2:0.36 3:1.321 4:15.83 
1 1:-0.314 2:0.01 3:-0.987 4:30.174 
1 1:-0.307 2:0.207 3:-1.21 4:0 
1 1:-0.67 2:-0.653 3:-0.174 4:15.674 
1 1:-1.418 2:-0.313 3:-0.435 4:21.746 
1 1:-1.473 2:0.041 3:-0.967 4:32.1 
1 1:0 2:0.098 3:-1.605 4:0 
1 1:-0.71 2:0.262 3:-0.402 4:19.255 
1 1:0 2:0.015 3:-0.896 4:0 
1 1:-0.277 2:-0.787 3:-0.362 4:23.219 
1 1:-0.614 2:0.158 3:0.548 4:12.363 
1 1:-0.903 2:0.582 3:0.928 4:9.832 
1 1:-0.63 2:0.338 3:-0.168 4:4.92 
1 1:-0.233 2:-0.071 3:0.113 4:6.57 
1 1:-1.391 2:0.583 3:-0.791 4:13.781 
1 1:-0.032 2:0.099 3:-1.081 4:0 
1 1:-1.466 2:-0.227 3:0.568 4:18.267 
1 1:-0.113 2:-0.227 3:-2.259 4:0 
1 1:-2.032 2:0.368 3:1.116 4:25.203 
1 1:-1.221 2:-0.151 3:-0.906 4:23.218 
1 1:-3.294 2:0.251 3:-2.288 4:54.103 
1 1:-0.554 2:0.735 3:-0.84 4:0 
1 1:-0.402 2:0.894 3:-0.065 4:28.185 
1 1:-0.04 2:-1.019 3:0.432 4:23.218 
1 1:-0.514 2:0.411 3:-0.695 4:0 
1 1:-0.188 2:0.068 3:0.587 4:13.343 
1 1:-0.313 2:0.1 3:0.128 4:0 
1 1:-1.699 2:0.59 3:0.451 4:22.95 
1 1:-1.55 2:1.078 3:1.395 4:28.836 
1 1:-1.72 2:0.493 3:0.956 4:26.977 
1 1:-2.596 2:0.332 3:0.631 4:39.592 
1 1:-0.484 2:-1.224 3:0.247 4:7.376 
1 1:-0.503 2:-0.442 3:0.186 4:39.138 
1 1:-0.278 2:-1.138 3:-0.468 4:0 
1 1:-0.269 2:-0.164 3:1.013 4:6.446 
1 1:-1.807 2:0.107 3:0.13 4:60.816 
1 1:-2.015 2:0.961 3:-2.517 4:16.946 
1 1:-0.615 2:0.274 3:0.763 4:5.876 
1 1:-0.563 2:0.342 3:-0.11 4:0 
1 1:-0.793 2:0.338 3:-0.042 4:52.226 
1 1:-1.436 2:-0.128 3:-0.253 4:8.264 
1 1:-0.314 2:-0.052 3:1.467 4:0 
1 1:-0.912 2:0.522 3:0.637 4:10.851 
1 1:-2.065 2:-0.158 3:0.545 4:37.531 
1 1:-0.062 2:-0.885 3:0.285 4:6.57 
1 1:-0.124 2:-0.14 3:-0.933 4:0 
1 1:-0.889 2:0.895 3:0.064 4:0 
1 1:-0.283 2:-0.041 3:-1.636 4:0 
1 1:-1.788 2:-0.154 3:-1.277 4:8.594 
1 1:-0.582 2:1.159 3:0.081 4:28.638 
1 1:-0.239 2:-0.161 3:-0.518 4:9.444 
1 1:-0.844 2:-0.213 3:0.573 4:14.189 
1 1:-2.009 2:0.431 3:-1.187 4:6.844 
0.6957509888624871 1:-0.615 2:1.08 3:-1.639 4:9.444 
0.8548561582607265 1:-1.245 2:1.39 3:-0.904 4:15.307 
1 1:-1.001 2:0.011 3:-1.275 4:0 
1 1:-0.091 2:0.406 3:-0.051 4:3.989 
1 1:-2.111 2:1.009 3:-1.23 4:4.324 
1 1:-0.304 2:0.018 3:-1.575 4:0 
1 1:-1.073 2:1.055 3:-1.21 4:21.421 
1 1:-0.263 2:0.132 3:-1.575 4:0 
1 1:-1.118 2:0.703 3:0.28 4:20.312 
1 1:-0.188 2:0.01 3:-0.174 4:5.399 
1 1:-1.468 2:0.003 3:-0.049 4:25.765 
1 1:-0.586 2:0.472 3:0.703 4:9.027 
1 1:-0.469 2:0.854 3:1.124 4:18.267 
1 1:-0.237 2:0.489 3:0.745 4:26.197 
1 1:-0.434 2:0.136 3:-0.245 4:0 
1 1:-0.153 2:-0.17 3:-0.156 4:0 
1 1:-2.247 2:0.497 3:-0.08 4:20.852 
0.1130676879530007 1:-0.794 2:1.787 3:0.05 4:27.898 
1 1:-0.457 2:-0.271 3:-0.009 4:10.508 
1 1:-2.386 2:1.235 3:-0.71 4:19.419 
1 1:-0.571 2:0.318 3:0.368 4:4.262 
1 1:-0.613 2:0.968 3:1.501 4:8.408 
1 1:-1.382 2:0.761 3:0.882 4:10.006 
1 1:-0.44 2:-0.256 3:0.163 4:4.834 
1 1:-1.347 2:0.17 3:0.487 4:9.309 
1 1:-1.195 2:-0.437 3:0.408 4:17.279 
1 1:-0.282 2:0.13 3:2.1 4:6.57 
1 1:-0.515 2:0.352 3:1.036 4:12.911 
1 1:-0.537 2:0.404 3:-0.32 4:5.375 
1 1:-0.951 2:0.011 3:0.654 4:11.799 
1 1:-0.65 2:0.278 3:1.096 4:9.807 
1 1:-1.31 2:0.532 3:0.973 4:20.316 
0.3809945944699586 1:-0.913 2:0.419 3:-0.086 4:10.413 
1 1:-0.504 2:-0.066 3:0.887 4:10.413 
1 1:-0.453 2:0.414 3:0.256 4:1.313 
1 1:-1.459 2:-0.46 3:1.003 4:21.257 
1 1:-1.958 2:0.713 3:-0.034 4:52.508 
0.1674851453492985 1:-1.184 2:4.94 3:-3.186 4:5.998 
1 1:-0.915 2:0.265 3:0.423 4:6.934 
1 1:-2.08 2:1.683 3:-0.232 4:12.089 
1 1:-0.843 2:0.32 3:1.089 4:10.362 
1 1:-0.506 2:0.564 3:0.979 4:11.898 
1 1:-0.448 2:-0.653 3:1.641 4:5.409 
1 1:-1.247 2:0.914 3:1.122 4:5.588 
1 1:-0.548 2:-0.134 3:0.091 4:6.964 
1 1:-0.86 2:0.251 3:0.507 4:7.7 
1 1:-1.061 2:0.389 3:1.935 4:6.021 
1 1:-0.433 2:0.119 3:0.029 4:0 
1 1:-2.189 2:1.065 3:0.827 4:19.064 
1 1:-0.925 2:-0.018 3:-0.62 4:6.412 
1 1:-0.972 2:0.149 3:1.119 4:12.215 
1 1:-1.467 2:0.035 3:1.112 4:8.031 
1 1:-2.197 2:0.277 3:-0.321 4:34.065 
0.3879708048429076 1:-1.588 2:6.935 3:-2.907 4:8.99 
1 1:-0.896 2:0.175 3:0.382 4:7.472 
1 1:-0.567 2:-0.204 3:0.92 4:23.435 
1 1:-0.879 2:0.351 3:-0.624 4:10.328 
1 1:-2.067 2:1.922 3:1.224 4:40.565 
1 1:-2.306 2:0.095 3:0.752 4:18.226 
1 1:-1.485 2:0.404 3:-4.711 4:14.324 
1 1:-0.341 2:0.085 3:0.893 4:10.931 
1 1:-2.116 2:0.651 3:0.706 4:5.769 
1 1:-0.602 2:0.257 3:-0.616 4:10.413 
1 1:-0.945 2:-0.04 3:0.357 4:13.329 
1 1:-0.554 2:0.064 3:1.308 4:4.703 
1 1:-0.161 2:-0.082 3:1.273 4:4.703 
1 1:-1.509 2:0.719 3:1.644 4:9.294 
1 1:-0.947 2:0.082 3:0.148 4:21.279 
1 1:-0.366 2:-0.077 3:0.005 4:4.33 
1 1:-3.513 2:-1.252 3:-1.657 4:25.965 
1 1:-1.505 2:0.033 3:0.57 4:16.816 
1 1:-0.777 2:-0.543 3:0.486 4:18.267 
1 1:-2.413 2:0.336 3:-0.465 4:20.902 
1 1:-0.528 2:0.383 3:-1.302 4:0 
1 1:-0.986 2:0.843 3:0.838 4:7.401 
1 1:-0.147 2:-0.012 3:-0.531 4:0 
1 1:-1.565 2:0.373 3:0.582 4:13.781 
1 1:-0.616 2:-0.082 3:1.653 4:13.343 
1 1:-1.648 2:1.627 3:-1.1 4:5.854 
1 1:-0.339 2:-0.018 3:-1.255 4:0 
1 1:-1.033 2:0.607 3:-0.641 4:10.413 
1 1:-0.402 2:-0.507 3:-0.809 4:0 
1 1:-0.171 2:0.088 3:1.478 4:6.57 
1 1:-0.367 2:0.317 3:-0.519 4:0 
0.6515045252624569 1:-3.554 2:0.646 3:-0.528 4:25.203 
1 1:-0.102 2:-0.007 3:0.909 4:7.521 
1 1:-1.019 2:0.481 3:-0.276 4:6.93 
1 1:-0.421 2:-0.016 3:-0.781 4:0 
1 1:-1.42 2:1.277 3:1.245 4:18.267 
1 1:-0.824 2:1.34 3:-1.639 4:10.492 
1 1:-0.29 2:-0.446 3:-0.478 4:13.201 
1 1:-1.527 2:0.327 3:0.636 4:18.397 
1 1:-0.646 2:-0.284 3:0.738 4:8.479 
1 1:-0.309 2:0.011 3:0.861 4:0 
1 1:-0.595 2:0.045 3:-0.342 4:0 
1 1:-0.391 2:0.206 3:0.754 4:17.279 
0.8514918015632014 1:-0.822 2:1.379 3:1.623 4:5.63 
1 1:-0.45 2:0.575 3:-1.514 4:0 
1 1:-1.796 2:0.517 3:0.053 4:14.14 
1 1:-2.233 2:1.042 3:0.113 4:33.2 
1 1:-0.97 2:-0.099 3:0.442 4:12.456 
0.8051490964842463 1:-1.67 2:2.125 3:0.915 4:24.79 
1 1:-0.787 2:0.318 3:0.56 4:31.169 
1 1:-1.155 2:-0.103 3:-0.886 4:22.226 
1 1:-1.292 2:0.261 3:0.413 4:24.21 
1 1:-1.62 2:0.378 3:-0.121 4:16.329 
1 1:-0.73 2:-0.836 3:0.127 4:28.185 
1 1:-0.959 2:-0.343 3:-0.349 4:35.172 
1 1:-1.042 2:0.517 3:-0.312 4:9.444 
1 1:-2.418 2:0.237 3:-0.41 4:21.947 
0.05511834558782803 1:-1.139 2:3.194 3:-1.49 4:25.049 
1 1:-1.66 2:1.151 3:0.697 4:13.343 
1 1:-1.602 2:0.774 3:1.11 4:10.413 
1 1:-1.199 2:-0.085 3:0.066 4:8.292 
1 1:-0.37 2:0.201 3:-0.089 4:0 
1 1:-1.062 2:0.994 3:-0.553 4:6.355 
1 1:-0.811 2:-0.079 3:-0.048 4:29.179 
1 1:-0.839 2:1.026 3:1.55 4:8.031 
1 1:-1.552 2:0.303 3:0.632 4:18.425 
1 1:-1.125 2:0.139 3:0.04 4:21.368 
1 1:-1.141 2:-0.032 3:-0.284 4:28.638 
1 1:-0.544 2:-1.153 3:0.618 4:34.156 
1 1:-2.756 2:1.041 3:0.058 4:18.69 
1 1:-0.226 2:0.353 3:0.214 4:29.179 
0.9366993916019258 1:-0.508 2:0.682 3:-0.993 4:25.203 
1 1:0.13 2:0.204 3:-1.774 4:0 
1 1:-0.021 2:-0.082 3:-1.425 4:0 
1 1:-0.225 2:-0.009 3:0.376 4:0 
1 1:-2.101 2:0.571 3:0.746 4:25.203 
1 1:-2.522 2:1.347 3:-4.14 4:16.293 
1 1:-0.962 2:0.299 3:0.164 4:12.391 
0.7032328626245294 1:-1.147 2:0.307 3:0.246 4:23.189 
1 1:-0.11 2:0.006 3:-1.497 4:0 
1 1:-0.275 2:-0.545 3:-0.911 4:63.089 
1 1:0.009 2:0.108 3:-1.451 4:0 
1 1:-0.089 2:0.105 3:-0.916 4:0 
1 1:-0.566 2:0.259 3:-0.428 4:7.811 
1 1:-0.745 2:1.954 3:-4.074 4:0 
1 1:-1.19 2:0.939 3:0.96 4:9.661 
1 1:-0.482 2:1.379 3:0.373 4:29.179 
1 1:-1.948 2:0.361 3:-0.449 4:15.959 
1 1:-0.077 2:0.042 3:-0.81 4:0 
1 1:-0.461 2:0.299 3:-1.553 4:0 
1 1:-0.359 2:0.232 3:-0.991 4:0 
1 1:-1.82 2:0.838 3:-0.19 4:20.036 
1 1:-0.659 2:0.052 3:0.361 4:0 
0.00118640285824284 1:-0.391 2:0.586 3:-0.495 4:43.126 
1 1:-0.408 2:0.137 3:-1.672 4:28.185 
1 1:-1.315 2:0.768 3:-1.049 4:13.441 
1 1:-0.205 2:0.53 3:-0.691 4:48.114 
1 1:-0.686 2:0.176 3:0.507 4:20.245 
1 1:-0.892 2:0.499 3:-0.066 4:20.245 
1 1:-0.228 2:0.042 3:-0.135 4:0 
1 1:-0.276 2:0.177 3:-0.474 4:0 
0.1194420312574544 1:-1.733 2:0.749 3:-0.053 4:34.77 
1 1:-0.214 2:0.192 3:-0.828 4:0 
1 1:-0.413 2:0.379 3:-1.08 4:8.479 
1 1:-1.278 2:-0.267 3:-0.085 4:32.804 
1 1:-0.227 2:-0.619 3:-0.167 4:12.363 
1 1:-2.303 2:0.715 3:0.447 4:11.156 
1 1:-0.203 2:0.038 3:-0.525 4:0 
1 1:-0.411 2:0.279 3:-0.301 4:0 
1 1:-0.365 2:0.718 3:-1.221 4:22.226 
1 1:-1.102 2:0.468 3:-0.583 4:25.203 
1 1:0 2:-0.348 3:-1.055 4:0 
1 1:-0.41 2:-0.055 3:-0.289 4:0 
1 1:-1.291 2:0.145 3:0.183 4:0 
1 1:-0.002 2:-0.116 3:-1.865 4:0 
1 1:-0.48 2:0.02 3:0.972 4:6.57 
1 1:-0.82 2:-0.021 3:-0.323 4:11.722 
1 1:-0.21 2:0.043 3:-0.441 4:8.479 
1 1:-1.067 2:0.442 3:0.129 4:21.235 
1 1:-2.75 2:0.37 3:0.336 4:20.888 
1 1:-0.822 2:0.069 3:-0.595 4:15.307 
1 1:-0.702 2:-0.729 3:-0.62 4:23.218 
1 1:-2.327 2:2.601 3:-1.569 4:7.521 
1 1:-1.401 2:0.003 3:0.288 4:25.74 
1 1:-0.522 2:-1.208 3:-0.082 4:20.293 
1 1:-2.87 2:1.504 3:1.76 4:13.343 
1 1:-1.03 2:-0.155 3:-0.019 4:51.108 
1 1:-0.801 2:1.887 3:-1.833 4:4.686 
1 1:-1.771 2:-0.183 3:-0.052 4:32.843 
1 1:-3.11 2:0.061 3:-0.045 4:40.977 
1 1:-0.409 2:0.165 3:-0.18 4:8.479 
1 1:-1.411 2:-1.981 3:1.145 4:13.463 
1 1:-0.558 2:-0.27 3:-0.307 4:32.164 
1 1:-2.38 2:1.541 3:0.757 4:11.964 
1 1:-0.78 2:0.364 3:-0.627 4:10.413 
1 1:-2.567 2:0.829 3:-0.4 4:65.079 
1 1:-0.294 2:0.661 3:-4.268 4:24.211 
1 1:-0.782 2:0.09 3:1.639 4:5.63 
1 1:-1.163 2:0.22 3:-0.21 4:29.179 
1 1:-1.135 2:0.349 3:0.474 4:6.473 
1 1:-0.016 2:-0.081 3:-0.775 4:0 
1 1:-1.376 2:0.016 3:0.128 4:29.6 
0.5967464226582729 1:-1.676 2:2.407 3:-0.819 4:16.61 
1 1:-1.13 2:-0.568 3:-0.451 4:22.797 
1 1:-0.134 2:0.19 3:0.99 4:2.895 
1 1:-0.552 2:0.494 3:0.752 4:1.313 
1 1:-0.897 2:0.962 3:-0.587 4:22.226 
1 1:-0.282 2:-0.378 3:0.21 4:0 
1 1:-2.116 2:-0.255 3:-0.551 4:44.787 
1 1:-1.361 2:-0.137 3:-0.42 4:15.307 
1 1:-2.733 2:0.591 3:-0.02 4:17.004 
1 1:-1.328 2:-0.527 3:0.216 4:13.869 
1 1:-1.529 2:0.05 3:0.222 4:19.93 
1 1:-3.147 2:0.694 3:-0.714 4:37.985 
1 1:-0.619 2:0.414 3:-3.207 4:0 
1 1:-1.181 2:-0.103 3:0.68 4:8.06 
1 1:-0.608 2:-0.945 3:0.589 4:8.541 
1 1:-0.095 2:-1.283 3:-0.077 4:0 
1 1:-0.352 2:0.002 3:-0.342 4:0 
1 1:-0.189 2:0.182 3:-0.75 4:0 
0.4915743115811313 1:-1.12 2:1.097 3:0.818 4:6.783 
1 1:-0.431 2:-0.262 3:1.271 4:2.977 
1 1:-0.053 2:0.474 3:0.314 4:29.179 
1 1:-0.061 2:-0.04 3:-0.999 4:13.343 
1 1:-1.022 2:0.185 3:0.594 4:18.267 
0.6437984276917756 1:-0.706 2:1.716 3:0.816 4:26.197 
1 1:-0.174 2:0.077 3:1.287 4:6.57 
1 1:-0.742 2:0.262 3:0.8 4:15.428 
1 1:-1.128 2:0.13 3:0.68 4:12.816 
1 1:-0.605 2:0.152 3:0.883 4:13.593 
1 1:-1.211 2:0.559 3:0.16 4:17.048 
1 1:-2.074 2:0.225 3:-0.434 4:14.153 
1 1:-2.12 2:-0.16 3:0.289 4:9.548 
1 1:0 2:0.417 3:-1.333 4:0 
1 1:-2.786 2:3.227 3:0.907 4:28.029 
1 1:-1.394 2:0.318 3:-0.089 4:18.807 
1 1:-0.902 2:0.092 3:0.632 4:14.324 
0.06636346249531773 1:-0.394 2:0.953 3:0.545 4:17.279 
1 1:-2.218 2:0.951 3:0.233 4:19.697 
1 1:-0.194 2:-0.515 3:-1.194 4:0 
1 1:-0.909 2:-0.268 3:0.322 4:10.956 
1 1:-0.796 2:0.323 3:-0.254 4:6.355 
1 1:-1.81 2:0.855 3:1.323 4:8.034 
1 1:-1.266 2:0.572 3:0.667 4:9.718 
1 1:0.254 2:0.526 3:1.52 4:3.796 
1 1:-0.241 2:-1 3:-0.06 4:15.134 
1 1:-1.323 2:0.174 3:0.958 4:8.935 
1 1:-0.86 2:0.08 3:0.42 4:16.733 
1 1:-4.241 2:-0.456 3:-1.005 4:22.913 
1 1:-0.872 2:0.372 3:-0.225 4:19.104 
1 1:-0.859 2:-0.396 3:0.095 4:17.979 
1 1:-0.638 2:-0.075 3:0.458 4:11.724 
1 1:-1.978 2:0.72 3:1.081 4:20.297 
1 1:-1.634 2:0.408 3:0.975 4:22.121 
1 1:-1.214 2:1.355 3:0.993 4:11.789 
1 1:-0.753 2:0.212 3:1.338 4:9.309 
1 1:-0.673 2:0.131 3:0.06 4:11.789 
1 1:-1.025 2:0.834 3:1.26 4:13.343 
1 1:-0.722 2:0.258 3:-0.625 4:22.369 
1 1:-0.901 2:0.417 3:0.088 4:11.041 
1 1:-0.565 2:-0.454 3:0.886 4:9.193 
1 1:-1.837 2:1.033 3:0.009 4:14.891 
0.9884176748736871 1:-1.574 2:0.452 3:-0.435 4:23.61 
0.7717266174992706 1:0.169 2:0.087 3:-0.658 4:13.343 
1 1:-1.053 2:1.01 3:-0.607 4:4.686 
1 1:-1.665 2:0.264 3:0.307 4:18.267 
1 1:-0.726 2:0.311 3:-0.423 4:0 
1 1:-0.177 2:-0.276 3:-1.402 4:0 
1 1:-0.198 2:0.13 3:0.856 4:0 
1 1:-0.793 2:-0.56 3:-1.53 4:6.302 
1 1:-0.94 2:-0.065 3:1.307 4:16.292 
1 1:-0.666 2:0.943 3:-1.539 4:0 
1 1:-0.391 2:-0.028 3:-0.567 4:0 
1 1:0.104 2:0.425 3:-2.01 4:0 
1 1:-0.873 2:-0.103 3:-0.148 4:41.132 
1 1:0 2:0.135 3:-1.187 4:0 
1 1:-1.343 2:0.158 3:0.448 4:20.071 
1 1:-0.991 2:0.236 3:0.913 4:7.485 
1 1:-0.48 2:-0.013 3:-0.202 4:7.805 
1 1:-0.361 2:0.006 3:-0.673 4:0 
1 1:-1.336 2:0.261 3:-0.789 4:30.124 
1 1:-0.289 2:0.04 3:0.578 4:22.378 
1 1:-0.741 2:1.113 3:-0.165 4:29.746 
1 1:-1.009 2:0.438 3:0.509 4:21.246 
1 1:-0.519 2:0.853 3:-1.568 4:15.307 
1 1:-0.9 2:1.387 3:0.03 4:28.185 
1 1:-1.282 2:0.442 3:-0.156 4:27.633 
1 1:-0.791 2:0.257 3:-0.621 4:41.132 
1 1:-1.077 2:0.575 3:1.004 4:0 
1 1:0 2:-0.29 3:0.092 4:0 
1 1:-0.238 2:0.079 3:0.756 4:15.307 
1 1:-0.924 2:-0.037 3:0.45 4:19.381 
1 1:-1.75 2:0.132 3:0.406 4:10.413 
1 1:-1.043 2:0.127 3:0.069 4:6.355 
1 1:-0.315 2:0.223 3:0.326 4:8.541 
1 1:-0.225 2:0.041 3:0.919 4:0 
1 1:-0.716 2:-0.484 3:-0.137 4:54.103 
1 1:-0.078 2:0.273 3:0.475 4:17.279 
1 1:-1.85 2:-0.292 3:-0.387 4:47.117 
1 1:-0.875 2:0.493 3:0.573 4:9.444 
1 1:-0.284 2:-0.108 3:0.095 4:0 
1 1:-1.514 2:0.587 3:0.321 4:17.334 
1 1:-2.478 2:0.584 3:-1.159 4:8.121 
1 1:-0.232 2:-0.638 3:0.103 4:0 
1 1:-0.111 2:1.158 3:0.012 4:27.19 
1 1:0.089 2:-0.372 3:1.481 4:4.703 
1 1:-1.181 2:0.619 3:-1.363 4:9.125 
1 1:-1.578 2:0.015 3:-3.401 4:0 
1 1:-0.143 2:-0.468 3:0.158 4:0 
0.1350015703338091 1:-0.859 2:1.26 3:1.113 4:16.02 
1 1:-1.867 2:0.496 3:1.318 4:19 
0.3614334712166191 1:-0.72 2:6.393 3:-1.123 4:20.245 
1 1:-0.195 2:-0.305 3:0.604 4:24.21 
0.4844279726124233 1:-1.732 2:1.054 3:-0.632 4:35.51 
1 1:-0.314 2:0.291 3:0.774 4:16.702 
0.3812162522818369 1:-0.925 2:4.665 3:1.157 4:3.556 
1 1:-1.538 2:1.25 3:1.089 4:3.709 
1 1:-1.32 2:0.614 3:1.098 4:21.429 
1 1:-0.503 2:1.227 3:1.111 4:16.838 
1 1:-0.959 2:0.672 3:0.781 4:16.582 
1 1:-0.502 2:0.557 3:0.774 4:27.633 
1 1:-0.603 2:0.804 3:1.218 4:0 
0.0573303901057288 1:-0.408 2:0.323 3:0.715 4:9.866 
1 1:-0.444 2:0.655 3:1.028 4:23.87 
1 1:-0.514 2:0.51 3:0.955 4:14.858 
1 1:-0.577 2:-0.106 3:1.029 4:9.661 
1 1:-0.261 2:0.098 3:0.741 4:14.867 
1 1:-1.401 2:1.256 3:0.785 4:49.654 
1 1:-0.825 2:0.692 3:1.247 4:16.576 
1 1:-0.54 2:-0.415 3:0.97 4:23.218 
1 1:-0.3 2:-0.52 3:2.383 4:10.413 
1 1:-0.078 2:-0.012 3:-1.316 4:0 
1 1:-0.643 2:0.725 3:1.084 4:12.991 
1 1:-2.238 2:1.09 3:-1.269 4:31.584 
1 1:-2.002 2:-0.365 3:0.381 4:5.63 
1 1:0.056 2:-0.578 3:1.727 4:3.076 
1 1:-1.087 2:0.318 3:-0.089 4:29.179 
1 1:-1.143 2:0.945 3:1.132 4:12.397 
1 1:-1.686 2:-0.116 3:0.107 4:17.985 
1 1:-0.964 2:0.621 3:-0.768 4:15.307 
1 1:-0.305 2:0.051 3:0.846 4:14.324 
1 1:-0.726 2:0.092 3:0.128 4:11.335 
1 1:-2.326 2:-0.154 3:0.583 4:11.185 
1 1:-2.407 2:-0.477 3:-0.228 4:47.922 
1 1:-1.033 2:-0.015 3:0.616 4:16.239 
1 1:-0.639 2:0.149 3:1.127 4:9.444 
1 1:-1.425 2:1.281 3:1.321 4:12.008 
0.1083624704637752 1:-1.843 2:2.389 3:-3.587 4:0 
1 1:-0.874 2:0.516 3:0.503 4:30.872 
1 1:-0.312 2:0.211 3:1.433 4:13.343 
1 1:-0.718 2:0.169 3:0.872 4:6.587 
1 1:0 2:-0.465 3:-0.02 4:0 
1 1:-0.309 2:-0.614 3:-0.429 4:0 
1 1:-0.902 2:0.502 3:0.961 4:5.363 
1 1:-0.357 2:-0.7 3:0.49 4:35.152 
1 1:-0.364 2:0.018 3:0.095 4:12.008 
1 1:-0.035 2:-0.421 3:0.038 4:13.343 
1 1:-1.088 2:-0.274 3:0.201 4:37.941 
1 1:-0.022 2:-0.024 3:0.669 4:12.114 
1 1:-1.125 2:0.367 3:1.362 4:13.343 
1 1:-0.51 2:-1.296 3:0.77 4:29.455 
1 1:-1.47 2:0.214 3:0.153 4:55.556 
1 1:-0.054 2:-0.304 3:-0.579 4:0 
1 1:-1.958 2:2.057 3:-2.663 4:23.218 
1 1:0.08 2:0.186 3:-1.787 4:0 
1 1:-0.036 2:-0.048 3:-1.556 4:0 
1 1:-0.485 2:0.312 3:0.246 4:0 
1 1:-1.54 2:0.842 3:-2.745 4:30.363 
1 1:-0.124 2:0.174 3:-1.161 4:0 
1 1:-0.201 2:0.208 3:-1.058 4:4.925 
1 1:-0.446 2:0.421 3:-0.169 4:4.08 
1 1:-0.292 2:-0.006 3:-0.393 4:9.197 
1 1:-0.355 2:0.988 3:-0.048 4:29.179 
1 1:-0.314 2:-0.2 3:-0.391 4:20.071 
1 1:-0.466 2:-0.303 3:-0.394 4:0 
1 1:-0.225 2:0.02 3:-0.693 4:0 
1 1:-1.938 2:0.512 3:0.874 4:7.521 
1 1:-0.509 2:-0.752 3:0.151 4:25.825 
1 1:-0.638 2:0.171 3:-0.118 4:4.925 
1 1:-0.248 2:0.136 3:1.885 4:2.376 
1 1:-0.715 2:0.196 3:-0.354 4:20.293 
1 1:0.078 2:-0.338 3:1.345 4:2.917 
0.7882223195372693 1:-1.993 2:4.212 3:-3.022 4:0 
1 1:-1.157 2:0.177 3:0.508 4:12.231 
1 1:-1.02 2:0.462 3:0.667 4:13.677 
1 1:-0.658 2:0.407 3:1.602 4:3.796 
1 1:-0.215 2:-0.143 3:0.056 4:8.779 
1 1:-0.042 2:0.092 3:-0.827 4:0 
1 1:-1.097 2:0.612 3:-0.502 4:22.201 
1 1:-0.653 2:0.291 3:-0.52 4:21.235 
1 1:-1.03 2:0.258 3:0.026 4:8.03 
0.7178382073976062 1:-0.388 2:0.451 3:-0.84 4:24.21 
1 1:-1.25 2:0.527 3:-0.085 4:27.19 
1 1:-0.367 2:0.146 3:0.585 4:0 
1 1:-0.649 2:0.581 3:-0.714 4:23.385 
1 1:-1.337 2:1.272 3:1.531 4:14.324 
1 1:-0.969 2:0.747 3:0.633 4:11.387 
1 1:-0.06 2:0.023 3:-1.018 4:0 
1 1:-1.328 2:1.162 3:-1.627 4:0 
1 1:0.187 2:-0.909 3:1.959 4:4.703 
1 1:-0.247 2:0.542 3:-1.255 4:0 
1 1:-0.307 2:0.019 3:0.26 4:0 
1 1:-0.854 2:1.347 3:-1.354 4:34.156 
1 1:-0.912 2:-1.092 3:-0.07 4:4.703 
1 1:-1.08 2:1.309 3:0.211 4:0 
0.04092736415825743 1:-0.388 2:1.035 3:-0.169 4:29.501 
0.0009626789380421663 1:-1.842 2:7.113 3:-2.045 4:14.324 
1 1:-0.69 2:0.228 3:0.076 4:20.35 
1 1:-0.07 2:-0.533 3:4.03 4:3.726 
1 1:-1.858 2:0.912 3:0.569 4:55.869 
1 1:-1.204 2:0.518 3:0.106 4:27.716 
1 1:-0.723 2:0.358 3:0.301 4:27.227 
1 1:-1.543 2:0.694 3:1.544 4:5.63 
1 1:-0.568 2:-0.78 3:0.065 4:20.683 
1 1:-2.533 2:0.082 3:2.092 4:10.413 
1 1:-1.994 2:0.693 3:0.689 4:17.427 
1 1:-1.074 2:0.239 3:0.457 4:12.883 
1 1:-1.188 2:-0.545 3:-0.776 4:4.703 
1 1:-1.339 2:0.572 3:0.436 4:27.822 
0.427396100622487 1:-0.095 2:-0.466 3:-0.572 4:40.135 
0.06545903978519964 1:-1.328 2:5.007 3:-0.916 4:16.702 
1 1:-0.269 2:0.161 3:-0.898 4:0 
1 1:-0.049 2:0.279 3:-1.418 4:0 
1 1:-1.977 2:-0.103 3:0.101 4:19.687 
0.06712239086001315 1:-1.058 2:0.478 3:-0.384 4:30.411 
1 1:-0.517 2:0.058 3:0.236 4:0 
1 1:-0.685 2:0.739 3:0.194 4:27.19 
1 1:-0.165 2:-0.618 3:-0.234 4:11.23 
1 1:-0.695 2:0.014 3:0.204 4:11.788 
1 1:-0.445 2:0.148 3:0.18 4:0 
1 1:-0.45 2:0.786 3:-0.015 4:3.796 
1 1:-1.394 2:0.569 3:0.048 4:33.259 
1 1:-0.792 2:0.925 3:1.049 4:11.387 
1 1:-0.156 2:0.11 3:-0.723 4:18.267 
1 1:-0.081 2:-0.307 3:0.22 4:10.413 
1 1:0.008 2:0.241 3:-1.475 4:0 
1 1:-0.139 2:0.306 3:-1.373 4:0 
1 1:-0.836 2:0.921 3:-1.897 4:23.189 
1 1:-1.321 2:-0.026 3:-1.566 4:9.567 
1 1:-0.037 2:-0.683 3:-1.343 4:6.57 
1 1:-0.492 2:-0.686 3:0.22 4:31.032 
1 1:-0.534 2:0 3:0.186 4:9.444 
1 1:-0.339 2:0.5 3:0.351 4:4.765 
1 1:-0.247 2:-0.004 3:1.043 4:5.63 
1 1:-0.991 2:0.003 3:0.596 4:8.689 
1 1:-0.49 2:-0.221 3:0.441 4:20.745 
1 1:-0.467 2:-0.164 3:-0.257 4:45.121 
1 1:-1.061 2:-0.004 3:-0.645 4:33.467 
1 1:-0.193 2:0.164 3:-1.495 4:15.307 
1 1:-1.396 2:0.823 3:0.631 4:12.363 
0.3524724717941 1:-0.722 2:0.256 3:0.053 4:41.132 
1 1:-0.581 2:0.098 3:0.613 4:5.876 
1 1:-2.036 2:0.302 3:0.609 4:38.675 
1 1:-1.37 2:0.506 3:0.69 4:18.783 
0.02359689434654001 1:-0.744 2:0.409 3:-0.089 4:27.964 
1 1:-0.794 2:0.017 3:0.814 4:11.964 
1 1:-0.714 2:0.199 3:-0.233 4:49.087 
1 1:-0.943 2:-0.322 3:-0.147 4:28.861 
0.1273028942871558 1:-0.261 2:6.909 3:-2.053 4:12.397 
1 1:-0.693 2:-0.029 3:-0.2 4:13.009 
0.02805023788343122 1:-0.205 2:-0.165 3:-0.224 4:25.203 
1 1:-1.652 2:0.182 3:0.585 4:35.815 
0.9585555082388568 1:-2.419 2:0.034 3:-2.967 4:17.279 
1 1:-0.318 2:-1.249 3:-1.131 4:0 
1 1:-0.554 2:0.023 3:1.498 4:0 
1 1:-0.269 2:0.093 3:-0.14 4:0 
1 1:0.392 2:-0.7 3:0.621 4:4.703 
1 1:-1.083 2:0.822 3:-0.086 4:28.612 
1 1:-1.073 2:0.049 3:-1.872 4:36.849 
1 1:-0.758 2:-0.075 3:1.259 4:17.308 
1 1:-0.623 2:0.492 3:-1.488 4:1.313 
1 1:-0.663 2:0.59 3:0.581 4:38.218 
1 1:-0.252 2:-0.133 3:-0.561 4:0 
1 1:-0.114 2:-0.292 3:-0.016 4:0 
1 1:-1.785 2:0.558 3:-0.455 4:14.015 
1 1:-0.47 2:0.022 3:1.431 4:4.703 
1 1:-0.3 2:0.079 3:1.085 4:0 
1 1:-1.606 2:0.077 3:-1.252 4:34.156 
1 1:-1.105 2:0.622 3:-0.308 4:11.341 
1 1:-0.285 2:-0.182 3:0.107 4:0 
1 1:-0.432 2:-0.014 3:0.312 4:9.272 
1 1:-0.337 2:0.352 3:-0.757 4:0 
1 1:-1.646 2:0.38 3:-0.087 4:9.274 
1 1:-1.239 2:0.273 3:-0.055 4:25.509 
1 1:-0.686 2:0.51 3:-2.613 4:0 
1 1:-0.949 2:0.128 3:0.377 4:22.552 
1 1:-0.964 2:-0.126 3:0.343 4:18.595 
0.1500273521369005 1:-0.666 2:6.03 3:-1.198 4:6.837 
1 1:-0.251 2:0.284 3:0.624 4:18.389 
1 1:-1.034 2:-0.314 3:0.06 4:10.413 
1 1:-1.712 2:0.376 3:-0.002 4:29.588 
0.6582274408724108 1:-2.452 2:5.875 3:-2.779 4:17.279 
1 1:-0.606 2:0.619 3:-1.246 4:9.444 
1 1:-0.493 2:0.106 3:0.978 4:14.324 
1 1:-0.962 2:0.32 3:1.188 4:4.703 
1 1:-0.198 2:0.286 3:0.676 4:29.179 
1 1:-0.142 2:0.069 3:-0.782 4:0 
1 1:-1.247 2:0.118 3:0.202 4:13.343 
1 1:-1.819 2:0.138 3:0.323 4:11.254 
1 1:-2.017 2:1.818 3:2.688 4:9.444 
1 1:-1.91 2:0.587 3:0.44 4:12.363 
1 1:-0.564 2:0.625 3:0.356 4:26.977 
1 1:-0.439 2:-0.211 3:0.194 4:15.307 
1 1:-1.621 2:-0.064 3:0.09 4:23.218 
0.7263105460206084 1:-1.269 2:1.926 3:-2.367 4:0 
1 1:-1.084 2:-0.229 3:0.096 4:32.673 
1 1:-0.563 2:0.127 3:-0.611 4:0 
1 1:-0.493 2:1.006 3:-1.352 4:21.235 
1 1:-0.118 2:0.443 3:-1.387 4:0 
1 1:-0.504 2:0.355 3:-1.008 4:17.279 
1 1:-1.995 2:0.932 3:-2.055 4:8.998 
0.3637032249518178 1:-0.58 2:3.656 3:-0.031 4:14.324 
1 1:-0.249 2:-0.297 3:-0.556 4:0 
1 1:-1.54 2:0.849 3:-0.331 4:8.327 
1 1:-0.225 2:-0.175 3:-0.141 4:0 
1 1:-1.991 2:1.449 3:0.148 4:21.074 
0.3275330876769015 1:-1.692 2:2.086 3:-2.647 4:29.179 
1 1:-1.248 2:1.425 3:0.818 4:26.779 
1 1:-1.623 2:0.657 3:0.171 4:17.178 
1 1:-0.364 2:0.361 3:-2.932 4:0 
1 1:-1.2 2:0.432 3:0.549 4:19.782 
1 1:-0.726 2:0.266 3:0.143 4:29.666 
1 1:-2.166 2:0.847 3:0.308 4:35.846 
1 1:-2.107 2:0.843 3:-1.081 4:10.683 
1 1:-0.152 2:-0.216 3:-0.998 4:0 
1 1:-0.226 2:0.334 3:-1.037 4:31.169 
1 1:-1.208 2:0.52 3:-0.117 4:9.94 
1 1:-0.338 2:-0.299 3:0.383 4:0 
1 1:-0.751 2:0.508 3:0.845 4:6.907 
1 1:-1.854 2:-0.051 3:-0.051 4:29.632 
1 1:-0.762 2:1.238 3:-0.753 4:4.215 
1 1:-0.743 2:-0.041 3:-0.279 4:0 
1 1:-0.148 2:0.121 3:-0.8 4:0 
1 1:0 2:-0.042 3:-1.067 4:0 
1 1:-0.526 2:-0.648 3:-1.136 4:25.203 
1 1:0.011 2:0.057 3:-1.345 4:0 
1 1:-2.094 2:2.439 3:-1.202 4:12.553 
1 1:-0.478 2:0.31 3:-0.376 4:0 
1 1:-0.023 2:0.27 3:-1.709 4:0 
1 1:-0.252 2:0.07 3:-0.204 4:0 
1 1:-0.738 2:0.463 3:-1.053 4:20.245 
1 1:-2.896 2:-0.264 3:-1.441 4:22.332 
1 1:-0.733 2:0.118 3:0.293 4:0 
1 1:-1.88 2:0.263 3:-0.131 4:22.466 
1 1:0.037 2:-0.094 3:-1.5 4:0 
1 1:-1.642 2:-0.407 3:0.004 4:11.722 
1 1:-1.453 2:1.335 3:-0.101 4:5.434 
1 1:-0.157 2:0.06 3:-0.976 4:0 
1 1:-0.859 2:-0.061 3:-0.425 4:12.766 
1 1:-0.808 2:-0.058 3:-1.029 4:50.282 
1 1:-0.265 2:-0.77 3:-0.512 4:0 
1 1:-0.184 2:0.243 3:-1.237 4:0 
0.6588834242391503 1:-2.027 2:1.204 3:-0.313 4:62.531 
1 1:-1.364 2:-0.928 3:-0.872 4:56.099 
1 1:0.113 2:0.645 3:-1.743 4:0 
1 1:-1.511 2:-0.252 3:-0.315 4:23.423 
1 1:-0.552 2:-0.207 3:-0.088 4:46.119 
1 1:-2.633 2:-0.076 3:-1.636 4:17.686 
1 1:-2.105 2:0.333 3:-2.21 4:25.115 
1 1:-0.458 2:0.799 3:0.054 4:27.19 
1 1:-1.668 2:1.54 3:-1.591 4:17.279 
1 1:-1.765 2:0.675 3:-0.011 4:21.925 
1 1:-1.235 2:0.623 3:-0.325 4:27.19 
0.079954832127451 1:-0.864 2:6.472 3:-3.076 4:4.057 
1 1:-0.79 2:0.01 3:0.347 4:28.185 
1 1:-1.339 2:0.376 3:-0.432 4:27.822 
0.6869430086322207 1:-2.371 2:2.422 3:-0.69 4:15.299 
1 1:-1.225 2:0.118 3:0.371 4:18.267 
1 1:-1.516 2:0.937 3:0.675 4:12.557 
1 1:-0.158 2:0.207 3:-1.206 4:0 
1 1:-0.051 2:0.08 3:-0.876 4:0 
0.8816968895351038 1:-2.096 2:2.356 3:-1.037 4:10.29 
1 1:-1.095 2:-0.385 3:0.626 4:18.267 
1 1:-0.318 2:-1.333 3:0.019 4:0 
1 1:-0.319 2:0.043 3:0.355 4:0 
1 1:-0.608 2:0.343 3:-0.695 4:9.268 
1 1:-1.98 2:1.771 3:-1.044 4:7.599 
1 1:-1.246 2:-0.526 3:-1.282 4:16.702 
1 1:-3.619 2:-0.053 3:-1.42 4:20.245 
1 1:-0.94 2:0.474 3:-0.579 4:37.145 
1 1:-1.274 2:-0.734 3:0.831 4:12.363 
1 1:-1.665 2:0.396 3:0.195 4:29.539 
1 1:-1.095 2:0.165 3:-0.469 4:25.864 
1 1:-1.038 2:0.339 3:-0.783 4:17.757 
1 1:-0.824 2:-0.895 3:-0.208 4:12.363 
1 1:-1.147 2:0.113 3:-0.133 4:20.745 
1 1:-3.213 2:1.397 3:-0.196 4:15.753 
0.2027815490456356 1:-0.566 2:0.429 3:-0.198 4:0.667 
1 1:-0.183 2:-0.008 3:-1.533 4:0 
1 1:-2.368 2:0.174 3:-1.104 4:23.125 
1 1:-1.409 2:0.585 3:0.219 4:17.279 
1 1:-0.16 2:0.06 3:-0.773 4:0 
1 1:-0.396 2:0.301 3:0.208 4:2.08 
1 1:-0.785 2:0.183 3:-0.947 4:0 
1 1:-0.856 2:0.439 3:-0.239 4:6.993 
1 1:-3.234 2:0.436 3:-0.595 4:28.46 
1 1:0 2:-0.065 3:-1.937 4:0 
1 1:-1.466 2:0.214 3:0.002 4:30.174 
1 1:-0.28 2:-0.101 3:0.508 4:4.703 
1 1:-0.417 2:0.025 3:0.036 4:4.703 
1 1:-2.751 2:0.591 3:-0.183 4:18.021 
1 1:-1.51 2:1.623 3:-2.485 4:21.368 
1 1:-2.262 2:2.165 3:-0.041 4:10.413 
1 1:-1.076 2:-0.019 3:0.232 4:19.255 
1 1:-0.354 2:1.003 3:-1.237 4:22.226 
1 1:-0.853 2:-1.785 3:0.367 4:19.854 
1 1:0.154 2:0.007 3:-0.989 4:0 
1 1:-0.376 2:-0.065 3:0.149 4:0 
1 1:-2.898 2:1.216 3:-1.065 4:51.167 
1 1:-1.376 2:-0.354 3:-0.654 4:9.82 
1 1:-0.275 2:-0.358 3:0.622 4:9.349 
1 1:-0.955 2:0.214 3:-0.371 4:29.455 
1 1:-2.575 2:1.05 3:-0.394 4:43.452 
1 1:-1.014 2:-1.022 3:0.296 4:17.139 
1 1:-0.459 2:0.022 3:-0.757 4:0 
0.4712926975555873 1:-0.255 2:0.193 3:-0.002 4:6.57 
0.6237990397677912 1:-0.92 2:0.18 3:0.26 4:16.17 
1 1:-2.256 2:0.696 3:-0.678 4:23.297 
1 1:-0.107 2:0.107 3:-0.881 4:0 
1 1:-1.322 2:-0.167 3:-1.231 4:15.293 
1 1:-0.117 2:0.103 3:-1.059 4:0 
1 1:-0.332 2:0.097 3:0.692 4:0 
1 1:-0.666 2:0.249 3:-1.15 4:20.245 
1 1:-3.378 2:-0.025 3:-1.041 4:22.848 
1 1:-1.641 2:-0.12 3:-0.759 4:12.363 
1 1:-0.949 2:0.115 3:0.064 4:0 
1 1:-1.103 2:0.192 3:0.313 4:12.284 
1 1:-0.721 2:0.139 3:-1.518 4:42.129 
1 1:-2.207 2:1.712 3:-2.936 4:14.324 
0.4246814129805202 1:-2.247 2:2.294 3:-2.672 4:21.46 
1 1:-0.963 2:-0.397 3:-0.135 4:29.179 
1 1:-1.156 2:0.077 3:0.032 4:36.375 
1 1:-2.594 2:0.384 3:0.108 4:5.864 
1 1:-2.313 2:0.068 3:-0.259 4:26.153 
1 1:-0.276 2:0.074 3:-0.62 4:0 
1 1:-2.082 2:2.22 3:-2.022 4:15.712 
1 1:-0.245 2:0.093 3:-0.297 4:0 
1 1:-1.086 2:-0.014 3:-0.785 4:18.267 
1 1:-0.327 2:1.087 3:-1.351 4:3.796 
1 1:-0.268 2:-1.41 3:-0.156 4:23.218 
1 1:-0.605 2:0.087 3:0.594 4:0 
1 1:-1.564 2:0.521 3:-0.161 4:29.74 
1 1:-2.347 2:0.066 3:-0.033 4:38.531 
1 1:-1.394 2:0.107 3:-1.073 4:63.089 
1 1:-0.405 2:-1.161 3:-1.188 4:0 
1 1:-0.422 2:-0.023 3:-0.169 4:0 
1 1:-1.095 2:0.072 3:-0.119 4:7.521 
1 1:-1.228 2:0.893 3:-0.671 4:26.197 
1 1:-0.992 2:-0.625 3:-3.415 4:24.561 
1 1:-0.904 2:0.698 3:1.364 4:16.292 
1 1:-2.446 2:2.167 3:0.471 4:5.946 
1 1:-2.41 2:-0.177 3:0.287 4:18.159 
1 1:-0.539 2:0.207 3:-0.012 4:0 
1 1:-2.801 2:1.348 3:-1.067 4:16.777 
1 1:-2.601 2:0.997 3:-0.21 4:16.963 
1 1:-3.085 2:-0.09 3:-0.504 4:54.252 
0.2801118755788869 1:-0.512 2:2.617 3:-3.205 4:13.343 
1 1:-2.429 2:0.039 3:-0.11 4:10.938 
1 1:-1.715 2:0.238 3:-1.561 4:13.343 
1 1:-0.185 2:0.147 3:-0.564 4:0 
1 1:-3.263 2:0.736 3:-0.93 4:22.625 
1 1:-0.273 2:0.599 3:-1.403 4:0 
1 1:-2.683 2:1.606 3:0.177 4:8.374 
1 1:-2.658 2:1.34 3:-1.316 4:9.444 
1 1:-1.062 2:0.067 3:-0.052 4:24.21 
1 1:-0.561 2:0.16 3:0.647 4:0 
1 1:-1.645 2:-0.657 3:-1.531 4:10.576 
1 1:-0.918 2:0.585 3:0.968 4:14.498 
1 1:-0.834 2:0.665 3:0.257 4:4.92 
1 1:-0.236 2:-0.136 3:-0.105 4:6.57 
1 1:-2.007 2:0.591 3:-0.194 4:23.515 
1 1:0.151 2:0.207 3:-0.988 4:13.343 
0.3447825114227313 1:-2.359 2:3.082 3:-0.852 4:11.252 
1 1:-0.871 2:-0.145 3:0.375 4:9.832 
1 1:0.396 2:-0.955 3:1.128 4:5.63 
1 1:-0.383 2:0.059 3:0.466 4:6.57 
1 1:-1.814 2:0.134 3:0.561 4:16.702 
1 1:-0.638 2:1.977 3:-4.029 4:0 
1 1:-0.361 2:-0.066 3:0.639 4:12.215 
1 1:-0.249 2:0.013 3:-1.2 4:0 
1 1:-0.687 2:0.228 3:1.834 4:3.796 
1 1:-0.748 2:0.37 3:-0.565 4:20.568 
1 1:-0.013 2:0.121 3:0.643 4:29.179 
1 1:-0.265 2:0.173 3:0.351 4:6.57 
1 1:-0.161 2:-0.291 3:-0.732 4:0 
1 1:-1.728 2:0.527 3:0.804 4:8.407 
1 1:-0.731 2:0.734 3:1.279 4:4.703 
1 1:-2.741 2:0.741 3:-0.071 4:32.258 
0.4712317772523046 1:-0.075 2:6.546 3:-1.452 4:8.292 
1 1:-1.227 2:0.427 3:1.521 4:11.938 
1 1:-0.097 2:0.083 3:-0.153 4:2.08 
1 1:-1.583 2:-0.046 3:0.375 4:29.931 
1 1:-2.768 2:2.061 3:0.178 4:15.097 
1 1:0 2:0.089 3:1.042 4:0 
1 1:-1.108 2:-0.157 3:0.635 4:13.345 
1 1:-0.433 2:-0.931 3:1.209 4:31.169 
1 1:-0.117 2:-0.837 3:-1.238 4:0 
1 1:-1.433 2:0.3 3:0.482 4:22.913 
1 1:-2.985 2:0.099 3:0.09 4:28.29 
1 1:-1.776 2:0.752 3:0.985 4:16.208 
0.436587016419458 1:-1.395 2:1.218 3:0.311 4:37.733 
1 1:-1.89 2:0.317 3:-0.087 4:19.771 
1 1:-2.054 2:0.162 3:-2.607 4:30.214 
1 1:-0.607 2:-0.282 3:0.12 4:10.413 
1 1:-1.691 2:-0.202 3:0.155 4:16.44 
1 1:-0.578 2:-0.796 3:-0.574 4:10.413 
1 1:-1.388 2:0.748 3:0.445 4:11.594 
1 1:-0.229 2:-1.144 3:-0.953 4:5.399 
1 1:-1.735 2:0.204 3:1.082 4:18.059 
1 1:-1.296 2:0.174 3:-0.386 4:30.996 
1 1:-0.496 2:-0.101 3:-0.604 4:31.173 
1 1:-1.027 2:-0.476 3:0.967 4:10.344 
1 1:-0.272 2:0.943 3:0.13 4:28.185 
1 1:-2.041 2:0.933 3:0.062 4:31.765 
1 1:-0.179 2:0.135 3:-0.71 4:0 
1 1:-1.242 2:0.658 3:1.014 4:9.832 
1 1:-0.902 2:0.661 3:-0.837 4:15.792 
1 1:-0.505 2:-0.312 3:0.524 4:6.57 
1 1:-2.368 2:1.559 3:-0.603 4:20.969 
1 1:-0.635 2:-0.803 3:-0.53 4:13.343 
1 1:-1.773 2:1.403 3:-1.53 4:9.04 
1 1:-0.411 2:-0.145 3:-0.6 4:18.267 
1 1:-0.184 2:0.079 3:0.39 4:6.57 
1 1:-0.311 2:0.257 3:-1.238 4:20.245 
1 1:-2.002 2:-0.124 3:-0.284 4:25.203 
1 1:-0.919 2:2.135 3:-2.762 4:8.708 
1 1:-1.547 2:0.711 3:-0.037 4:6.761 
1 1:0.277 2:-1.212 3:1.575 4:3.78 
1 1:-1.39 2:-0.473 3:-0.231 4:23.339 
0.4606689463774444 1:-0.633 2:-0.237 3:-0.086 4:36.512 
1 1:-1.579 2:0.476 3:-2.293 4:25.167 
0.7970167266681446 1:-0.891 2:0.855 3:-0.627 4:6.858 
1 1:-1.465 2:0.006 3:0.558 4:14.392 
1 1:-0.484 2:0.143 3:0.059 4:8.479 
1 1:-3.201 2:0.637 3:-0.113 4:32.654 
1 1:-0.745 2:1.599 3:-2.145 4:52.106 
1 1:-1.772 2:0.275 3:0.064 4:36.632 
1 1:-0.555 2:0.717 3:-0.975 4:43.008 
1 1:-2.258 2:0.757 3:0.417 4:25.404 
1 1:-0.534 2:-1.137 3:1.298 4:5.63 
1 1:-0.263 2:1.098 3:0.046 4:27.19 
0.6893822138590018 1:-3.283 2:0.223 3:-0.079 4:87.066 
1 1:-1.517 2:4.274 3:-3.917 4:8.292 
1 1:-1.074 2:0.319 3:0.738 4:18.722 
1 1:-2.656 2:1.623 3:0.017 4:41.247 
1 1:-0.881 2:-0.524 3:-3.617 4:0 
1 1:-0.796 2:-0.061 3:0.457 4:15.875 
1 1:-2.136 2:-0.455 3:0.122 4:21.747 
1 1:-0.271 2:0.029 3:-0.159 4:0 
1 1:-1.976 2:0.371 3:0.278 4:38.465 
1 1:-0.905 2:-1.011 3:-0.189 4:21.188 
1 1:-1.003 2:0.714 3:-0.594 4:10.878 
1 1:-1.303 2:0.406 3:-0.479 4:13.345 
0.9538144750946767 1:-0.933 2:1.83 3:-1.435 4:4.703 
1 1:-2.036 2:0.233 3:0.513 4:14.015 
1 1:-1.995 2:0.694 3:-1.837 4:10.821 
1 1:-1.576 2:-0.444 3:-2.316 4:32.058 
1 1:-1.366 2:0.752 3:-0.044 4:11.964 
1 1:-0.495 2:-0.463 3:0.29 4:8.993 
1 1:-0.812 2:-0.348 3:-0.067 4:11.341 
1 1:-0.551 2:0.05 3:-0.586 4:18.077 
1 1:-0.4 2:0.008 3:1.099 4:3.796 
1 1:-0.333 2:0.028 3:0.474 4:0 
1 1:-0.456 2:-0.303 3:1.334 4:6.218 
1 1:-0.201 2:-0.001 3:-0.683 4:25.203 
1 1:-0.759 2:1.193 3:0.802 4:28.099 
1 1:-1.066 2:0.053 3:1.474 4:13.4 
0.4548579713380962 1:-2.578 2:1.833 3:0.225 4:20.587 
1 1:-0.356 2:-0.127 3:-1.069 4:19.255 
1 1:-0.23 2:0.064 3:-0.998 4:0 
1 1:-0.466 2:-0.052 3:-0.62 4:15.307 
1 1:-0.989 2:0.256 3:0.522 4:14.858 
1 1:-1.114 2:0.555 3:0.335 4:36.303 
1 1:-0.822 2:0.197 3:-0.595 4:8.349 
1 1:-0.285 2:0.056 3:-1.506 4:16.292 
1 1:-0.491 2:0.298 3:2.19 4:15.916 
0.8151342406936619 1:-1.593 2:7.244 3:-2.661 4:5.399 
1 1:-0.234 2:0.097 3:0.584 4:5.399 
1 1:-1.153 2:0.342 3:-0.795 4:48.02 
1 1:-0.199 2:0.066 3:-0.515 4:0 
0.5815303955979523 1:-0.158 2:0.482 3:-0.452 4:50.11 
1 1:-0.324 2:0.486 3:-1.928 4:9.924 
1 1:-0.887 2:0.4 3:-0.679 4:15.307 
1 1:-1.422 2:0.092 3:0.694 4:11.639 
1 1:-0.331 2:1.009 3:0.024 4:29.33 
1 1:-0.277 2:-0.237 3:0.023 4:0 
1 1:-2.256 2:0.628 3:-0.164 4:20.81 
1 1:-0.938 2:1.108 3:0.435 4:4.455 
1 1:-0.937 2:0.247 3:0.583 4:29.332 
1 1:-1.687 2:0.704 3:0.074 4:20.067 
1 1:-1.295 2:0.55 3:0.983 4:7.359 
1 1:-0.315 2:-0.172 3:0.754 4:5.284 
1 1:-1.017 2:-0.296 3:-0.56 4:11.722 
1 1:-1.387 2:2.097 3:-1.316 4:16.627 
1 1:0 2:0.077 3:1.512 4:0 
1 1:-0.935 2:0.596 3:-0.651 4:18.708 
1 1:-1.811 2:0.342 3:0.778 4:19.678 
1 1:-0.244 2:0.224 3:0.778 4:4.958 
1 1:-0.435 2:-0.46 3:0.799 4:14.345 
1 1:-2.769 2:0.556 3:-0.682 4:37.164 
1 1:-0.803 2:-1.368 3:-0.08 4:8.479 
1 1:-0.157 2:-0.087 3:-0.173 4:8.689 
1 1:-2.915 2:0.373 3:0.461 4:27.671 
1 1:-0.85 2:0.151 3:0.1 4:16.838 
1 1:-0.124 2:0.067 3:-0.581 4:0 
1 1:-1.905 2:0.997 3:0.235 4:33.648 
1 1:-0.675 2:0.705 3:-0.814 4:33.538 
1 1:0 2:0.226 3:-1.291 4:0 
1 1:-1.551 2:0.333 3:-0.635 4:12.437 
1 1:-1.63 2:-0.014 3:-0.396 4:9.993 
1 1:-0.742 2:-0.074 3:0.023 4:6.57 
1 1:-1.991 2:0.448 3:-0.459 4:8.689 
1 1:-2.873 2:0.313 3:-0.553 4:13.643 
1 1:-1.577 2:0.128 3:1.375 4:24.725 
1 1:-1.56 2:0.217 3:-0.892 4:31.256 
1 1:-2.118 2:-0.109 3:0.388 4:11.387 
1 1:-0.697 2:-0.01 3:0.328 4:26.682 
1 1:-0.473 2:-0.141 3:0.942 4:3.076 
1 1:-0.912 2:-0.031 3:-0.271 4:15.402 
0.4805609849439978 1:-2.826 2:2.732 3:0.33 4:43.463 
1 1:-1.804 2:-0.141 3:-3.28 4:27.898 
1 1:-0.594 2:0.84 3:0.826 4:16.293 
1 1:-1.143 2:0.932 3:0.798 4:4.925 
1 1:-0.739 2:0.386 3:-0.292 4:7.372 
1 1:-0.667 2:-0.65 3:0.69 4:16.17 
1 1:-1.035 2:0.714 3:-1.196 4:5.876 
1 1:-0.032 2:-0.08 3:1.197 4:1.313 
1 1:-1.332 2:0.046 3:0.588 4:6.991 
1 1:-2.19 2:0.225 3:-1.548 4:11.479 
1 1:-0.373 2:-0.38 3:0.052 4:12.816 
1 1:-1.094 2:0.455 3:-0.322 4:32.369 
1 1:-1.486 2:1.715 3:-0.729 4:3.529 
0.316932410864962 1:-1.817 2:1.56 3:1.068 4:9.135 
1 1:-2.69 2:2.217 3:-0.131 4:8.344 
1 1:-0.831 2:0.34 3:0.569 4:17.279 
1 1:-1.268 2:0.425 3:1.035 4:4.932 
1 1:-2.623 2:-0.34 3:-1.155 4:30.144 
1 1:-0.893 2:0.592 3:0.271 4:5.52 
1 1:-1.291 2:0.609 3:0.945 4:10.591 
1 1:-0.129 2:-0.08 3:0.168 4:6.57 
1 1:-0.233 2:-0.137 3:-0.337 4:0 
1 1:-0.953 2:-0.097 3:-0.66 4:22.332 
1 1:-0.011 2:-0.038 3:-1.01 4:0 
1 1:-1.329 2:-0.428 3:0.673 4:12.008 
1 1:-0.223 2:0.383 3:-0.968 4:0 
1 1:0.022 2:0.136 3:-1.602 4:0 
1 1:-0.985 2:1.61 3:0.808 4:26.197 
1 1:-0.283 2:0.032 3:0.521 4:6.57 
1 1:-0.558 2:0.186 3:-0.314 4:8.285 
1 1:-2.478 2:-0.657 3:-0.36 4:25.203 
1 1:-1.737 2:0.686 3:0.362 4:20.755 
1 1:-0.144 2:0.064 3:-0.488 4:0 
1 1:-0.544 2:-0.066 3:0.215 4:12.883 
1 1:-1.173 2:-0.658 3:-0.259 4:10.931 
1 1:-0.817 2:0.478 3:-0.681 4:8.348 
1 1:-0.118 2:0.207 3:-0.914 4:0 
1 1:-1.977 2:0.962 3:0.258 4:5.399 
1 1:-0.424 2:0.393 3:-0.569 4:0 
1 1:-0.299 2:-0.008 3:0.299 4:0 
1 1:-0.115 2:-0.06 3:-0.27 4:0 
1 1:-1.797 2:0.1 3:-0.056 4:37.111 
1 1:-1.332 2:0.75 3:-0.666 4:4.703 
1 1:-2.663 2:0.134 3:-0.035 4:22.314 
1 1:-1.554 2:0.654 3:-0.307 4:18.895 
1 1:-0.17 2:0.126 3:-0.817 4:0 
1 1:-2.118 2:-0.009 3:-0.997 4:31.116 
0.2284693105028963 1:-1.384 2:3.493 3:-2.088 4:26.977 
1 1:-0.442 2:0.236 3:-0.322 4:0 
1 1:-2.26 2:0.478 3:-0.269 4:28.677 
0.6238959618330387 1:-1.276 2:1.014 3:0.721 4:12.59 
1 1:-1.374 2:0.49 3:0.223 4:21.421 
0.06233150514052482 1:-0.569 2:0.196 3:-0.729 4:13.683 
1 1:-0.216 2:-1.04 3:-0.15 4:0 
1 1:-1.591 2:-0.669 3:-0.496 4:21.744 
1 1:0 2:-0.235 3:-0.203 4:0 
1 1:-1.347 2:0.477 3:-0.206 4:17.417 
1 1:-3.091 2:-0.63 3:-1.701 4:22.452 
1 1:-1.81 2:0.496 3:0.652 4:12.806 
1 1:-0.849 2:-0.578 3:-0.178 4:27.022 
1 1:-2.415 2:0.773 3:-0.55 4:16.38 
1 1:-0.882 2:1.217 3:1.065 4:12.008 
1 1:-0.57 2:-0.201 3:-0.632 4:25.203 
1 1:-0.035 2:0.032 3:-1.12 4:0 
1 1:-0.139 2:0.509 3:-1.255 4:0 
1 1:-1.373 2:1.601 3:-1.434 4:6.355 
1 1:-2.374 2:0.413 3:-0.414 4:25.203 
1 1:-2.599 2:2.307 3:1.428 4:7.521 
1 1:-1.202 2:0.463 3:0.577 4:37.625 
1 1:-1.279 2:0.967 3:0.687 4:17.466 
1 1:-0.135 2:-0.317 3:1.064 4:0 
1 1:-0.238 2:8.407 3:-1.312 4:20.245 
0.6679362981382118 1:-0.921 2:1.356 3:-1.771 4:25.203 
1 1:-1.816 2:0.869 3:0.562 4:19.274 
1 1:-1.189 2:0.877 3:1.448 4:18.896 
1 1:-0.374 2:0.36 3:-0.933 4:7.805 
1 1:-1.911 2:0.587 3:1.156 4:34.351 
1 1:-1.656 2:1.45 3:1.402 4:21.304 
1 1:-0.898 2:-0.085 3:0.749 4:24.981 
1 1:-0.222 2:0.147 3:-0.949 4:0 
1 1:-0.152 2:-0.205 3:-1.529 4:0 
1 1:-0.868 2:-0.091 3:-0.16 4:5.887 
1 1:-0.687 2:0.64 3:-1.214 4:40.135 
1 1:-0.697 2:0.911 3:-1.165 4:6.535 
1 1:-1.839 2:0.619 3:1.882 4:10.165 
1 1:-1.481 2:0.565 3:0.509 4:31.991 
1 1:-2.101 2:1.181 3:1.568 4:12.99 
1 1:0.105 2:0.541 3:2.649 4:3.796 
1 1:-1.102 2:2.214 3:-3.641 4:0 
1 1:0.042 2:0.298 3:-1.469 4:10.413 
1 1:-0.98 2:1.018 3:-3.019 4:22.772 
1 1:-1.825 2:1.973 3:-1.232 4:17.03 
1 1:-0.003 2:0.114 3:-0.15 4:3.796 
1 1:-0.316 2:-0.144 3:-1.07 4:0 
1 1:-0.858 2:-0.919 3:-0.244 4:19.787 
1 1:-0.687 2:0.438 3:-1.02 4:5.876 
1 1:-1.533 2:1.537 3:-0.339 4:3.529 
1 1:-0.589 2:0.495 3:-0.837 4:18.267 
1 1:-0.074 2:0.835 3:-3.043 4:0 
1 1:-1.058 2:0.543 3:-0.754 4:24.12 
1 1:-1.008 2:-1.493 3:0.05 4:3.796 
1 1:-0.17 2:0.064 3:-0.425 4:0 
1 1:-0.663 2:0.143 3:-1.052 4:16.318 
1 1:-0.668 2:0.04 3:1.622 4:6.57 
1 1:-2.094 2:1.432 3:-0.542 4:75.996 
1 1:-0.884 2:-0.472 3:0.005 4:4.703 
1 1:-1.607 2:0.322 3:-1.023 4:32.199 
1 1:-0.484 2:0.443 3:-1.153 4:18.267 
1 1:-1.037 2:2.377 3:-3.827 4:0 
1 1:-0.237 2:-0.574 3:-0.349 4:30.287 
1 1:-0.096 2:-0.684 3:0.371 4:0 
1 1:-0.43 2:-1.45 3:-0.528 4:0 
0.1396553494781447 1:-1.732 2:1.13 3:-0.002 4:22.772 
1 1:-0.867 2:0.257 3:-0.077 4:2.201 
1 1:-1.203 2:-0.065 3:-0.744 4:30.887 
1 1:-1.61 2:0.756 3:-1.49 4:50.11 
1 1:-0.598 2:-0.85 3:-0.333 4:39.138 
1 1:-1.001 2:0.512 3:-0.07 4:6.498 
1 1:-0.129 2:-0.412 3:-0.672 4:0 
1 1:-0.584 2:-0.158 3:-0.126 4:33.751 
1 1:-0.587 2:-0.311 3:-0.604 4:18.267 
1 1:-0.334 2:-1.004 3:0.11 4:8.479 
1 1:-1.044 2:1.598 3:0.013 4:28.185 
1 1:-1.056 2:0.992 3:-3.637 4:0 
1 1:-0.828 2:0.969 3:-1.329 4:21.235 
1 1:-0.136 2:0.289 3:-1.598 4:0 
1 1:-0.069 2:0.069 3:-1.059 4:0 
1 1:-1.242 2:0.067 3:-1.925 4:30.287 
1 1:-0.906 2:1.794 3:2.168 4:16.293 
1 1:-0.588 2:0.073 3:-1.252 4:10.413 
1 1:-0.602 2:-0.033 3:0.093 4:29.179 
1 1:-0.34 2:0.114 3:-0.532 4:8.99 
1 1:-0.576 2:-0.115 3:0.417 4:7.521 
1 1:-1.639 2:0.322 3:0.229 4:31.169 
1 1:-0.412 2:-0.085 3:-0.898 4:0 
1 1:-0.04 2:-0.289 3:-0.381 4:0 
1 1:-0.678 2:0.204 3:0.011 4:0 
1 1:-0.677 2:-0.664 3:0.695 4:28.869 
1 1:-0.64 2:-0.084 3:-0.124 4:20.491 
1 1:-0.98 2:-0.269 3:-0.358 4:43.126 
0.7555074914936405 1:-0.111 2:8.126 3:-1.474 4:10.012 
1 1:-0.464 2:0.318 3:0.06 4:5.614 
1 1:-1.542 2:0.23 3:0.216 4:37.092 
1 1:-0.929 2:0.005 3:-5.08 4:13.343 
1 1:0 2:-0.478 3:0.337 4:0 
1 1:-0.398 2:0.089 3:2.516 4:4.703 
1 1:-0.264 2:0.195 3:-1.097 4:16.292 
1 1:-0.181 2:0.112 3:-0.889 4:26.111 
1 1:-0.858 2:0.718 3:-0.544 4:20.871 
1 1:-0.25 2:0.136 3:-1.141 4:0 
1 1:-1.305 2:0.927 3:1.177 4:7.521 
1 1:-1 2:0.17 3:0.408 4:9.444 
1 1:-1.32 2:1.009 3:0.111 4:11.366 
1 1:-0.884 2:0.77 3:-2.061 4:42.995 
1 1:-0.334 2:-0.044 3:0.98 4:9.697 
1 1:-0.541 2:0.477 3:1.032 4:16.901 
1 1:-0.364 2:-1.079 3:0.159 4:8.479 
1 1:-0.317 2:0.461 3:0.851 4:27.19 
1 1:-0.589 2:0.256 3:-1.513 4:21.235 
1 1:-0.089 2:0.387 3:-1.666 4:0 
1 1:-0.026 2:0.185 3:-1.26 4:0 
1 1:-0.275 2:0.148 3:0.018 4:3.529 
1 1:-1.204 2:0.434 3:-0.816 4:8.689 
1 1:-0.737 2:0.787 3:-2.894 4:16.17 
1 1:0 2:0.044 3:-1.157 4:0 
1 1:-0.235 2:0.265 3:-0.48 4:4.371 
1 1:-0.874 2:0.293 3:0.701 4:2.917 
1 1:-2.461 2:-0.002 3:-0.277 4:17.209 
1 1:-0.015 2:-0.278 3:-0.497 4:0 
1 1:-0.744 2:-0.677 3:0.135 4:15.954 
1 1:-0.576 2:0.245 3:-0.264 4:34.156 
1 1:-0.311 2:0.505 3:0.325 4:3.796 
1 1:-1.369 2:0.165 3:-0.539 4:31.149 
1 1:-1.696 2:0.327 3:-0.347 4:43.994 
1 1:-2.104 2:0.004 3:0.606 4:29.125 
1 1:-0.421 2:-0.038 3:-0.656 4:35.848 
1 1:-0.513 2:0.557 3:-1.302 4:17.279 
1 1:-0.267 2:-0.699 3:0.157 4:0 
1 1:-0.302 2:-1.075 3:-0.136 4:35.164 
1 1:0 2:-0.455 3:0.325 4:0 
1 1:-0.23 2:-0.486 3:0.228 4:0 
1 1:-2.416 2:0.372 3:0.593 4:57.733 
1 1:-0.133 2:0.102 3:-0.906 4:0 
1 1:-1.254 2:0.497 3:-0.273 4:56.882 
1 1:-0.468 2:0.037 3:0.253 4:29.174 
1 1:-0.283 2:0.151 3:1.902 4:4.171 
1 1:-1.804 2:0.485 3:0.256 4:20.177 
1 1:-2.432 2:0.737 3:-0.501 4:16.226 
1 1:0.102 2:-0.108 3:-0.064 4:2.08 
1 1:-1.407 2:0.222 3:0.313 4:10.384 
1 1:-1.065 2:1.014 3:0.369 4:29.179 
1 1:-0.791 2:0.219 3:0.007 4:0 
1 1:-0.555 2:-0.061 3:-0.363 4:14.324 
1 1:-0.722 2:0.264 3:0.155 4:8.563 
1 1:-0.533 2:0.18 3:-0.376 4:0 
1 1:-0.455 2:0.285 3:0.425 4:27.19 
1 1:-0.24 2:-0.55 3:-0.45 4:10.413 
1 1:-0.642 2:0.839 3:-1.246 4:21.235 
1 1:-0.174 2:0.231 3:-1.112 4:0 
1 1:-1.417 2:0.721 3:-0.482 4:6.134 
1 1:-1.444 2:0.146 3:1.066 4:12.008 
1 1:-0.814 2:-0.976 3:-2.361 4:10.087 
1 1:-1.368 2:0.214 3:0.5 4:12.363 
1 1:0.121 2:0.075 3:-1.234 4:0 
1 1:-0.377 2:0.136 3:0.083 4:0 
1 1:-0.467 2:-0.442 3:0.037 4:24.583 
1 1:-0.275 2:-1.208 3:0.967 4:10.676 
1 1:-0.547 2:-0.03 3:1.727 4:5.287 
1 1:-1.418 2:0.925 3:0.585 4:16.878 
1 1:0.142 2:-1.293 3:-0.164 4:1.786 
1 1:-1.224 2:-0.784 3:0.393 4:27.506 
1 1:-0.658 2:0.648 3:1.422 4:14.821 
1 1:-0.846 2:0.025 3:0.404 4:20.839 
1 1:-1.801 2:0.255 3:0.643 4:43.643 
1 1:-0.545 2:-0.03 3:-0.08 4:6.727 
1 1:-1.245 2:-0.434 3:-0.156 4:50.823 
1 1:-0.344 2:-0.498 3:0.372 4:3.796 
1 1:-0.627 2:0.007 3:-1.708 4:25.717 
0.6277578766301447 1:-1.369 2:0.993 3:-2.21 4:25.634 
1 1:-0.089 2:0.012 3:0.214 4:6.57 
1 1:-0.755 2:-0.267 3:-0.037 4:18.526 
1 1:-0.035 2:-0.46 3:-0.037 4:12.215 
1 1:-0.943 2:-1.069 3:-0.675 4:14.324 
1 1:-0.719 2:0.271 3:0.432 4:8.779 
1 1:-0.232 2:0.232 3:-0.737 4:0 
1 1:-1.354 2:-0.158 3:-0.433 4:16.013 
1 1:-0.524 2:-0.243 3:0.29 4:15.471 
1 1:-0.656 2:0.066 3:-0.636 4:9.661 
1 1:-0.346 2:-1.043 3:0.618 4:10.413 
1 1:-0.396 2:0.242 3:-0.356 4:0 
1 1:-0.162 2:0.007 3:-1.008 4:0 
1 1:-1.116 2:0.498 3:-1.576 4:34.156 
1 1:0.092 2:0.065 3:-1.322 4:0 
1 1:-1.236 2:0.585 3:-0.095 4:12.091 
1 1:-0.595 2:0.44 3:0.686 4:4.703 
1 1:-2.041 2:0.501 3:0.351 4:66.117 
1 1:-0.579 2:0.077 3:-0.274 4:3.796 
1 1:-0.903 2:0.421 3:0.683 4:21.656 
1 1:-0.085 2:0.002 3:-0.627 4:0 
1 1:-2.337 2:1.368 3:-1.369 4:53.756 
1 1:-1.363 2:-0.322 3:-0.101 4:19.024 
1 1:-0.773 2:0.35 3:1.118 4:17.243 
1 1:-0.284 2:0.057 3:-0.158 4:0 
1 1:-2.743 2:2.953 3:0.218 4:12.397 
1 1:-0.65 2:-0.087 3:0.973 4:14.717 
1 1:-0.917 2:0.883 3:0.342 4:29.179 
1 1:-2.56 2:2.545 3:0.404 4:39.138 
1 1:-0.166 2:0.223 3:-0.907 4:0 
1 1:-0.274 2:-0.492 3:-0.814 4:0 
1 1:-0.067 2:-0.816 3:0.319 4:19.255 
1 1:-1.484 2:0.48 3:0.592 4:21.235 
0.9763229454803232 1:-3.045 2:0.063 3:-1.961 4:29.669 
1 1:-0.999 2:1.671 3:0.172 4:28.185 
1 1:-1.668 2:0.499 3:0.46 4:33.467 
1 1:-0.809 2:0.675 3:0.013 4:0 
1 1:-1.32 2:0.463 3:0.081 4:50.526 
1 1:-0.058 2:-0.111 3:-0.44 4:0 
1 1:-0.199 2:-1.21 3:-0.255 4:8.479 
1 1:-1.194 2:-0.032 3:-1.913 4:12.708 
1 1:-0.616 2:-0.119 3:-0.189 4:13.216 
1 1:-0.225 2:-0.514 3:0.178 4:0 
1 1:-1.994 2:0.672 3:0.232 4:13.909 
1 1:-2.093 2:0.729 3:-0.252 4:42.353 
1 1:-1.981 2:0.26 3:0.823 4:22.782 
1 1:-0.687 2:-1.017 3:-0.112 4:11.377 
1 1:-2.142 2:1.235 3:0.222 4:27.424 
1 1:-0.092 2:-0.317 3:0.074 4:12.363 
1 1:-0.276 2:-0.068 3:-1.087 4:0 
1 1:-1.481 2:0.115 3:-0.902 4:13.781 
1 1:-0.131 2:-1.372 3:-0.216 4:13.343 
0.7393409576935471 1:-1.634 2:1.675 3:-1.772 4:12.292 
1 1:-0.585 2:0.678 3:-0.99 4:17.279 
1 1:-0.188 2:0.029 3:0.516 4:6.57 
1 1:-0.241 2:0.13 3:-0.402 4:0 
1 1:-0.495 2:0.298 3:-1.361 4:13.345 
1 1:-2.797 2:0.057 3:-0.837 4:19.927 
1 1:-0.163 2:-0.183 3:-0.79 4:35.152 
1 1:-0.341 2:-0.15 3:-0.81 4:0 
1 1:-1.813 2:0.647 3:-0.532 4:35.152 
1 1:-1.069 2:1.624 3:-4.534 4:0 
1 1:-0.804 2:-0.34 3:1.154 4:28.185 
1 1:-1.527 2:1.025 3:-0.705 4:9.268 
1 1:-2.506 2:-1.474 3:-3.649 4:16.292 
0.3569534334385361 1:-0.192 2:0.3 3:-0.834 4:0 
1 1:-0.459 2:-0.57 3:0.027 4:46.119 
1 1:0.12 2:-0.1 3:0.92 4:5.63 
1 1:0 2:0.041 3:-0.756 4:0 
1 1:-1.457 2:0.397 3:-0.139 4:29.253 
1 1:-2.331 2:-0.384 3:-0.087 4:26.052 
1 1:-0.799 2:-0.336 3:0.264 4:28.183 
1 1:-0.226 2:-0.153 3:-1.121 4:0 
1 1:-2.256 2:-0.353 3:0.007 4:21.248 
1 1:-0.14 2:0.031 3:0.234 4:7.829 
1 1:-1.462 2:-0.163 3:0.788 4:15.179 
1 1:-1.716 2:-0.286 3:0.705 4:18.034 
1 1:-2.138 2:1.581 3:-1.391 4:8.287 
1 1:-0.013 2:0.522 3:-2.306 4:0 
1 1:-1.785 2:0.04 3:-0.13 4:26.51 
1 1:-1.111 2:-0.017 3:0.4 4:14.417 
1 1:-1.297 2:0.608 3:0.362 4:16.878 
1 1:-0.54 2:0.068 3:0.055 4:0 
1 1:0 2:-0.473 3:0.106 4:0 
1 1:-0.233 2:0.105 3:1.268 4:0 
1 1:-1.8 2:0.673 3:0.612 4:16.495 
0.4206781893221201 1:-0.603 2:6.022 3:-2.938 4:2.051 
1 1:-1.839 2:0.64 3:0.976 4:24.954 
1 1:-2.26 2:1.413 3:-0.94 4:9.332 
1 1:-0.055 2:0.098 3:-0.869 4:0 
1 1:-1.24 2:0.206 3:0.367 4:8.292 
1 1:-0.598 2:0.46 3:-0.964 4:6.305 
1 1:-0.502 2:0.03 3:-0.006 4:7.49 
1 1:-1.043 2:1.761 3:-1.238 4:16.293 
1 1:-2.38 2:-0.263 3:-2.821 4:18.267 
1 1:-0.432 2:0.257 3:1.049 4:11.387 
0.7171936483723557 1:-1.616 2:1.095 3:0.669 4:14.039 
1 1:-1.473 2:0.794 3:-0.799 4:23.344 
1 1:-1.951 2:1.183 3:-2.087 4:11.722 
1 1:-0.269 2:0.147 3:0.905 4:12.729 
1 1:-1.478 2:0.634 3:0.522 4:21.368 
1 1:-1.395 2:0.223 3:0.186 4:26.678 
1 1:-0.955 2:0.464 3:0.579 4:19.643 
1 1:-0.835 2:0.324 3:-0.234 4:21.058 
1 1:-0.382 2:0.049 3:0.827 4:12.152 
1 1:-1.007 2:-0.036 3:0.584 4:12.321 
1 1:-1.266 2:-0.159 3:-0.35 4:10.413 
1 1:-1.596 2:0.097 3:0.631 4:6.611 
1 1:-0.498 2:0.682 3:1.741 4:7.77 
1 1:-1.984 2:0.902 3:-0.738 4:10.332 
0.01160001101005998 1:-0.166 2:7.289 3:-1.758 4:0 
1 1:-0.364 2:-0.379 3:0.524 4:36.849 
1 1:-1.347 2:2.287 3:-0.891 4:2.376 
1 1:-1.597 2:0.212 3:-0.218 4:45.951 
1 1:-0.65 2:0.428 3:0.206 4:7.761 
1 1:-0.92 2:0.028 3:-0.442 4:15.848 
1 1:-0.042 2:0.009 3:-0.968 4:0 
1 1:-0.607 2:-0.189 3:-0.724 4:18.267 
1 1:0.074 2:0.287 3:-1.459 4:0 
1 1:0.074 2:-0.533 3:-1.759 4:0 
1 1:-0.212 2:0.047 3:-0.214 4:0 
1 1:-1.893 2:0.319 3:-0.023 4:18.936 
1 1:-0.619 2:0.02 3:2.156 4:0 
1 1:-1.142 2:-0.34 3:-0.123 4:13.866 
1 1:-0.889 2:0.411 3:-0.524 4:50.11 
1 1:-0.236 2:-0.548 3:0.068 4:15.912 
0.9094638465699761 1:-2.345 2:1.31 3:-0.528 4:39.6 
1 1:-0.993 2:-0.595 3:-0.462 4:27.809 
1 1:-2.121 2:0.103 3:0.577 4:16.343 
1 1:-1.078 2:0.323 3:-2.33 4:9.757 
1 1:-0.458 2:-0.575 3:-0.328 4:12.397 
1 1:-0.54 2:0.415 3:1.744 4:0 
1 1:-1.802 2:0.028 3:-0.07 4:14.983 
1 1:-1.008 2:-0.374 3:-0.201 4:21.135 
1 1:-1.039 2:3.887 3:-4.759 4:12.363 
1 1:-1.534 2:0.695 3:0.356 4:16.61 
1 1:-0.691 2:0.222 3:0.288 4:38.141 
1 1:-1.723 2:-0.263 3:-0.358 4:36.675 
0.154965118864065 1:-0.964 2:6.631 3:-3.232 4:13.343 
1 1:-0.835 2:-0.049 3:0.65 4:0 
1 1:-0.984 2:0.526 3:-0.059 4:2.08 
1 1:-2.123 2:0.487 3:-1.171 4:38.432 
1 1:-2.291 2:1.694 3:-4.175 4:9.934 
1 1:-0.858 2:-0.45 3:0.177 4:22.226 
1 1:-0.541 2:0.189 3:1.184 4:0 
1 1:-1.249 2:0.283 3:-1.688 4:26.332 
0.867719899845982 1:-0.418 2:5.163 3:-1.994 4:25.203 
1 1:-2.012 2:1.553 3:-0.83 4:15.128 
1 1:-1.679 2:1.197 3:-2.602 4:38.042 
1 1:-0.042 2:0.046 3:-1.168 4:0 
1 1:-0.201 2:0.166 3:-0.861 4:0 
1 1:-0.898 2:-0.124 3:-0.643 4:17.427 
1 1:-0.838 2:-0.252 3:-0.992 4:32.721 
1 1:-1.099 2:-0.053 3:-0.791 4:11.308 
1 1:-0.453 2:0.317 3:-1.047 4:16.292 
1 1:-0.253 2:-0.009 3:0.49 4:4.171 
1 1:-0.652 2:0.112 3:1.163 4:13.343 
1 1:-1.247 2:0.929 3:-0.796 4:15.554 
1 1:-0.357 2:-0.369 3:-0.082 4:0 
1 1:0.069 2:0.213 3:-1.208 4:0 
1 1:-0.27 2:0.043 3:1.4 4:6.57 
1 1:-0.589 2:0.254 3:0.121 4:8.285 
1 1:-1.897 2:0.312 3:-0.238 4:16.734 
0.0145797024052644 1:-3.108 2:0.78 3:-0.886 4:23.036 
0.6748244613788209 1:-1.657 2:1.545 3:0.574 4:6.378 
1 1:-0.415 2:-0.013 3:0.251 4:0 
1 1:-1.134 2:0.874 3:-0.6 4:17.279 
1 1:-0.8 2:-0.694 3:0.27 4:17.563 
1 1:-2.236 2:-0.214 3:1.009 4:34.303 
1 1:-1.242 2:-0.181 3:-0.073 4:7.038 
0.4263360414485249 1:-1.493 2:0.791 3:0.361 4:32.164 
1 1:0 2:-0.997 3:0.746 4:0 
1 1:-1.48 2:0.042 3:0.555 4:31.374 
1 1:-1.406 2:0.533 3:0.295 4:10.931 
1 1:-1.704 2:0.262 3:-0.762 4:41.281 
0.1845293146940314 1:-1.927 2:4.912 3:-2.872 4:13.343 
1 1:-1.775 2:0.908 3:-1.024 4:12.185 
1 1:-1.044 2:-0.006 3:0.259 4:35.172 
1 1:-0.948 2:0.521 3:-0.365 4:29.904 
1 1:-1.255 2:0.107 3:-0.709 4:21.449 
1 1:-0.832 2:0.691 3:-1.645 4:18.896 
1 1:-1.009 2:0.187 3:-0.019 4:20.245 
0.9961676070273151 1:-2.009 2:1.594 3:0.695 4:20.001 
1 1:-1.648 2:0.218 3:-0.107 4:14.266 
1 1:-1.406 2:-0.555 3:-0.012 4:9.42 
1 1:-1.823 2:0.72 3:-1.657 4:13.923 
1 1:-0.422 2:0.058 3:-0.043 4:0 
1 1:-0.212 2:-0.009 3:-0.13 4:0 
1 1:-0.176 2:-0.052 3:-0.803 4:0 
1 1:-1.811 2:1.595 3:-1.566 4:20.297 
1 1:-0.518 2:-0.616 3:-0.976 4:18.267 
1 1:0.255 2:0.266 3:-1.512 4:0 
1 1:0.106 2:-0.096 3:-1.61 4:0 
1 1:-0.664 2:-1.565 3:0.188 4:26.197 
1 1:-0.111 2:0.209 3:-1.416 4:0 
1 1:-2.047 2:2.134 3:-1.326 4:14.324 
1 1:-2.749 2:0.302 3:-1.146 4:25.203 
1 1:-0.803 2:0.853 3:-1.714 4:7.521 
1 1:-0.301 2:-1.196 3:-0.341 4:7.805 
1 1:-0.631 2:-0.107 3:-0.117 4:0 
1 1:-1.14 2:1.17 3:-1.603 4:26.197 
1 1:-0.505 2:-0.121 3:-1.891 4:0 
1 1:-0.413 2:0.03 3:-0.275 4:0 
1 1:-2.405 2:0.653 3:1.133 4:8.479 
1 1:-1.323 2:0.209 3:-0.377 4:22.226 
1 1:-1.852 2:1.27 3:-0.174 4:8.479 
1 1:-1.5 2:-0.139 3:-0.451 4:15.122 
1 1:-0.576 2:0.062 3:-1.251 4:18.267 
1 1:-0.219 2:0.052 3:-0.841 4:0 
1 1:-0.873 2:0.313 3:-1.482 4:14.815 
1 1:-2.518 2:0.906 3:-2.501 4:21.235 
1 1:-0.469 2:0.157 3:-0.006 4:0 
1 1:-1.476 2:-0.741 3:-0.325 4:28.561 
0.7032233286358637 1:-2.633 2:1.235 3:-0.235 4:26.197 
1 1:-1.715 2:-0.295 3:-0.618 4:24.092 
0.2990006620557972 1:-0.3 2:2.964 3:-2.312 4:32.164 
1 1:-1.255 2:0.23 3:-0.214 4:22.265 
1 1:-0.726 2:-0.018 3:-0.891 4:0 
1 1:-1.906 2:-0.737 3:-0.034 4:47.349 
1 1:-0.922 2:-0.809 3:-0.66 4:11.163 
1 1:-0.318 2:0.102 3:-0.63 4:0 
1 1:-0.439 2:0.16 3:0.066 4:0 
1 1:-2.31 2:1.221 3:-0.72 4:23.037 
1 1:-1.75 2:1.242 3:-3.333 4:32.164 
1 1:-0.319 2:0.117 3:-0.089 4:0 
1 1:-1.144 2:0.267 3:0.186 4:33.16 
1 1:-0.034 2:0.062 3:-1.408 4:0 
1 1:-0.06 2:0.324 3:-1.659 4:0 
1 1:-0.893 2:0.795 3:-0.648 4:1.313 
1 1:-1.303 2:-0.301 3:-0.176 4:32.576 
0.4775893543916171 1:-0.816 2:2.538 3:-2.057 4:37.145 
1 1:-0.574 2:-1.023 3:-0.898 4:18.267 
1 1:-1.517 2:-0.653 3:0.327 4:14.686 
1 1:-0.262 2:-0.046 3:-0.547 4:0 
1 1:-3.117 2:0.056 3:-0.581 4:36.471 
1 1:-0.97 2:0.068 3:-1.008 4:39.138 
1 1:-0.207 2:0.026 3:1.047 4:0 
1 1:-2.374 2:0.613 3:-0.096 4:9.433 
1 1:-2.01 2:0.085 3:-1.175 4:28.15 
1 1:-0.815 2:0.736 3:-0.848 4:10.676 
1 1:-0.236 2:-0.088 3:-0.065 4:6.57 
1 1:-2.006 2:0.927 3:-0.877 4:15.592 
1 1:-0.255 2:-0.038 3:-0.54 4:13.343 
1 1:-1.259 2:0.373 3:-0.628 4:17.279 
1 1:-1.634 2:0.097 3:1.53 4:18.267 
1 1:-0.181 2:0.043 3:0.651 4:6.57 
1 1:-0.643 2:0.392 3:0.126 4:7.467 
1 1:-2.638 2:0.135 3:-0.729 4:20.656 
1 1:-0.954 2:-0.395 3:0.125 4:12.925 
1 1:-0.253 2:-0.07 3:-0.264 4:11.663 
1 1:-2.487 2:1.263 3:-0.033 4:6.837 
1 1:-0.276 2:-0.022 3:0.225 4:0 
1 1:-2.093 2:0.005 3:0.185 4:22.117 
1 1:-1.128 2:0.701 3:1.281 4:16.068 
1 1:-1.799 2:0.348 3:-0.84 4:16.279 
1 1:-1.113 2:0.152 3:0.707 4:13.572 
1 1:-1.243 2:-0.316 3:0.919 4:19.698 
1 1:-0.505 2:-0.177 3:-0.243 4:11.753 
1 1:-0.595 2:-0.233 3:0.143 4:20.335 
1 1:-0.996 2:-0.485 3:0.19 4:41.132 
1 1:-0.229 2:-0.829 3:-0.413 4:0 
1 1:-0.78 2:-0.127 3:-0.026 4:8.858 
1 1:-1.983 2:1.232 3:0.285 4:9.444 
1 1:-0.796 2:0.056 3:-1.048 4:10.413 
1 1:-0.869 2:-0.2 3:0.331 4:11.073 
0.213957562824477 1:-2.372 2:1.549 3:0.142 4:15.709 
1 1:-0.868 2:0.035 3:-0.1 4:9.45 
1 1:-1.492 2:-0.11 3:-0.139 4:27.461 
1 1:-0.756 2:0.026 3:0.705 4:10.556 
0.5049613608519977 1:-2.453 2:1.915 3:-0.186 4:49.112 
1 1:-0.282 2:0.049 3:0.24 4:0 
1 1:-0.399 2:-0.04 3:0.773 4:18.181 
1 1:-1.138 2:-0.801 3:0.308 4:21.203 
1 1:-0.591 2:0.387 3:-0.205 4:5.401 
1 1:-0.845 2:0.334 3:0.239 4:30.174 
1 1:0 2:-1.341 3:0.537 4:0 
1 1:-2.382 2:1.536 3:-0.644 4:15.838 
1 1:-1.74 2:1.062 3:-1.928 4:39.067 
1 1:-0.535 2:0.147 3:0.577 4:14.537 
1 1:-1.909 2:-0.02 3:0.618 4:34.156 
1 1:-1.782 2:1.248 3:-0.456 4:10.44 
1 1:-0.476 2:0.411 3:-1.025 4:12.101 
1 1:-0.945 2:0.094 3:-0.293 4:5.399 
1 1:-1.409 2:0.487 3:0.709 4:15.098 
1 1:-2.262 2:0.079 3:1.249 4:12.028 
1 1:-0.338 2:-0.141 3:-0.274 4:6.57 
1 1:-2.738 2:1.116 3:0.318 4:14.545 
1 1:-0.633 2:-0.375 3:1.03 4:13.343 
1 1:-2.022 2:1.846 3:-1.549 4:12.019 
1 1:-2.516 2:-0.333 3:0.233 4:16.825 
1 1:-1.24 2:-0.547 3:0.345 4:13.666 
1 1:0 2:0.203 3:-1.011 4:0 
1 1:-0.306 2:-0.764 3:0.424 4:5.63 
1 1:-1.208 2:-0.324 3:0.813 4:9.377 
1 1:-0.283 2:-0.004 3:1.388 4:6.57 
1 1:-1.704 2:0.74 3:-0.995 4:14.853 
1 1:-3.317 2:0.354 3:0.086 4:23.71 
1 1:-0.445 2:0.27 3:-0.214 4:5.63 
1 1:-0.181 2:0.604 3:0.607 4:3.529 
1 1:-0.517 2:0.304 3:0.659 4:2.917 
1 1:-2.185 2:0.303 3:0.398 4:14.898 
1 1:-1.21 2:-1.13 3:-0.25 4:13.733 
1 1:-2.718 2:-0.115 3:-0.605 4:24.836 
1 1:-0.099 2:-0.117 3:1.854 4:5.201 
1 1:-2.447 2:0.717 3:0.041 4:7.309 
1 1:-1.507 2:-0.035 3:-0.01 4:46.488 
0.4419016762450078 1:-2.47 2:2.062 3:0.373 4:35.152 
0.692385268225797 1:-1.687 2:0.676 3:0.085 4:42.905 
1 1:-0.395 2:0.075 3:0.195 4:6.837 
1 1:-0.33 2:0.036 3:0.642 4:0 
1 1:-2.412 2:-0.115 3:-0.21 4:30.806 
1 1:-0.422 2:-0.68 3:-0.337 4:10.792 
1 1:-1.926 2:-0.056 3:-0.528 4:13.59 
1 1:-0.419 2:0.39 3:1.285 4:9.203 
1 1:-1.873 2:0.136 3:-0.46 4:44.648 
1 1:-0.189 2:-0.521 3:0.873 4:8.479 
1 1:-1.345 2:-0.015 3:-0.38 4:25.092 
1 1:-0.351 2:-1.129 3:-0.59 4:25.203 
1 1:-1.031 2:0.344 3:0.262 4:10.964 
1 1:0.011 2:-1.825 3:0.466 4:31.169 
1 1:-2.665 2:0.178 3:0.309 4:19.687 
1 1:-1.693 2:0.095 3:0.641 4:24.21 
1 1:-2.508 2:-0.4 3:-0.127 4:8.776 
1 1:-2.067 2:0.396 3:0.053 4:9.475 
1 1:-1.318 2:-0.518 3:0.006 4:27.064 
1 1:-2.516 2:0.18 3:0.463 4:41.418 
1 1:-1.582 2:0.363 3:-0.032 4:9.444 
1 1:-1.988 2:-0.853 3:-0.314 4:17.28 
1 1:-2.42 2:-0.171 3:-2.353 4:27.476 
1 1:-1.56 2:-0.399 3:0.189 4:8.28 
1 1:-0.833 2:-0.167 3:-0.71 4:8.541 
1 1:-1.27 2:-0.282 3:-0.509 4:16.292 
1 1:-0.686 2:-0.171 3:1.364 4:9.203 
1 1:-0.27 2:0.119 3:-0.547 4:0 
1 1:-1.228 2:0.63 3:-0.632 4:6.436 
1 1:-2.926 2:0.118 3:-2.756 4:19.047 
1 1:-0.541 2:-0.012 3:0.319 4:19.876 
1 1:-0.988 2:0.15 3:-0.04 4:8.031 
1 1:-1.091 2:-0.964 3:0.113 4:11.274 
1 1:-2.73 2:1.022 3:-0.425 4:43.252 
1 1:-0.919 2:-1.155 3:-0.195 4:35.152 
1 1:-2.096 2:0.219 3:0.699 4:33.998 
1 1:-2.8 2:0.782 3:-0.542 4:21.514 
1 1:-0.378 2:0.152 3:-0.385 4:0 
1 1:-0.441 2:0.195 3:0.626 4:0 
1 1:-1.53 2:0.323 3:-0.556 4:16.702 
1 1:-0.229 2:-0.151 3:-0.937 4:0 
1 1:-2.034 2:0.284 3:0.451 4:14.815 
1 1:0 2:-0.998 3:0.446 4:0 
1 1:-2.893 2:0.019 3:-0.725 4:18.15 
1 1:-0.492 2:0.139 3:0.196 4:9.304 
1 1:-1.225 2:-0.324 3:-0.287 4:25.845 
1 1:-0.122 2:-0.852 3:-0.931 4:0 
1 1:-0.455 2:0.012 3:-0.723 4:0 
1 1:-0.302 2:-0.259 3:-0.239 4:0 
1 1:-1.525 2:-0.368 3:0.74 4:13.463 
1 1:-2.743 2:2.383 3:1.316 4:9.444 
1 1:-0.451 2:-0.333 3:0.243 4:58.096 
1 1:-0.291 2:-0.406 3:-0.895 4:0 
1 1:-0.362 2:-0.498 3:-0.312 4:0 
1 1:-1.67 2:0.271 3:-0.667 4:28.469 
1 1:-1.342 2:0.097 3:-0.319 4:28.975 
0.7550106333215029 1:-0.436 2:-0.028 3:-0.047 4:12.827 
1 1:-0.243 2:-0.216 3:-1.055 4:0 
1 1:-1.613 2:1.12 3:0.541 4:22.976 
1 1:-0.456 2:-0.619 3:-0.384 4:12.456 
1 1:-0.303 2:-0.68 3:0.183 4:0 
1 1:-2.464 2:1.179 3:-2.396 4:17.375 
1 1:-0.698 2:0.081 3:-0.319 4:0 
1 1:-0.763 2:0.223 3:0.213 4:39.26 
1 1:-0.698 2:0.265 3:0.346 4:11.387 
1 1:-1.013 2:0.499 3:0.751 4:16.051 
1 1:-0.419 2:-0.251 3:0.494 4:19.784 
1 1:-0.802 2:0.014 3:-0.989 4:9.444 
1 1:-0.011 2:0.013 3:-0.07 4:2.08 
1 1:-1.424 2:0.24 3:0.42 4:16.17 
1 1:-1.164 2:0.059 3:-1.849 4:18.267 
1 1:-2.944 2:0.686 3:-0.457 4:26.697 
1 1:-2.172 2:1.825 3:0.848 4:7.901 
1 1:-0.856 2:0.964 3:1.282 4:3.796 
1 1:-2.472 2:3.59 3:0.365 4:3.556 
1 1:-0.929 2:0.622 3:0.494 4:5.588 
1 1:-1.286 2:-0.118 3:1.212 4:14.294 
1 1:-0.375 2:-0.199 3:0.234 4:6.068 
1 1:-0.233 2:-0.103 3:-0.652 4:13.343 
1 1:-0.765 2:0.954 3:-1.578 4:12.215 
1 1:-0.055 2:0.366 3:0.868 4:3.556 
1 1:-0.118 2:0.216 3:0.809 4:5.803 
1 1:-0.817 2:-0.046 3:0.929 4:12.816 
1 1:-0.755 2:1.227 3:-3.228 4:20.245 
1 1:-0.877 2:0.028 3:1.016 4:10.725 
1 1:-2.008 2:0.649 3:0.411 4:42.657 
1 1:0.099 2:0.378 3:1.962 4:5.005 
1 1:-1.097 2:0.836 3:0.306 4:6.724 
1 1:-2.637 2:-0.102 3:0.083 4:23.522 
1 1:-0.49 2:0.133 3:0.735 4:10.08 
1 1:-0.953 2:0.785 3:0.842 4:4.171 
1 1:-0.79 2:0.88 3:0.393 4:4.534 
1 1:-1.016 2:-0.382 3:0.597 4:13.783 
1 1:-0.986 2:-0.23 3:-0.425 4:0 
1 1:-0.689 2:-0.927 3:-1.389 4:6.57 
1 1:-0.243 2:0.039 3:0.955 4:8.324 
1 1:-1.72 2:0.789 3:1 4:16.17 
1 1:-1.235 2:0.088 3:-0.202 4:14.999 
1 1:-0.447 2:0.043 3:0.477 4:1.396 
1 1:-2.638 2:0.519 3:0.353 4:14.647 
1 1:-2.168 2:0.271 3:1.041 4:43.972 
1 1:-1.526 2:0.194 3:0.336 4:13.592 
1 1:-0.686 2:0.208 3:-0.662 4:19.691 
1 1:-2.074 2:1.811 3:-3.008 4:15.293 
1 1:-0.316 2:0.608 3:1.547 4:0 
1 1:-0.352 2:-0.434 3:0.757 4:14.157 
1 1:-1.416 2:1.529 3:0.623 4:27.19 
1 1:-1.427 2:-0.547 3:-0.579 4:26.009 
1 1:-0.352 2:-0.501 3:-0.831 4:6.57 
1 1:-0.739 2:0.841 3:1.036 4:26.197 
1 1:-1.364 2:0.833 3:0.794 4:20.245 
1 1:-0.397 2:0.242 3:0.542 4:29.179 
1 1:-2.352 2:1.344 3:-0.143 4:13.592 
1 1:-1.489 2:0.483 3:0.141 4:8.594 
1 1:-0.679 2:-0.071 3:0.645 4:40.241 
1 1:-1.548 2:-0.356 3:1.168 4:19.239 
1 1:-0.463 2:0.299 3:0.779 4:6.837 
1 1:-0.104 2:0.183 3:1.611 4:3.796 
1 1:-1.105 2:0.341 3:0.131 4:6.993 
0.9866622667894961 1:-2.526 2:2.317 3:0.399 4:31.339 
1 1:-3.643 2:0.491 3:-2.04 4:16.433 
1 1:-1.088 2:0.095 3:0.452 4:16.482 
1 1:-2.295 2:0.626 3:0.018 4:16.292 
1 1:-2.151 2:-0.124 3:0.436 4:15.4 
1 1:-1.271 2:0.485 3:0.874 4:11.531 
1 1:-0.344 2:-0.081 3:0.578 4:6.57 
1 1:-0.578 2:0.183 3:-0.662 4:25.203 
1 1:-0.037 2:-1.14 3:-0.738 4:13.343 
1 1:0.041 2:-0.098 3:-1.683 4:0 
1 1:-1.057 2:1.743 3:1.16 4:26.197 
1 1:-0.36 2:0.068 3:0.58 4:6.57 
1 1:-1.819 2:-0.053 3:-0.778 4:13.931 
1 1:-0.39 2:0.122 3:-0.892 4:15.307 
1 1:-1.393 2:-0.049 3:-0.505 4:29.504 
0.9706712377449034 1:-0.362 2:0.09 3:0.361 4:30.287 
1 1:-2.372 2:0.317 3:0.184 4:41.594 
1 1:-1.325 2:0.381 3:-1.122 4:31.169 
1 1:-0.39 2:0.364 3:-0.97 4:0 
1 1:-3.688 2:0.153 3:-0.171 4:30.55 
1 1:-1.135 2:-0.477 3:-0.986 4:43.583 
1 1:-2.083 2:1.529 3:1.059 4:13.058 
1 1:-1.686 2:0.576 3:1.23 4:19.293 
1 1:-0.348 2:-0.002 3:-0.633 4:0 
1 1:-0.597 2:-0.861 3:0.488 4:26.191 
1 1:-0.215 2:0.046 3:-0.736 4:0 
1 1:-0.325 2:0.176 3:0.345 4:3.798 
1 1:-0.78 2:0.433 3:0.104 4:8.031 
1 1:-0.272 2:0.051 3:0.109 4:0 
1 1:-1.588 2:0.017 3:-1.683 4:34.183 
1 1:-1.522 2:0.524 3:0.542 4:19.32 
1 1:-0.533 2:0.236 3:-1.13 4:11.418 
1 1:-0.324 2:0.547 3:0.57 4:26.197 
1 1:-0.849 2:0.265 3:0.283 4:9.405 
1 1:-3.475 2:0.424 3:0.374 4:15.878 
1 1:-0.081 2:0.637 3:-1.045 4:2.917 
1 1:-0.212 2:-0.026 3:-0.676 4:0 
1 1:-0.077 2:0.031 3:0.495 4:6.57 
1 1:-0.751 2:0.078 3:0.146 4:0 
1 1:-2.786 2:0.781 3:-0.072 4:10.411 
1 1:-0.055 2:0.156 3:1.529 4:7.521 
1 1:-0.93 2:0.458 3:0.001 4:27.775 
1 1:-1.779 2:0.318 3:0.535 4:30.779 
1 1:-0.783 2:-0.117 3:-0.017 4:13.343 
1 1:-1.717 2:0.366 3:-0.116 4:29.398 
1 1:-1.138 2:1.051 3:0.709 4:5.177 
1 1:-0.982 2:0.864 3:1.094 4:8.002 
1 1:-0.616 2:-0.331 3:0.307 4:5.284 
1 1:-0.288 2:-0.129 3:0.271 4:12.139 
1 1:-1.442 2:0.295 3:-0.547 4:24.14 
1 1:-0.707 2:-0.808 3:0.144 4:13.343 
1 1:-0.472 2:0.056 3:0.993 4:6.57 
1 1:-0.76 2:0.444 3:-0.757 4:5.621 
0.6776765021314649 1:-2.15 2:2.72 3:-0.39 4:8.21 
1 1:-2.354 2:0.325 3:-0.129 4:24.705 
1 1:-1.478 2:0.006 3:0.44 4:11.186 
1 1:-1.298 2:0.532 3:0.438 4:28.785 
1 1:-1.397 2:0.064 3:-1.094 4:23.67 
1 1:-1.234 2:0.439 3:-2.325 4:17.048 
1 1:-2.205 2:0.497 3:0.731 4:10.269 
1 1:-0.679 2:-0.202 3:-0.045 4:11.098 
1 1:-0.709 2:0.299 3:0.905 4:4.455 
1 1:-1.983 2:0.072 3:-0.341 4:7.31 
1 1:-2.176 2:1.796 3:-2.128 4:11.368 
1 1:-0.107 2:-0.305 3:-0.666 4:0 
1 1:0.012 2:0.374 3:-1.383 4:0 
1 1:-1.102 2:0.871 3:-0.278 4:19.678 
1 1:-0.226 2:0.042 3:-0.813 4:0 
1 1:-2.012 2:0.329 3:1.438 4:17.712 
1 1:-1.099 2:0.256 3:0.812 4:20.984 
1 1:-0.948 2:0.477 3:-0.17 4:40.135 
1 1:-0.263 2:0.04 3:-0.519 4:9.444 
1 1:-0.501 2:0.018 3:-0.333 4:10.588 
1 1:-0.629 2:0.297 3:0.847 4:6.57 
1 1:-0.526 2:0.591 3:0.251 4:28.508 
1 1:-0.423 2:-0.849 3:0.592 4:0 
0.8896838282896916 1:-0.003 2:0.02 3:-0.852 4:17.279 
1 1:-1.207 2:1.107 3:-1.019 4:4.703 
1 1:-1.463 2:0.421 3:-0.565 4:16.285 
0.3061379991795597 1:-0.287 2:6.328 3:-2.077 4:5.189 
1 1:-1.268 2:0.324 3:0.702 4:10.971 
1 1:-1.04 2:0.351 3:0.773 4:10.404 
1 1:-1.258 2:0.168 3:-0.148 4:10.424 
1 1:-0.765 2:0.295 3:-0.415 4:31.937 
1 1:-1.728 2:0.95 3:1.242 4:8.565 
1 1:-0.546 2:0.062 3:0.315 4:10.232 
1 1:-0.465 2:-0.177 3:0.086 4:11.722 
1 1:-1.96 2:0.595 3:-0.374 4:31.78 
1 1:-1.263 2:0.429 3:1.23 4:7.532 
1 1:-0.456 2:0.198 3:0.583 4:14.324 
1 1:-1.138 2:-0.028 3:0.304 4:9.913 
1 1:-1.354 2:-0.496 3:0.432 4:11.459 
1 1:-0.319 2:0.005 3:0.482 4:5.63 
1 1:-1.473 2:0.849 3:0.777 4:27.772 
1 1:-1.423 2:0.087 3:-0.354 4:25.158 
1 1:-0.267 2:-1.009 3:0.258 4:23.218 
1 1:-0.098 2:-0.277 3:0.35 4:10.413 
1 1:-0.113 2:0.104 3:-1.018 4:21.235 
1 1:-0.156 2:0.381 3:-1.204 4:0 
1 1:-0.051 2:-0.155 3:0.754 4:4.703 
1 1:-0.268 2:-0.006 3:-0.389 4:0 
1 1:-1.355 2:0.228 3:-2.241 4:12.918 
1 1:0.003 2:-0.903 3:-0.302 4:0 
1 1:-0.548 2:0.381 3:-0.27 4:0 
1 1:-0.548 2:0.232 3:-1.014 4:5.63 
1 1:-0.535 2:-0.257 3:0.116 4:16.433 
1 1:-0.404 2:0.061 3:-0.328 4:0 
1 1:-0.253 2:-0.027 3:-1.201 4:0 
1 1:-0.718 2:0.605 3:-1.206 4:21.306 
1 1:-0.66 2:0.251 3:-0.122 4:3.796 
1 1:-2.061 2:1.467 3:0.828 4:29.179 
1 1:-0.113 2:0.077 3:1.099 4:6.57 
1 1:-1.486 2:1.166 3:0.271 4:38.141 
1 1:-0.789 2:0.491 3:1.009 4:3.796 
1 1:-1.368 2:0.778 3:-0.041 4:36.633 
1 1:-0.605 2:-0.039 3:-0.306 4:18.374 
1 1:-1.617 2:0.374 3:-0.87 4:29.504 
1 1:-0.769 2:-0.22 3:-0.37 4:20.245 
1 1:-0.132 2:-0.46 3:-0.089 4:16.665 
1 1:-0.731 2:0.233 3:2.306 4:12.992 
1 1:-0.644 2:-0.34 3:0.014 4:16.549 
1 1:-0.482 2:-0.64 3:0.084 4:18.23 
1 1:-0.602 2:0.192 3:-1.082 4:7.521 
1 1:-0.387 2:-1.35 3:0.462 4:19.845 
1 1:-0.719 2:-0.11 3:0.14 4:18.059 
1 1:-1.677 2:0.25 3:0.983 4:18.267 
1 1:-1.764 2:0.741 3:0.881 4:10.898 
1 1:-0.207 2:-0.431 3:0.807 4:8.479 
0.09873023038930216 1:-1.425 2:1.449 3:-0.601 4:21.341 
1 1:-0.705 2:-0.145 3:0.194 4:13.216 
1 1:-0.244 2:-0.511 3:0.089 4:10.413 
1 1:-0.822 2:-0.2 3:-4.345 4:23.218 
1 1:-0.572 2:0.815 3:-0.862 4:4.455 
1 1:-0.669 2:0.14 3:1.924 4:4.703 
1 1:-0.761 2:0.201 3:0.729 4:7.178 
1 1:-0.376 2:0.062 3:1.777 4:6.264 
1 1:-1.208 2:0.681 3:0.136 4:4.461 
1 1:-2.272 2:1.202 3:0.074 4:9.333 
1 1:-2.245 2:-1.237 3:-2.697 4:34.156 
1 1:-1.027 2:0.677 3:0.005 4:6.068 
1 1:-1.305 2:-0.381 3:0.853 4:10.413 
1 1:-1.036 2:-0.065 3:0.097 4:14.483 
1 1:-0.52 2:1.377 3:0.573 4:3.076 
1 1:-2.347 2:-2.173 3:-2.836 4:13.343 
1 1:-0.753 2:-0.216 3:0.047 4:11.898 
1 1:-0.308 2:0.041 3:2.342 4:2.051 
1 1:-2.358 2:1.547 3:-0.405 4:17.367 
1 1:-1.728 2:0.145 3:0.087 4:7.376 
1 1:-2.311 2:0.049 3:-0.555 4:3.55 
1 1:-1.048 2:-0.131 3:0.007 4:21.786 
1 1:-0.924 2:0.115 3:1.327 4:13.552 
1 1:-1.092 2:-0.196 3:-0.058 4:17.89 
1 1:-0.913 2:-0.936 3:-0.134 4:12.472 
1 1:-1.427 2:0.529 3:0.362 4:13.022 
1 1:-1.171 2:-0.246 3:2.233 4:3.29 
1 1:-0.322 2:0.01 3:1.601 4:2.917 
1 1:-1.047 2:0.136 3:-0.163 4:36.635 
1 1:-0.532 2:-0.261 3:0.781 4:11.09 
1 1:-1.398 2:0.177 3:0.112 4:21.952 
0.7868361354134977 1:-1.066 2:0.282 3:0.152 4:13.624 
1 1:-0.435 2:0.002 3:1.76 4:7.222 
1 1:-0.57 2:0.35 3:-2.071 4:2.917 
1 1:-1.137 2:0.314 3:0.263 4:17.161 
1 1:-0.097 2:-0.112 3:1.556 4:9.444 
1 1:-0.611 2:0.044 3:1.91 4:6.57 
1 1:-1.006 2:0.45 3:-1.011 4:1.33 
1 1:-0.599 2:1.293 3:2.113 4:4.703 
1 1:-0.591 2:0.404 3:-0.761 4:19.89 
0.2412922689290652 1:-3.417 2:1.176 3:-2.177 4:17.279 
1 1:-0.866 2:0.04 3:-1.406 4:19.625 
1 1:-1.759 2:0.246 3:0.587 4:20.437 
1 1:-1.909 2:0.387 3:-0.45 4:13.825 
1 1:-1.28 2:0.846 3:1.073 4:8.06 
1 1:-0.197 2:0.174 3:0.214 4:17.279 
1 1:-0.449 2:0.107 3:0.992 4:9.32 
1 1:-0.806 2:0.787 3:1.342 4:0.667 
1 1:-1.834 2:-0.034 3:0.34 4:13.142 
1 1:-1.879 2:0.359 3:-0.334 4:26.78 
1 1:-0.897 2:-0.159 3:1.118 4:3.796 
1 1:-1.766 2:0.597 3:-0.103 4:13.469 
1 1:-0.476 2:0.272 3:1.022 4:5.63 
1 1:-0.493 2:0.21 3:-0.046 4:1.396 
1 1:-0.471 2:0.32 3:-0.775 4:8.343 
1 1:-0.391 2:0.253 3:-0.312 4:5.94 
0.129606217172328 1:-0.021 2:-0.012 3:-0.242 4:7.376 
0.3358480237267841 1:-1.444 2:1.344 3:0.663 4:10.421 
1 1:-0.184 2:-0.542 3:0.948 4:5.434 
1 1:-0.418 2:-0.827 3:2.073 4:10.413 
1 1:-0.828 2:0.899 3:-1.391 4:21.235 
1 1:-0.06 2:0.386 3:-1.318 4:0 
1 1:-0.233 2:0.037 3:-0.384 4:0 
1 1:-0.508 2:0.28 3:0.019 4:0 
1 1:-0.955 2:-0.058 3:-1.319 4:32.333 
1 1:-2.639 2:0.5 3:-4.439 4:15.732 
1 1:-0.112 2:0.024 3:-0.011 4:4.925 
1 1:-0.816 2:-0.185 3:1.85 4:7.037 
1 1:-0.12 2:-0.831 3:-0.966 4:0 
1 1:-0.393 2:0.011 3:0.484 4:9.211 
1 1:-0.121 2:-0.098 3:2.181 4:7.01 
1 1:-1.192 2:0.119 3:1.18 4:23.066 
1 1:-0.39 2:0.227 3:0.449 4:5.33 
1 1:-0.464 2:0.278 3:0.464 4:8.712 
1 1:-1.322 2:1.265 3:2.281 4:4.525 
1 1:-0.073 2:0.187 3:0.393 4:2.08 
1 1:-1.849 2:0.565 3:-0.279 4:29 
1 1:-0.508 2:-0.144 3:-0.828 4:0 
1 1:-0.345 2:0.563 3:0.107 4:58.096 
0.4421059856016236 1:-0.289 2:1.549 3:-0.329 4:2.917 
1 1:-0.791 2:-0.223 3:0.346 4:12.749 
1 1:-1.078 2:-0.016 3:-0.29 4:18.551 
1 1:-2.11 2:1.053 3:0.309 4:30.759 
1 1:-1.666 2:0.189 3:0.475 4:16.889 
1 1:-2.644 2:0.768 3:0.44 4:5.025 
1 1:-2.049 2:-0.449 3:0.667 4:37.72 
1 1:-1.503 2:0.955 3:0.639 4:11.037 
1 1:-0.396 2:0.315 3:1.566 4:11.387 
1 1:-1.908 2:0.703 3:1.226 4:13.73 
1 1:-1.531 2:-0.72 3:-0.164 4:32.21 
1 1:-0.605 2:0.631 3:2.559 4:6.575 
1 1:-1.255 2:-0.142 3:1.115 4:15.991 
1 1:-0.431 2:0.356 3:2.235 4:0.831 
0.1839632458395091 1:-0.574 2:0.956 3:1.405 4:8.406 
1 1:-2.814 2:4.204 3:2.578 4:12.363 
1 1:-1.186 2:0.498 3:0.729 4:8.397 
1 1:-0.938 2:0.448 3:0.293 4:17.161 
1 1:-0.623 2:0.139 3:-0.964 4:17.279 
1 1:-0.684 2:0.965 3:1.356 4:9.349 
1 1:-0.297 2:-0.003 3:-0.632 4:14.815 
1 1:0.054 2:-0.823 3:0.259 4:8.479 
1 1:-0.691 2:0.922 3:1.326 4:23.218 
1 1:-0.101 2:-0.242 3:0.767 4:10.413 
1 1:-1.327 2:1.47 3:0.277 4:27.723 
1 1:-2.288 2:1.439 3:0.408 4:16.417 
1 1:-0.159 2:-0.086 3:-0.917 4:0 
1 1:-0.091 2:0.304 3:1.289 4:3.529 
1 1:-1.737 2:-0.04 3:-0.952 4:27.822 
1 1:-1.539 2:0.094 3:-3.63 4:18.267 
1 1:-0.847 2:0.069 3:0.573 4:5.434 
1 1:-1.22 2:0.18 3:0.107 4:33.391 
1 1:-1.858 2:1.459 3:-0.38 4:6.582 
1 1:-2.131 2:0.879 3:1.554 4:17.927 
1 1:-0.509 2:0.37 3:0.289 4:4.703 
1 1:-1.296 2:2.244 3:1.106 4:29.018 
1 1:-0.411 2:0.679 3:0.758 4:2.917 
1 1:-0.785 2:-0.053 3:0.895 4:20.568 
1 1:-0.153 2:0.294 3:2.596 4:7.521 
1 1:-0.77 2:0.371 3:1.073 4:15.987 
1 1:0 2:-0.201 3:1.007 4:1.313 
1 1:-0.442 2:0.086 3:-0.803 4:6.355 
1 1:-1.493 2:0.182 3:-0.007 4:9.814 
1 1:-2.715 2:0.054 3:1.103 4:10.309 
0.07117180246219697 1:-0.1 2:4.336 3:-1.066 4:15.417 
1 1:-0.602 2:0.134 3:0.362 4:0 
1 1:-1.459 2:0.09 3:0.586 4:14.311 
1 1:-0.471 2:-0.121 3:1.582 4:3.076 
1 1:-1.149 2:0.147 3:0.904 4:7.579 
1 1:-0.964 2:-0.552 3:-0.009 4:61.361 
1 1:-0.328 2:-0.018 3:0.276 4:12.264 
1 1:-0.885 2:0.629 3:0.446 4:17.397 
1 1:-1.115 2:-0.15 3:-0.335 4:7.031 
1 1:-0.713 2:0.376 3:1.064 4:16.292 
1 1:-1.037 2:0.098 3:0.171 4:17.344 
1 1:-1.306 2:0.214 3:0.76 4:11.289 
1 1:-2.089 2:1.454 3:-0.975 4:15.016 
1 1:-1.152 2:1.228 3:1.495 4:4.703 
1 1:-1.474 2:0.262 3:0.712 4:9.939 
1 1:-0.803 2:0.274 3:-0.762 4:9.268 
1 1:-0.928 2:0.695 3:-0.099 4:4.453 
1 1:-1.106 2:0.035 3:0.635 4:17.62 
1 1:-0.93 2:-0.462 3:-0.196 4:15.848 
0.07107852396528283 1:-0.812 2:0.741 3:1.013 4:18.869 
1 1:-1.156 2:0.248 3:0.913 4:6.981 
1 1:-0.739 2:-0.03 3:0.037 4:9.067 
1 1:-1.347 2:1.068 3:0.278 4:6.08 
1 1:-0.207 2:0.018 3:-0.831 4:0 
0.7011542536553503 1:0.024 2:-0.135 3:-0.508 4:10.413 
1 1:-1.368 2:0.76 3:-2.04 4:0 
1 1:-0.322 2:0.315 3:-1.085 4:0 
1 1:-0.158 2:-0.042 3:-0.764 4:0 
1 1:-0.616 2:0.045 3:0.268 4:17.279 
1 1:-1.622 2:0.135 3:-1.968 4:16.407 
1 1:-1.48 2:0.096 3:0.568 4:9.444 
1 1:-2.47 2:-0.424 3:0.089 4:6.643 
1 1:-0.548 2:-0.32 3:-0.869 4:11.387 
1 1:-1.544 2:-0.016 3:0.511 4:8.031 
1 1:-0.445 2:-0.016 3:0.555 4:15.307 
1 1:-2.173 2:1.043 3:-0.491 4:22.851 
0.02154688974045554 1:-0.23 2:0.543 3:-0.356 4:4.455 
1 1:-0.396 2:0.207 3:-0.897 4:23.218 
1 1:-1.859 2:-0.09 3:-2.019 4:30.89 
1 1:-0.964 2:-2.364 3:-3.067 4:0 
1 1:-1.369 2:0.522 3:-0.093 4:19.346 
1 1:-0.183 2:0.208 3:-0.233 4:55.101 
1 1:-0.993 2:-0.218 3:0.629 4:23.87 
1 1:-0.419 2:-1.005 3:-0.416 4:43.126 
1 1:-1.919 2:0.776 3:-2.385 4:19.872 
1 1:-0.062 2:-0.679 3:0.726 4:9.197 
1 1:-0.333 2:-0.007 3:-1.581 4:0 
1 1:-0.719 2:-0.758 3:-0.279 4:37.094 
1 1:-2.261 2:-0.364 3:-1.368 4:24.21 
1 1:-0.271 2:-0.187 3:1.763 4:14.324 
1 1:-1.051 2:-0.505 3:0.175 4:25.75 
1 1:0 2:-0.104 3:-2.102 4:0 
1 1:-0.266 2:-0.001 3:-1.086 4:0 
1 1:-1.147 2:3.933 3:0.21 4:0 
1 1:-0.29 2:-0.42 3:0.167 4:0 
1 1:-0.497 2:-0.067 3:0.366 4:13.343 
1 1:-1.005 2:-0.657 3:0.193 4:43.126 
1 1:-0.943 2:0.136 3:0.712 4:32.164 
1 1:-0.547 2:0.124 3:0.865 4:9.349 
1 1:-1.122 2:0.8 3:0.998 4:18.052 
1 1:-0.065 2:-0.069 3:1.748 4:5.434 
1 1:-0.702 2:-0.045 3:0.492 4:20.447 
1 1:-0.402 2:-0.502 3:1.104 4:15.357 
1 1:-0.289 2:-0.725 3:1.565 4:10.413 
1 1:-1.562 2:1.272 3:-3.494 4:0 
1 1:-0.334 2:0.335 3:-1.117 4:21.235 
1 1:-0.487 2:-1.109 3:1.797 4:0 
1 1:-1.418 2:-0.116 3:-1.951 4:12.355 
1 1:-0.624 2:-1.087 3:-0.155 4:40.83 
1 1:-0.316 2:0.182 3:0.679 4:6.57 
1 1:-0.314 2:-0.29 3:-3.413 4:0 
1 1:-2.558 2:0.012 3:0.639 4:14.803 
1 1:-0.108 2:0.16 3:1.209 4:4.925 
1 1:-2.396 2:0.147 3:0.459 4:8.025 
1 1:-1.313 2:-0.793 3:-0.205 4:13.456 
0.5962850297932333 1:-3.113 2:2.793 3:0.934 4:20.245 
1 1:-0.426 2:-0.083 3:-0.468 4:0 
1 1:-2.307 2:-0.2 3:1.218 4:10.851 
1 1:-0.743 2:0.567 3:1.591 4:6.724 
1 1:-0.729 2:-0.344 3:-0.511 4:16.293 
1 1:-0.514 2:0.559 3:-1.124 4:15.307 
1 1:-0.746 2:-0.186 3:-0.062 4:5.365 
1 1:-1.32 2:0.47 3:-0.004 4:7.923 
1 1:-0.81 2:0.45 3:1.512 4:5.63 
1 1:-1.922 2:0.274 3:-0.594 4:31.966 
1 1:-2.392 2:-0.006 3:0.696 4:22.521 
1 1:-1.474 2:0.292 3:0.188 4:10.643 
1 1:-0.831 2:-0.081 3:0.539 4:18.752 
1 1:-1.41 2:-0.156 3:0.223 4:21.108 
1 1:-2.048 2:-0.806 3:0.539 4:25.058 
1 1:-1.573 2:0.736 3:-5.422 4:15.307 
1 1:-1.463 2:0.174 3:-0.033 4:11.261 
1 1:-1.339 2:0.48 3:0.625 4:6.076 
1 1:-0.633 2:-0.345 3:0.195 4:28.104 
1 1:-2.035 2:0.107 3:1.601 4:10.463 
1 1:-0.744 2:0.223 3:-0.102 4:5.864 
1 1:-0.608 2:-0.717 3:0.974 4:21.685 
1 1:-0.784 2:0.433 3:3.047 4:4.703 
1 1:-0.971 2:0.793 3:-0.152 4:6.528 
1 1:-0.773 2:0.126 3:0.821 4:31.169 
1 1:-0.787 2:0.533 3:0.786 4:8.895 
1 1:0 2:-1.07 3:-0.787 4:0 
1 1:-0.416 2:-0.591 3:-0.145 4:24.981 
1 1:-0.816 2:0.474 3:0.646 4:6.575 
1 1:-0.758 2:0.339 3:0.834 4:14.206 
1 1:-0.184 2:-1.299 3:0.891 4:4.703 
1 1:-1.091 2:-0.183 3:1.092 4:17.051 
1 1:-0.437 2:-0.031 3:-0.688 4:0.563 
1 1:-1.965 2:0.187 3:0.872 4:15.168 
0.3537441326503411 1:-1.664 2:1.029 3:0.346 4:21.852 
1 1:-0.401 2:0.622 3:0.966 4:4.014 
1 1:-0.999 2:0.965 3:1.272 4:10.394 
1 1:-0.395 2:-0.315 3:0.118 4:0 
1 1:-0.41 2:0.016 3:0.4 4:18.048 
1 1:-0.102 2:0.494 3:-1.707 4:0 
1 1:-0.084 2:0.002 3:-1.131 4:0 
1 1:-0.315 2:0.163 3:0.046 4:5.434 
1 1:-0.153 2:0.064 3:0.045 4:6.964 
1 1:-1.211 2:1.158 3:-1.074 4:22.772 
1 1:-2.374 2:0.819 3:1.243 4:12.452 
1 1:-1.264 2:-1.169 3:-4.564 4:13.231 
1 1:-0.683 2:0.475 3:1.649 4:10.577 
1 1:-0.738 2:0.52 3:2.96 4:12.363 
1 1:-0.218 2:-0.206 3:-0.076 4:13.343 
1 1:-0.004 2:-0.136 3:-0.56 4:26.197 
1 1:-0.768 2:0.174 3:0.282 4:20.888 
1 1:-2.342 2:-0.178 3:-0.199 4:25.376 
1 1:0 2:0.139 3:-1.289 4:0 
1 1:-0.76 2:0.365 3:0.988 4:14.686 
1 1:-1.336 2:0.54 3:0.248 4:9.088 
1 1:-0.344 2:0.092 3:2.064 4:9.444 
1 1:-0.597 2:0.357 3:-0.212 4:0 
1 1:-0.482 2:-0.264 3:-0.212 4:33.16 
1 1:-1.62 2:-0.345 3:-1.153 4:26.529 
1 1:-1.422 2:0.058 3:0.432 4:22.047 
1 1:-0.776 2:0.446 3:1.24 4:20.886 
1 1:-0.602 2:0.186 3:0.209 4:6.409 
1 1:-0.229 2:-0.309 3:0.155 4:5.434 
1 1:-0.043 2:-0.217 3:-0.11 4:1.427 
1 1:-0.509 2:0.101 3:1.203 4:21.235 
1 1:-1.542 2:0.463 3:0.301 4:41.274 
1 1:-0.642 2:0.213 3:1.259 4:33.398 
1 1:-0.725 2:0.266 3:0.424 4:9.222 
1 1:-0.047 2:-0.013 3:1.166 4:5.63 
1 1:-2.165 2:1.109 3:0.583 4:36.944 
1 1:-0.448 2:0.766 3:0.377 4:3.786 
1 1:-0.135 2:-0.027 3:0.105 4:6.57 
1 1:-1.487 2:0.307 3:-0.498 4:24.43 
1 1:-0.209 2:0.078 3:-0.538 4:0 
1 1:-0.247 2:-0.532 3:-1.723 4:0 
1 1:-0.941 2:2.061 3:1.159 4:26.197 
1 1:-0.511 2:0.09 3:0.189 4:0 
1 1:-2.162 2:0.151 3:-0.175 4:10.98 
1 1:-0.325 2:0.171 3:-3.191 4:0 
1 1:-0.489 2:0.141 3:0.602 4:28.104 
1 1:-0.91 2:0.213 3:0.352 4:24.029 
1 1:-0.093 2:0.071 3:-2.271 4:0 
1 1:-0.359 2:0.08 3:-0.443 4:0 
1 1:-0.659 2:0.045 3:0.639 4:15.479 
1 1:-0.435 2:-0.194 3:-0.736 4:40.896 
1 1:-0.517 2:0.06 3:1.601 4:0 
1 1:-1.536 2:-0.019 3:0.11 4:19.116 
1 1:-1.162 2:1.043 3:1.226 4:9.272 
1 1:-0.432 2:0.664 3:1.571 4:0 
1 1:-1.441 2:0.473 3:1.176 4:6.101 
1 1:-0.152 2:-0.907 3:-0.961 4:7.521 
1 1:-1.645 2:0.801 3:0.147 4:18.595 
1 1:-1.496 2:1.886 3:-2.878 4:0 
1 1:-0.752 2:0.914 3:0.719 4:27.633 
1 1:-1.499 2:0.273 3:0.607 4:25.679 
0.9103151386369079 1:-1.771 2:3.181 3:-3.972 4:23.218 
1 1:-0.818 2:-0.127 3:0.398 4:10.247 
1 1:-0.199 2:0.034 3:-0.72 4:13.345 
1 1:-2.531 2:1.214 3:0.58 4:13.05 
1 1:-0.23 2:0.342 3:0.47 4:4.703 
1 1:-0.918 2:0.246 3:0.006 4:29.455 
1 1:-0.545 2:-0.002 3:-0.31 4:0 
1 1:-0.123 2:-0.112 3:-0.622 4:0 
1 1:-1.031 2:-0.08 3:0.341 4:10.012 
1 1:-0.23 2:0.41 3:-1.065 4:0 
1 1:-0.811 2:-0.939 3:0.929 4:27.325 
1 1:-0.589 2:0.051 3:-0.198 4:8.717 
1 1:-0.081 2:0.484 3:-1.335 4:0 
1 1:-0.626 2:0.826 3:0.54 4:4.703 
1 1:-0.221 2:0.009 3:0.356 4:29.179 
0.9741761648756192 1:-0.251 2:-0.751 3:0.047 4:35.152 
1 1:-0.64 2:0.503 3:-0.956 4:11.387 
1 1:-0.47 2:0.207 3:0.384 4:0 
1 1:-0.231 2:-0.126 3:0.31 4:6.57 
1 1:-0.393 2:0.168 3:0.117 4:29.179 
1 1:-0.477 2:0.705 3:-0.891 4:22.226 
1 1:-0.259 2:0.156 3:-0.907 4:0 
1 1:-0.326 2:-1.3 3:-0.697 4:0 
1 1:-0.792 2:0.103 3:-0.46 4:8.292 
1 1:0.106 2:-0.257 3:1.052 4:5.63 
1 1:-0.29 2:0.079 3:0.513 4:0 
0.5283860656103069 1:-1.852 2:2.574 3:-0.598 4:14.324 
1 1:-2.067 2:0.298 3:0.468 4:25.203 
1 1:-1.638 2:0.676 3:0.804 4:21.867 
1 1:-0.738 2:-0.181 3:0.317 4:10.247 
1 1:-2.485 2:2.295 3:0.589 4:10.413 
1 1:-0.477 2:0.069 3:0.866 4:0 
1 1:-1.271 2:0.157 3:0.315 4:41.406 
1 1:0.115 2:2.297 3:-3.163 4:0 
1 1:-1.363 2:0.532 3:1.132 4:25.203 
1 1:-0.362 2:0.002 3:-0.354 4:0 
1 1:-0.272 2:0.023 3:-1.332 4:0 
1 1:-1.645 2:0.952 3:1.493 4:17.279 
0.4659094939143975 1:-0.371 2:3.433 3:-1.559 4:32.164 
